%YAML:1.0
my_svm: !!opencv-ml-svm
   svm_type: C_SVC
   kernel: { type:LINEAR }
   C: 1.0000000149011612e-01
   term_criteria: { epsilon:2.2204460492503131e-16, iterations:2000 }
   var_all: 3780
   var_count: 3780
   class_count: 2
   class_labels: !!opencv-matrix
      rows: 1
      cols: 2
      dt: i
      data: [ -1, 1 ]
   sv_total: 1
   support_vectors:
      - [ -7.57898241e-02, 6.56786412e-02, -7.10796565e-02,
          -1.66075618e-03, -5.70131578e-02, -9.55532342e-02,
          5.75318150e-02, -1.88454967e-02, -1.51481062e-01,
          -1.29210398e-01, 8.36617500e-02, 1.33126453e-02,
          -2.39978172e-02, -1.40341580e-01, -8.11784267e-02,
          1.12946033e-01, 3.10403369e-02, -7.43153244e-02,
          -1.01448044e-01, -5.19169271e-02, -6.77582771e-02,
          9.25345197e-02, 4.68956046e-02, -7.58108199e-02,
          4.26863226e-05, 1.92212537e-02, -1.39283165e-01,
          4.01913188e-02, 8.62084031e-02, -1.09191909e-02,
          -5.14775589e-02, 8.91865939e-02, -1.18172996e-01,
          -9.45395753e-02, 5.56811178e-03, -1.13655608e-02,
          -1.20591655e-01, -9.47822351e-03, 5.44644780e-02,
          -6.77328482e-02, -1.51803330e-01, -1.47428751e-01,
          1.59635022e-01, 1.72732607e-01, -4.18291539e-02,
          -1.18756786e-01, -1.26489595e-01, -5.51211946e-02,
          -8.11891332e-02, -2.54527181e-01, -2.11473569e-01,
          1.81572840e-01, 1.08391128e-01, -3.39418580e-03,
          -3.12018208e-02, 2.30594166e-02, -2.41685994e-02,
          -1.86536640e-01, 3.71077545e-02, -7.96423033e-02,
          -1.57095537e-01, 5.73336892e-02, -1.78923428e-01,
          -6.78431839e-02, 3.56106944e-02, -8.31685141e-02,
          -9.82007906e-02, 4.34436835e-02, -1.99100405e-01,
          -7.28719682e-02, -6.30460214e-03, -6.15918525e-02,
          -8.42582062e-02, 3.30173299e-02, 2.19022602e-01,
          1.25727952e-01, -1.21605717e-01, 8.96290466e-02,
          1.57345191e-01, 1.79526448e-01, 1.67147573e-02,
          -7.92420655e-02, 8.03281832e-03, 2.19139084e-01,
          5.13428636e-02, 1.07945241e-02, -6.58758208e-02,
          -1.35397866e-01, 2.08171899e-03, -5.63551560e-02,
          -9.12265256e-02, 8.41875300e-02, 3.92117612e-02,
          3.88188101e-02, -6.23060279e-02, -4.25863490e-02,
          -1.66022256e-02, -4.71419320e-02, -8.70585963e-02,
          -2.05429783e-03, -7.84649104e-02, 9.43924785e-02,
          8.77286717e-02, 3.33086625e-02, -1.18956193e-01,
          2.05595605e-02, -7.31863156e-02, 9.21885297e-02,
          -1.27769008e-01, -3.64333875e-02, 9.69137624e-02,
          -1.03621617e-01, -6.60919622e-02, -1.26139760e-01,
          -1.35331407e-01, 8.90384242e-02, -5.35957925e-02,
          -4.42580171e-02, -1.15031652e-01, 2.53208485e-02,
          -4.65950221e-02, -7.00807199e-02, 7.51715619e-03,
          7.50889257e-02, 9.88919288e-02, 2.52312161e-02,
          -1.17469467e-02, -6.29272163e-02, 3.04941693e-03,
          -5.00200130e-02, 7.06911692e-03, -1.09752811e-01,
          1.50089279e-01, 1.50548622e-01, 9.02685076e-02, 3.24124866e-03,
          -9.31747556e-02, 1.48512036e-01, -7.28532970e-02,
          2.54096419e-01, -7.03930482e-02, 1.82770848e-01,
          -1.15304245e-02, -2.54893303e-02, 6.69994131e-02,
          -1.26348035e-02, 5.80505989e-02, 1.79115869e-02,
          -8.23475122e-02, 8.11351612e-02, 5.17590195e-02,
          4.69419025e-02, 5.33670187e-02, 1.28647871e-02,
          -2.65027937e-02, 2.36739561e-01, 1.51169732e-01,
          -9.39261392e-02, 2.07312163e-02, 1.25094010e-02,
          -4.57362225e-03, 6.63356334e-02, -7.82195106e-03,
          6.93625445e-03, 6.46056011e-02, 5.76746203e-02, 8.31292197e-02,
          8.32935721e-02, 1.28121823e-02, -1.73788607e-01,
          -5.78809194e-02, 1.15931541e-01, -3.70035358e-02,
          1.98343575e-01, 5.45748621e-02, 5.72502799e-02,
          -6.30515488e-03, -1.84971082e-04, -2.20843494e-01,
          8.89242589e-02, -4.15028073e-02, -1.45936273e-02,
          6.76880181e-02, -6.60384297e-02, -2.18526587e-01,
          -5.00854570e-03, 6.14428222e-02, 9.13342554e-03,
          6.62403032e-02, -1.50427699e-01, 5.34949489e-02,
          5.88151664e-02, -1.18896561e-02, -8.29553679e-02,
          9.27887261e-02, 2.38758802e-01, 6.52396530e-02,
          -2.10183393e-02, -4.39647213e-02, -1.16739593e-01,
          1.16281562e-01, -5.38808554e-02, 1.09029099e-01,
          6.66601658e-02, 1.53564103e-02, -1.71987489e-01,
          -2.36102454e-02, 1.35443524e-01, 1.24542803e-01,
          1.14795029e-01, 5.04028052e-02, -6.62743393e-03,
          -1.02596283e-02, 4.86475648e-03, -1.14745803e-01,
          -1.37755936e-02, -1.59864321e-01, -7.06021190e-02,
          9.06121582e-02, -1.81201592e-01, 7.60173351e-02,
          -9.84808505e-02, 1.89657006e-02, -1.05801158e-01,
          -1.23512834e-01, 4.49944176e-02, -1.27865717e-01,
          4.05959636e-02, -9.67789814e-03, 7.51101747e-02,
          5.17729707e-02, -3.29625681e-02, -4.94409613e-02,
          7.38595128e-02, -5.03486022e-02, 2.61658914e-02,
          3.36306989e-02, -2.34490052e-01, 6.46067187e-02,
          -1.31879777e-01, -1.13277078e-01, -2.42732242e-01,
          -2.81698108e-02, -1.13364980e-02, -2.44801980e-03,
          -7.61113130e-04, -4.04723510e-02, 4.93603311e-02,
          1.96531042e-01, 1.03053451e-01, -9.97613594e-02,
          -8.48415419e-02, 8.23212415e-02, -5.03263921e-02,
          1.30022289e-02, 1.26000628e-01, -3.32688093e-02,
          -3.25732529e-02, 7.82491788e-02, -5.53421192e-02,
          6.36205897e-02, 6.05431153e-03, -1.17637642e-01,
          2.60794535e-02, 1.11266539e-01, 3.77510339e-02, 1.54267075e-02,
          2.25551799e-02, -6.24699630e-02, -3.62665132e-02,
          5.41684665e-02, -3.95963416e-02, -1.80513151e-02,
          -1.95265725e-01, -5.27486354e-02, 1.72252338e-02,
          8.64367560e-02, -9.92721394e-02, -1.46659628e-01,
          7.58099034e-02, 2.89874338e-02, 3.95829305e-02,
          -4.04525436e-02, -7.55107552e-02, 2.10732184e-02,
          -8.82141665e-03, -1.45629495e-01, -6.76823556e-02,
          1.94765612e-01, -4.88373190e-02, -7.39510497e-03,
          -1.29453480e-01, -1.22421250e-01, -6.51471838e-02,
          -8.80469941e-03, -3.30052935e-02, 6.57468140e-02,
          1.58750087e-01, 8.39563161e-02, 3.27187777e-02,
          -1.08295366e-01, 8.67913738e-02, 2.17463039e-02,
          -2.56041307e-02, -5.29043786e-02, 2.42205992e-01,
          1.62726305e-02, 4.47653607e-02, -1.65432617e-01,
          -2.80376911e-01, -6.87595755e-02, -1.31456599e-01,
          -3.24158743e-02, -5.40750362e-02, -1.72849244e-03,
          -1.03688598e-01, -8.81266370e-02, -1.27120554e-01,
          -1.91787913e-01, -5.21067120e-02, 4.28488888e-02,
          2.82994788e-02, 1.26972601e-01, 2.86600869e-02,
          -1.40839284e-02, 6.14213273e-02, 3.12556326e-02,
          8.91834423e-02, 2.14470983e-01, 1.01910837e-01, 1.11109763e-01,
          -1.06297441e-01, 7.91207775e-02, 1.03857361e-01,
          3.11075244e-02, 1.54562846e-01, 3.17474931e-01, 1.77052140e-01,
          1.78397283e-01, 1.69481747e-02, -3.24940011e-02,
          1.35395201e-02, -1.55412659e-01, -9.10538658e-02,
          -9.54675600e-02, -3.49936970e-02, 5.22030964e-02,
          -1.92938671e-02, -5.53542301e-02, -5.47343418e-02,
          -4.06010896e-02, -5.03995121e-02, -5.09069338e-02,
          1.04286879e-01, 9.84910801e-02, 1.11731462e-01,
          -2.91091707e-02, -1.59294516e-01, -4.01969664e-02,
          -8.66366029e-02, 1.30951315e-01, 1.96325667e-02,
          -1.70830579e-03, 1.64086252e-01, -1.65826641e-03,
          9.89468470e-02, -1.32665699e-02, -8.31224304e-03,
          5.53807653e-02, 1.82128008e-02, 1.45970523e-01,
          -3.86329815e-02, 4.27776165e-02, 5.89967035e-02,
          5.17007671e-02, 1.18517943e-01, 1.92381609e-02, 7.74090588e-02,
          -3.39822881e-02, -5.72487228e-02, 5.64825209e-03,
          1.16768569e-01, 1.26490340e-01, -8.65201093e-03,
          -1.28072798e-01, -3.12656201e-02, -1.59266189e-01,
          1.64106026e-01, 2.41929479e-02, -1.08840570e-01,
          -1.50139979e-03, 1.42397033e-03, -4.60537300e-02,
          1.71227232e-02, -1.08788639e-01, 1.35228798e-01,
          9.32411943e-03, 2.57824026e-02, 2.98932008e-02, 2.30517596e-01,
          -6.24346137e-02, -7.52488500e-04, 1.95346758e-01,
          -3.02315336e-02, -1.59952454e-02, 2.11619169e-01,
          -1.89830456e-02, 2.34271791e-02, 1.47010967e-01,
          -1.00140333e-01, -4.63519841e-02, 2.79859394e-01,
          8.97873193e-02, 8.35444257e-02, 9.70888361e-02,
          -5.26574953e-03, -4.48916331e-02, 1.44663975e-01,
          3.67870852e-02, -1.64384961e-01, -4.16975357e-02,
          -7.63413385e-02, 8.62203464e-02, 1.04087383e-01,
          3.80956791e-02, -2.48940717e-02, 1.44502342e-01,
          -1.85056746e-01, -5.80364689e-02, -4.72496971e-02,
          -7.97299594e-02, 7.22779380e-03, 7.69771039e-02,
          4.94785719e-02, 4.04091626e-02, 5.44533804e-02, 1.54427802e-02,
          -8.62892121e-02, 1.78430304e-01, -3.59185152e-02,
          5.55984415e-02, 7.91359171e-02, 1.24183916e-01, 1.88032776e-01,
          -6.16195127e-02, -9.32093561e-02, -8.21625218e-02,
          4.92643863e-02, -1.35783166e-01, 4.89035659e-02,
          7.12443888e-02, 5.11522181e-02, 9.93278846e-02, 6.77751750e-02,
          2.05277100e-01, 1.08542822e-01, 1.07267108e-02,
          -9.65812653e-02, 6.00897856e-02, 4.74326760e-02,
          1.94233760e-01, 1.66325867e-01, -4.53484319e-02,
          5.88880666e-02, 2.76067406e-01, 4.13660817e-02, 5.28878458e-02,
          3.30897979e-02, 6.56543076e-02, 5.22854924e-02, 1.84760287e-01,
          1.39208809e-02, 4.25842032e-02, -5.26916869e-02,
          5.24587817e-02, -8.17141123e-03, -1.62805170e-02,
          5.94241768e-02, 3.20420526e-02, 6.20815158e-02,
          -3.77728194e-02, 2.88182367e-02, 4.87149656e-02,
          7.88554698e-02, 6.63385317e-02, 3.93825471e-02, 3.97380702e-02,
          -6.71822578e-02, 4.46164124e-02, -2.10524872e-01,
          8.63893051e-03, 6.84615672e-02, 5.46944365e-02, 4.21873219e-02,
          9.61612463e-02, -6.52696490e-02, -1.33816479e-02,
          1.29860818e-01, -8.12577009e-02, 5.72284907e-02,
          1.35374621e-01, 1.51966363e-01, 1.41178340e-01, 1.63708434e-01,
          5.88276749e-03, 1.39979690e-01, -2.93314159e-02,
          1.39038682e-01, 1.70440748e-02, -2.72675324e-02,
          -2.48426627e-02, 8.85438919e-02, 7.32972613e-03,
          -1.45644650e-01, 1.32833049e-01, -1.10589772e-01,
          -1.13899885e-02, -4.00256366e-02, 3.16607296e-01,
          3.23642679e-02, 4.20504920e-02, -1.11709200e-01,
          -5.06048054e-02, 6.98065534e-02, 4.38027643e-03,
          3.75216827e-02, -1.11190908e-01, -1.22396663e-01,
          -6.59997389e-02, 5.93708679e-02, 4.90985438e-02,
          -1.95640415e-01, 1.29146010e-01, -7.91154355e-02,
          1.07469654e-03, -5.39505295e-02, 1.82009414e-01,
          -4.57599908e-02, 6.37112558e-02, -1.63229793e-01,
          -8.64639357e-02, 9.77403298e-03, -3.65840178e-03,
          -7.18024150e-02, 1.03023909e-01, -5.24760187e-02,
          3.33320946e-02, 1.07312575e-01, -8.31234381e-02,
          1.78800896e-02, 1.41596600e-01, 3.73343416e-02,
          -4.89973202e-02, 9.08642039e-02, -1.30820647e-01,
          -1.38458877e-03, 1.90225355e-02, -5.92173383e-05,
          -1.26836613e-01, 1.71561167e-01, 1.13838904e-01,
          -1.25296399e-01, -3.05487160e-02, -1.36843234e-01,
          1.66808665e-01, 8.85858238e-02, -1.19595058e-01,
          1.21208586e-01, 1.66558370e-01, 1.99828055e-02,
          -3.83281745e-02, 2.08091334e-01, -1.22328244e-01,
          8.56925920e-02, -4.94179614e-02, 3.69876809e-02,
          3.58651727e-02, 2.97566094e-02, 4.06154022e-02,
          -1.55728415e-01, -1.25508045e-03, -1.35520518e-01,
          9.34777874e-03, 6.31939098e-02, -2.12499257e-02,
          -2.24138543e-01, 4.14610393e-02, 9.48760062e-02,
          -6.43696934e-02, -3.57213169e-02, -1.29639387e-01,
          1.19707733e-02, -4.46503953e-04, -1.06992587e-01,
          4.56483625e-02, -5.32068349e-02, -6.34469138e-03,
          -2.38455817e-01, 2.17290632e-02, -4.02518623e-02,
          5.05658314e-02, 6.95077702e-02, 7.93230683e-02,
          -1.18024834e-01, -6.98774382e-02, 1.10217199e-01,
          -7.79045671e-02, 1.61203906e-01, -2.03714240e-02,
          6.29792884e-02, 3.65196429e-02, -4.44662012e-02,
          -1.19588755e-01, 4.66189608e-02, 1.85757682e-01,
          1.10625520e-01, 4.52635065e-02, -8.41712132e-02,
          6.76589459e-02, -1.11527666e-02, -7.47352168e-02,
          -1.58443935e-02, -1.12156406e-01, -1.42317470e-02,
          -2.06955802e-02, -1.34982556e-01, -1.56532750e-01,
          6.76497445e-02, 1.37909623e-02, -4.99519445e-02,
          -5.40930033e-02, -6.51892126e-02, 1.22714974e-01,
          -7.19387038e-03, -4.96095121e-02, -2.89896093e-02,
          1.11990223e-04, 6.19856864e-02, -6.68597668e-02,
          1.22584991e-01, 3.85503820e-03, -3.61768678e-02,
          -7.49864653e-02, -4.52250130e-02, -1.25703081e-01,
          -1.79112498e-02, 1.02391616e-01, -2.14335024e-02,
          2.01691128e-03, -7.60291144e-02, -4.42036800e-02,
          -3.65240723e-02, 1.79817323e-02, -7.57204816e-02,
          5.42653501e-02, 9.66581628e-02, -3.76809388e-02,
          -4.06182595e-02, -9.28534716e-02, 1.39791388e-02,
          -3.12374458e-02, 6.38007596e-02, -9.40084830e-02,
          -8.14949200e-02, -8.68794397e-02, -1.31715640e-01,
          1.85123786e-01, 1.20582893e-01, 7.50726089e-02,
          -8.91093456e-04, 7.37927034e-02, 1.15396366e-01,
          -1.50056947e-02, -2.95312386e-02, 1.80797413e-01,
          1.87492520e-01, 1.12637423e-01, 1.31592825e-01, 5.02553470e-02,
          1.33063756e-02, 1.22074801e-02, -2.29175806e-01,
          -3.90067436e-02, 1.32631913e-01, 4.53833630e-03,
          -9.35264677e-02, -1.25291217e-02, 1.02734946e-01,
          -1.94631759e-02, 1.45388871e-01, 2.50961185e-02,
          -6.12647347e-02, -8.67836475e-02, 9.40811262e-02,
          1.27599444e-02, 1.54228121e-01, 6.61051348e-02,
          -1.72348589e-01, -3.07408590e-02, 1.51633024e-01,
          2.25093570e-02, 1.17303878e-01, -4.05796133e-02,
          -1.85831785e-01, 4.29654345e-02, 1.15687616e-01,
          4.09892946e-02, 3.20289209e-02, -1.27277270e-01,
          -1.25740916e-01, -3.28717865e-02, 1.14720635e-01,
          2.29227194e-03, 2.10506931e-01, 5.32674566e-02,
          -3.34080160e-02, -1.98905244e-02, 1.05285086e-01,
          5.50237931e-02, 2.67865837e-01, 4.05912921e-02,
          -8.17591771e-02, 7.79525191e-02, -1.33667365e-02,
          -1.14348300e-01, -3.75160985e-02, 7.92516768e-02,
          -4.67220806e-02, 5.09816892e-02, 1.31476074e-01,
          1.68842487e-02, 1.18090175e-01, 9.75299925e-02,
          -1.16593309e-01, 1.53452205e-02, 4.98429872e-02,
          -7.66019756e-03, 8.78039300e-02, -8.45437273e-02,
          -2.63753772e-01, -2.90492928e-04, 5.22542559e-02,
          -5.87946400e-02, -3.16149145e-02, -6.90233149e-03,
          -1.04701675e-01, -2.67222282e-02, -1.75776049e-01,
          -6.08957149e-02, 1.66563824e-01, 5.16287237e-02,
          -4.57737669e-02, 7.52712563e-02, 7.88686797e-03,
          -1.32671237e-01, 1.04329847e-01, 1.72726199e-01,
          5.45110852e-02, 2.23599677e-03, -1.78963274e-01,
          2.19103381e-01, -8.25412758e-03, 8.34844783e-02,
          -8.70021358e-02, 4.25629504e-02, 2.01950237e-01,
          1.80354640e-02, -5.61948456e-02, -2.12833360e-01,
          1.59840435e-02, 1.24131843e-01, 1.13259189e-01,
          -1.08155482e-01, 2.24402007e-02, -1.37325794e-01,
          -1.03238836e-01, 5.34944236e-02, -1.81784645e-01,
          1.34750664e-01, 3.35342549e-02, 1.44198656e-01,
          -3.67482454e-02, 1.44259840e-01, 1.99936777e-02,
          -5.96598797e-02, 6.81013912e-02, -6.23922423e-02,
          -1.07966755e-02, 5.92682995e-02, 1.02508232e-01,
          -6.30516857e-02, 8.67205858e-02, 1.74108312e-01,
          1.99721102e-02, 8.66498426e-02, -1.90176859e-01,
          -4.93701408e-03, 5.51742651e-02, 1.85872912e-01,
          -1.30223840e-01, -3.00399158e-02, 1.56878322e-01,
          8.88463333e-02, 1.09420873e-01, -3.20665278e-02,
          -4.72389758e-02, 1.61856413e-02, 3.45416777e-02,
          -1.85400099e-01, 7.04927742e-02, -1.38149783e-01,
          -9.75478590e-02, -3.01254932e-02, -6.78502619e-02,
          -2.91424971e-02, 6.88511282e-02, 9.69721526e-02,
          -1.12487122e-01, -6.04527146e-02, 3.55120539e-03,
          1.12237476e-01, 4.12474759e-02, 2.79856455e-02, 1.08109355e-01,
          -1.90448556e-02, 6.44332096e-02, -1.56553835e-01,
          -3.08842286e-02, 1.29686385e-01, 5.44840991e-02,
          1.62095502e-02, -7.93833509e-02, 1.18677258e-01,
          -2.39783842e-02, 1.71029940e-02, 2.46093497e-02,
          6.58412352e-02, 4.46125492e-02, 3.55866402e-02,
          -2.54194159e-02, -1.13893580e-02, 2.07886219e-01,
          1.46155804e-01, 1.38565093e-01, 1.59445614e-01, 1.03505775e-01,
          -4.13071141e-02, 1.07398950e-01, -3.51200327e-02,
          -1.37689054e-01, 1.07226685e-01, -1.22801289e-01,
          9.88344662e-03, -9.07165483e-02, -3.37042380e-03,
          2.36931276e-02, -6.71761781e-02, -1.13522820e-01,
          -2.16836244e-01, 3.84520665e-02, 3.42570655e-02,
          6.71525002e-02, 1.38762901e-02, 8.07461143e-02, 6.73121735e-02,
          -1.47916367e-02, 2.36158986e-02, -4.01588455e-02,
          1.81532592e-01, 1.38473287e-01, 7.51984566e-02,
          -5.38467094e-02, 3.46875936e-02, 1.15505636e-01,
          4.32243571e-02, 1.30020991e-01, -4.27871458e-02,
          -6.71743881e-04, -1.73352018e-03, 1.12954937e-01,
          3.78585272e-02, 2.39495069e-01, 4.81855683e-02,
          -7.59324282e-02, -4.05514874e-02, -1.91325098e-01,
          5.72790131e-02, 7.23573565e-03, 1.06695496e-01,
          -1.84948549e-01, 2.09088940e-02, 2.21600249e-01,
          9.70546082e-02, 1.25585690e-01, -4.66312729e-02,
          -1.32415116e-01, -1.64563842e-02, 1.43146530e-01,
          -4.43378538e-02, 1.35603502e-01, 1.57480657e-01,
          -3.08980644e-02, -2.47758180e-02, -6.14821203e-02,
          1.17741041e-01, -6.30101264e-02, 5.60733564e-02,
          1.37116179e-01, 8.43277797e-02, 1.89429671e-01, 1.96816195e-02,
          5.59050180e-02, -1.07571036e-01, 1.44190434e-03,
          2.79145297e-02, 8.28863159e-02, 2.42966600e-02, 9.79748294e-02,
          1.62095487e-01, -1.57146715e-02, 1.68470480e-02,
          -1.78460404e-01, -6.01706319e-02, -7.30296299e-02,
          -1.36946673e-02, 1.92090049e-02, 3.35403122e-02,
          9.80994031e-02, -1.53073967e-02, 1.47521064e-01,
          -1.51328996e-01, -3.28941010e-02, -3.73394368e-03,
          4.30273153e-02, 3.45821753e-02, 1.86636433e-01, 4.66630086e-02,
          3.78741361e-02, 1.43638309e-02, -6.56055585e-02,
          6.01283945e-02, -1.97428390e-01, -1.05378956e-01,
          -9.79129001e-02, -1.04060769e-02, 4.33879904e-02,
          -4.45215628e-02, -9.40772146e-03, -2.48885397e-02,
          6.34656027e-02, 1.59694210e-01, 7.93007538e-02,
          -2.46286988e-02, 3.33179208e-03, -1.55585513e-01,
          -3.54934707e-02, -1.96031202e-02, -2.92806804e-01,
          3.52869183e-02, -1.30455360e-01, -7.49862567e-02,
          -1.12225778e-01, -1.46494284e-02, 3.17694992e-02,
          -2.93572620e-02, 7.84612447e-03, -1.36013161e-02,
          -3.76473963e-02, 1.33018732e-01, 9.76025984e-02,
          -6.58715814e-02, -7.01512247e-02, 3.55689041e-02,
          -1.82880431e-01, -5.32710701e-02, -2.33055562e-01,
          1.49106726e-01, 1.66966110e-01, 1.78926587e-01, 3.12935412e-02,
          6.63277805e-02, 2.43417360e-02, 1.17858559e-01, 1.52598664e-01,
          -3.22009534e-01, -7.76944775e-03, 1.23488396e-01,
          2.14936342e-02, 1.11964062e-01, 5.06917350e-02,
          -3.03159244e-02, -1.24112487e-01, -5.95773533e-02,
          -5.52391708e-02, 4.91052195e-02, 1.66545026e-02,
          6.20988868e-02, -1.22414805e-01, -1.32962927e-01,
          3.03161927e-02, 1.77097738e-01, 1.88264906e-01, 7.58673996e-02,
          3.77593488e-02, 1.17351033e-01, 8.11112747e-02, 7.05335755e-03,
          -1.41022041e-01, -1.33536300e-02, 8.16236529e-03,
          5.54871075e-02, -2.69888014e-01, 3.03836633e-02,
          -8.88702273e-02, -5.18767983e-02, -4.67169061e-02,
          -2.15213932e-02, -9.47210565e-02, -1.01752214e-01,
          -1.01726197e-01, -1.66675240e-01, 1.67403251e-01,
          4.16615279e-03, 3.44660087e-03, -9.25414860e-02,
          3.35246623e-02, -3.04684546e-02, 1.29688576e-01,
          1.05662793e-01, -1.78603321e-01, 1.98554900e-02,
          1.03487102e-02, -1.14049025e-01, -8.69859457e-02,
          -1.69532657e-01, -4.48355749e-02, 2.33439123e-03,
          3.79301645e-02, -1.46301314e-01, 9.07244384e-02,
          2.55747437e-02, -4.33994234e-02, 2.48836484e-02,
          3.27012464e-02, 5.90537824e-02, 4.06592563e-02,
          -4.90417443e-02, -5.64148091e-02, -3.08430176e-02,
          -1.54845700e-01, -2.21812781e-02, -3.00309490e-02,
          9.21411254e-03, -2.56868489e-02, 9.23602134e-02,
          1.19246673e-02, -4.91966940e-02, 1.47267401e-01,
          -1.45218829e-02, 1.17267389e-02, 3.55348103e-02,
          -1.35089234e-01, 1.25495583e-01, 3.99643183e-02,
          3.01898513e-02, -2.09742580e-02, -1.11487664e-01,
          -6.89637065e-02, 6.61216304e-02, 1.09519117e-01,
          1.85738958e-03, -2.27569342e-02, 4.38218042e-02,
          4.50464562e-02, -4.78104614e-02, 1.56242633e-03,
          -5.93099091e-03, -2.13137144e-04, 1.73222020e-01,
          -1.32742375e-01, 5.38958097e-03, 1.60634518e-01,
          3.11463140e-03, -9.83632654e-02, -1.67993214e-02,
          -1.72859635e-02, 5.74648865e-02, 6.92276061e-02,
          -5.19913025e-02, 1.47426939e-02, 1.40852287e-01,
          -5.92709668e-02, -4.62558530e-02, 9.37719736e-03,
          4.13008779e-02, 6.41924739e-02, -1.92663576e-02,
          9.79189109e-03, -5.85948490e-02, 1.82532609e-01,
          6.13544956e-02, -1.29874400e-03, 7.11208070e-03,
          -8.47545937e-02, -3.93066369e-02, 2.24612840e-02,
          7.13789091e-02, -5.05207367e-02, 1.60515636e-01,
          2.05928609e-02, -4.36164662e-02, 2.55996231e-02,
          -9.56170559e-02, 6.48256466e-02, -3.57333608e-02,
          1.37467384e-02, -7.76124522e-02, 1.60571262e-02,
          6.08827434e-02, -8.18442553e-02, -1.18009590e-01,
          -4.51073498e-02, 1.03307292e-01, 1.18125506e-01,
          1.54920712e-01, -5.64131290e-02, -6.13792874e-02,
          -7.17663988e-02, -1.47895858e-01, 1.43123921e-02,
          -5.41368835e-02, -5.77311106e-02, 2.70285718e-02,
          -6.97442889e-02, -5.22296391e-02, 8.97504836e-02,
          -7.25836828e-02, -7.81774148e-02, -4.22557518e-02,
          -1.05956934e-01, 8.44274163e-02, 2.02351481e-01,
          1.77411865e-02, -7.79078379e-02, 9.44160298e-02,
          -2.81682722e-02, -6.76261261e-02, 2.02713311e-01,
          -1.64986532e-02, -5.82441203e-02, 1.50596306e-01,
          -8.99346396e-02, 1.34400100e-01, 2.65227612e-02,
          3.09097208e-02, 4.36286777e-02, 5.62686734e-02, 4.16488573e-02,
          -6.99153636e-04, 1.72274470e-01, 1.09593742e-01,
          -7.22083077e-02, 3.77196409e-02, 1.11494549e-01,
          7.54653290e-02, 1.98294267e-01, 5.81154376e-02, 3.01987380e-02,
          7.09934607e-02, 6.83728000e-03, 4.73782159e-02, 1.30183818e-02,
          -1.07824057e-01, -1.08547278e-01, -7.53606251e-03,
          -9.42948014e-02, 6.69518560e-02, 1.57511443e-01,
          1.94590420e-01, -2.40749061e-01, -3.27870607e-01,
          -1.85591102e-01, -2.54952103e-01, 2.49314541e-03,
          -2.01111257e-01, 1.51272535e-01, 1.16164744e-01,
          -5.22972420e-02, 4.37653661e-02, 2.36065283e-01,
          2.23811030e-01, 9.19218734e-02, 1.36410920e-02, 1.97574332e-01,
          8.69393945e-02, 4.06638309e-02, 1.29204437e-01, 1.11494891e-01,
          2.71151047e-02, 8.64014700e-02, 3.38749588e-02,
          -1.02043487e-01, 6.65613264e-03, -9.37896296e-02,
          -7.33982101e-02, 1.21419840e-01, -2.22285509e-01,
          -1.52590111e-01, 2.20166594e-01, 8.66716132e-02,
          2.51786225e-02, 1.42285869e-01, 2.52771497e-01,
          -5.29337488e-02, -1.72166407e-01, 4.85817045e-02,
          -1.41410545e-01, -1.18916057e-01, -1.21118225e-01,
          5.42464759e-03, -6.03575679e-03, 2.94907317e-02,
          -2.86579788e-01, 1.27116302e-02, 4.23693024e-02,
          -2.23297969e-01, 2.05308329e-02, 1.14230879e-01,
          1.52144521e-01, 1.77507684e-01, 1.66376587e-02, 8.80327355e-03,
          1.79794773e-01, -3.02747898e-02, -1.19994536e-01,
          1.77733764e-01, 2.79297847e-02, -4.03542208e-06,
          1.18932910e-01, 1.86413467e-01, 9.31708217e-02, 2.33193427e-01,
          1.49618998e-01, -3.77416700e-01, -5.22111416e-01,
          -8.25412422e-02, 1.54576436e-01, 2.12316141e-01,
          2.25308210e-01, -3.10214963e-02, 3.00160348e-01,
          -8.40079263e-02, -5.77968322e-02, 7.55389780e-02,
          8.50587934e-02, -8.11072215e-02, 1.24503717e-01,
          3.71354967e-01, 5.96426725e-02, 2.71741778e-01,
          -1.34439081e-01, -3.33282083e-01, 1.74284250e-01,
          1.40705749e-01, -3.58231850e-02, -4.20142943e-03,
          -4.56913747e-02, -1.48710996e-01, 3.28744352e-02,
          -1.86053395e-01, -2.17814088e-01, 1.91202432e-01,
          1.68641344e-01, 5.13376109e-02, 9.02456045e-02, 6.03952585e-03,
          -1.95312709e-01, 3.91943492e-02, -1.36291519e-01,
          -1.18722260e-01, 3.14504385e-01, 5.87503798e-03,
          3.90679091e-02, 6.79614469e-02, 2.40250945e-01,
          -1.07753545e-01, 1.47474274e-01, -1.95171330e-02,
          -1.49284318e-01, 1.70246258e-01, 8.95640850e-02,
          2.03116164e-01, 2.00693622e-01, 1.96435228e-01,
          -1.13152355e-01, 1.77913290e-02, -1.64822176e-01,
          -1.66968986e-01, 1.17074348e-01, -1.92910418e-01,
          -1.24815345e-01, -3.82325463e-02, 1.16647370e-01,
          -1.90764870e-02, 1.06658861e-01, -1.82144288e-02,
          -1.70595329e-02, 2.62204617e-01, 1.13642216e-01,
          -1.40674382e-01, 1.34314656e-01, 4.29016910e-02,
          1.80604309e-02, 9.96448696e-02, -9.90396217e-02,
          -2.03441694e-01, 9.50772390e-02, -3.39229815e-02,
          2.53506061e-02, -5.91594428e-02, 4.06938419e-02,
          1.28414826e-02, -1.32740373e-02, -2.25542001e-02,
          -1.19205050e-01, 1.81197330e-01, 2.17040569e-01,
          1.26051775e-03, 2.64465306e-02, 6.77166134e-02,
          -6.22437336e-02, -7.03789517e-02, -1.67238280e-01,
          -8.39235485e-02, 8.88263807e-02, 1.19239770e-01,
          -3.92935015e-02, 1.25595778e-01, -1.21833704e-01,
          -1.44531786e-01, -8.22937873e-04, -8.04781690e-02,
          -1.18450530e-01, 6.56191111e-02, -3.78205329e-02,
          6.36055395e-02, -8.23490729e-04, -8.79977643e-02,
          -1.35956377e-01, -2.41518375e-02, -1.69358075e-01,
          -1.41321793e-01, 1.49368837e-01, 1.99248925e-01,
          -2.41419952e-02, 7.96757936e-02, 1.01064153e-01,
          -1.85530055e-02, 6.26671419e-04, -2.17203274e-01,
          -1.38827160e-01, 2.50676781e-01, 2.72696137e-01,
          9.46176499e-02, 1.47210836e-01, 8.77868459e-02, 1.14818230e-01,
          -1.79730102e-01, -4.37535681e-02, -1.21238828e-03,
          2.64185965e-02, -7.95888677e-02, -2.39799228e-02,
          -5.20588793e-02, 1.10088261e-02, -1.63587928e-01,
          5.73395938e-02, -7.91916549e-02, 5.87754464e-03,
          3.68881598e-02, 5.44471182e-02, -1.84418522e-02,
          -1.30187050e-01, -5.87898353e-03, 5.78643791e-02,
          1.19302325e-01, -1.79680824e-01, -5.39707765e-02,
          2.16945216e-01, 1.78769588e-01, 7.49133974e-02,
          -3.89023051e-02, -2.40831245e-02, -1.31884620e-01,
          -2.78082907e-01, -1.23822130e-01, -3.59227806e-02,
          1.64446101e-01, 1.81804597e-01, -4.49064933e-03,
          4.98195402e-02, 1.78610429e-01, -1.17321551e-01,
          -1.01556920e-01, -4.68887873e-02, -6.66877478e-02,
          -5.58691770e-02, 5.56871220e-02, 1.69189438e-01,
          -7.23483115e-02, 9.95424539e-02, -5.60136698e-02,
          -1.01079792e-01, 1.05707087e-02, -3.30110639e-02,
          -1.80534236e-02, 3.70998532e-02, 1.54953852e-01,
          1.77648470e-01, 1.53394610e-01, -5.11166640e-02,
          -5.15723638e-02, -6.95590973e-02, -1.01151064e-01,
          8.77469182e-02, 1.43357232e-01, 1.81950167e-01, 9.14557576e-02,
          2.95013517e-01, -9.55115780e-02, -9.59676802e-02,
          1.87768891e-01, -1.64488226e-01, -1.43650733e-02,
          1.03725858e-01, 7.99394250e-02, 8.18094146e-03, 5.23178466e-02,
          -8.44078735e-02, -2.43451130e-02, -8.82639140e-02,
          -1.77315578e-01, -5.37152663e-02, -4.63227369e-02,
          1.02330178e-01, 1.69091389e-01, 1.24514543e-01, 5.78495711e-02,
          -2.91595012e-02, -1.33225257e-02, -1.04617812e-01,
          2.07313113e-02, 1.67199615e-02, 2.19166517e-01, 1.39111087e-01,
          2.08557680e-01, 1.96136281e-01, 2.10490659e-01,
          -4.69786078e-02, -8.37049410e-02, 7.28349853e-03,
          4.72242869e-02, 3.11266966e-02, -2.66386271e-02,
          2.25790180e-02, -4.46485840e-02, 1.27742402e-02,
          -9.12083611e-02, -7.25054666e-02, -3.44784893e-02,
          -2.42129341e-02, 1.40059933e-01, 4.46659103e-02,
          4.86362353e-02, -8.07411969e-02, -3.75791043e-02,
          2.37556547e-02, -7.14819729e-02, -8.44518561e-03,
          -1.92135889e-02, 1.23214163e-01, -2.34506279e-02,
          -1.76857058e-02, 4.41974699e-02, 1.09102182e-01,
          2.24079877e-01, 8.82062837e-02, 1.03667602e-01, 1.68442577e-01,
          2.93780249e-02, 1.48992285e-01, 5.82256578e-02,
          -5.61853945e-02, 4.09337394e-02, -1.88344553e-01,
          -2.73236901e-01, -2.49226063e-01, -1.58546269e-01,
          -5.42161204e-02, -2.15511873e-01, -1.71031788e-01,
          -2.71300614e-01, -1.46014392e-01, -5.30078448e-02,
          -7.45217204e-02, -2.68324744e-02, -1.21543080e-01,
          -1.80510893e-01, -1.98879004e-01, -1.14990577e-01,
          -8.65335688e-02, 6.31429330e-02, 1.22182235e-01,
          -3.89967184e-03, -7.37564340e-02, 4.04235944e-02,
          -5.93238452e-04, -8.71162340e-02, -9.33953654e-03,
          -1.09127142e-01, 5.67176864e-02, 1.35264531e-01,
          2.57772151e-02, 1.36413023e-01, 3.07718813e-01, 1.21429481e-01,
          1.88297015e-02, 1.61869004e-01, 3.52573842e-02,
          -3.02275326e-02, 5.25905937e-02, -6.77339509e-02,
          -5.70051558e-03, -7.61696920e-02, -1.43066496e-01,
          -3.99939656e-01, -9.94425714e-02, -8.22268203e-02,
          8.05117073e-04, 1.99563801e-01, 7.38407820e-02, 1.88708842e-01,
          5.24597019e-02, -4.91135195e-02, 2.02891268e-02,
          1.92107901e-01, 1.00236595e-01, 1.93241984e-01, 8.68578628e-03,
          -3.41528538e-03, 9.06803757e-02, -6.11347966e-02,
          1.34029621e-02, -8.26252028e-02, -7.50832483e-02,
          7.21598370e-03, -6.34907782e-02, 1.85684580e-02,
          -3.65388989e-02, 3.52258533e-02, -2.11854726e-01,
          1.23683142e-03, 5.83260544e-02, -7.12229125e-03,
          5.24042211e-02, 4.36566188e-04, 7.48735620e-03, 1.36824111e-02,
          8.28553662e-02, -4.17303368e-02, -1.59186020e-01,
          -1.21686317e-01, -1.91230029e-02, -1.03424586e-01,
          1.10334650e-01, -1.51007818e-02, -8.50639790e-02,
          -1.22787356e-01, -7.96946809e-02, 3.33457962e-02,
          7.28351995e-02, 4.55929860e-02, -9.87443887e-03,
          3.78781706e-02, 9.76315364e-02, 3.28560285e-02,
          -1.15299255e-01, -5.33567593e-02, -5.69161065e-02,
          8.65949616e-02, 3.06916493e-03, 4.06343378e-02, 3.90893035e-02,
          -1.25489339e-01, -3.16862091e-02, -1.06984496e-01,
          -1.15197599e-01, 9.29126963e-02, 5.70711531e-02,
          -2.15015262e-02, 1.06987208e-01, -7.86224231e-02,
          9.97796282e-02, 1.35404542e-01, -1.12596877e-01,
          -9.94719490e-02, -3.54888327e-02, 3.97036336e-02,
          -1.06169276e-01, 3.14608812e-02, -7.74746016e-02,
          5.56015149e-02, 2.80033112e-01, 7.00202361e-02,
          -2.98139472e-02, 1.04607776e-01, 1.53738588e-01,
          -1.68333992e-01, 1.21248521e-01, -5.61727434e-02,
          -1.15800388e-01, 2.28350669e-01, 5.17544933e-02,
          1.27796784e-01, -4.07209881e-02, -5.71462363e-02,
          7.38964751e-02, 8.90217870e-02, -5.72916269e-02,
          1.78894657e-03, 1.28908977e-01, -3.75422537e-02,
          2.12037005e-02, 9.28210653e-03, -3.54486145e-02,
          1.23109937e-01, 6.11111298e-02, 2.98886802e-02,
          -9.71499383e-02, 4.53458130e-02, 5.33109680e-02,
          -2.38930471e-02, -1.31895795e-01, -5.12558296e-02,
          6.03577979e-02, 1.65970415e-01, -1.74323738e-01,
          1.66847073e-02, 6.51446357e-02, 8.05665478e-02,
          -3.86560522e-02, 1.20500848e-01, 1.33961625e-02,
          1.27841666e-01, 1.38907567e-01, 1.20643713e-02,
          -1.11471981e-01, -1.43818473e-02, -1.09625906e-01,
          1.55028598e-02, 2.65885107e-02, -4.45373431e-02,
          -3.53473937e-03, 1.32880270e-01, -2.01777499e-02,
          -3.28875110e-02, 1.02729522e-01, 2.67223781e-03,
          -5.44308759e-02, 2.35349871e-03, -4.13458124e-02,
          7.31556043e-02, 1.16297200e-01, -6.15639016e-02,
          -1.65676937e-01, 4.28188555e-02, 3.09588257e-02,
          2.97031477e-02, 1.26416788e-01, -1.71517849e-01,
          -1.40818968e-01, -4.48942482e-02, -7.11528808e-02,
          -1.08669519e-01, 9.06023309e-02, 3.64758894e-02,
          -7.22962618e-02, -1.13389783e-01, -1.22467980e-01,
          4.30585034e-02, -8.18607509e-02, -1.08757384e-01,
          1.83633253e-01, 6.80399016e-02, -7.46116713e-02,
          -1.54672414e-01, -1.07090741e-01, -6.55703098e-02,
          9.98372287e-02, 6.87812269e-02, 1.79806247e-01,
          -9.76466611e-02, -4.87188488e-01, -4.21948522e-01,
          -3.54147047e-01, -1.84578374e-01, -3.40916395e-01,
          -1.35606319e-01, -1.18734293e-01, 1.25480950e-01,
          1.97269127e-01, 2.21544668e-01, 1.11151896e-01,
          -2.96236407e-02, -8.41332972e-02, -5.21773212e-02,
          7.85930268e-03, 1.56075314e-01, 1.55150592e-01, 9.74783078e-02,
          -1.14529982e-01, -1.30659834e-01, -2.77629703e-01,
          -1.21529728e-01, -3.40284556e-01, -4.59114790e-01,
          -3.84265304e-01, 1.10940011e-02, -1.30418807e-01,
          -2.53795475e-01, 4.29321826e-02, 7.04450682e-02,
          -1.45463526e-01, -1.83938649e-02, -3.43210772e-02,
          -2.60486037e-01, -1.03281334e-01, 1.21546730e-01,
          -6.38773441e-02, -1.54053584e-01, -2.18028948e-02,
          -3.51590030e-02, 3.92320938e-02, -9.05347317e-02,
          -2.67926663e-01, 8.68591294e-02, -1.06880471e-01,
          -3.24880272e-01, -7.49869719e-02, 7.95153975e-02,
          -1.37187578e-02, 4.63317446e-02, -6.93397895e-02,
          -2.96812862e-01, -9.40834135e-02, 4.14902158e-02,
          -1.24719560e-01, -8.42995420e-02, 2.64430959e-02,
          4.76214662e-02, -2.68403348e-02, -1.35430142e-01,
          -1.05435081e-01, 1.54013753e-01, 1.67894095e-01,
          -3.77264827e-01, -4.52827990e-01, -2.31690764e-01,
          -1.85984150e-01, -1.31459624e-01, -9.48193967e-02,
          -1.49304867e-01, 2.56433219e-01, 3.21191967e-01,
          -5.03436588e-02, 1.23623207e-01, 1.34047061e-01,
          -2.89907366e-01, 2.94045564e-02, 1.68757379e-01,
          1.93948746e-02, 5.25401652e-01, 2.16206536e-01,
          -1.22711815e-01, -1.03550650e-01, -6.80676922e-02,
          -1.00802600e-01, -1.58844665e-01, -4.02495116e-01,
          -4.62151408e-01, 1.53609335e-01, 4.97382373e-01,
          7.49925002e-02, 8.91468301e-02, 1.51887491e-01, 2.97263712e-02,
          1.21647313e-01, 4.11642119e-02, -4.79219854e-02,
          4.52980012e-01, 7.25739822e-02, -1.42952144e-01,
          3.21350507e-02, -3.62677388e-02, -4.60448451e-02,
          9.46272090e-02, 1.32981464e-01, -1.21337645e-01,
          1.24776557e-01, 2.21466888e-02, 1.67311393e-02, 1.42741457e-01,
          1.18650272e-01, 9.58744511e-02, 1.06053494e-01, 1.85003608e-01,
          1.61192156e-02, 8.30671862e-02, 2.80304216e-02,
          -1.56165406e-01, -8.50375220e-02, -3.44286822e-02,
          6.84284046e-02, 1.17336527e-01, 1.09167114e-01,
          -8.95155594e-02, 2.40990464e-02, -5.70565574e-02,
          -1.36963084e-01, 1.52132317e-01, 2.66556054e-01,
          1.87446922e-01, 1.73471496e-01, 1.77957758e-01, 3.32137831e-02,
          -8.80083293e-02, 2.26415336e-01, -2.35458240e-02,
          5.50978407e-02, 1.98013466e-02, -1.37998596e-01,
          -2.26749986e-01, -1.12047410e-02, -8.00853223e-02,
          1.89786360e-01, 1.93232566e-01, -2.55322866e-02,
          3.19781154e-02, 9.04010162e-02, -7.46605173e-02,
          -1.34463385e-01, -3.12777497e-02, -1.30246699e-01,
          2.16300905e-01, 1.25516891e-01, -1.79073125e-01,
          -8.51254389e-02, -6.66710660e-02, -1.31194562e-01,
          -1.35757312e-01, 9.48567037e-03, -2.05410663e-02,
          1.64137810e-01, 2.61733115e-01, -1.62509888e-01,
          -8.23270977e-02, -1.00212269e-01, -3.97180691e-02,
          -1.12061882e-02, 8.57630745e-02, -4.51866910e-02,
          2.39523143e-01, 2.08863646e-01, -7.70551115e-02,
          1.69666871e-01, 6.16322905e-02, -2.44304895e-01,
          -1.48086160e-01, -1.51115572e-02, -1.36634991e-01,
          1.68852493e-01, 1.34664640e-01, -7.53755718e-02,
          1.48875326e-01, 3.95941846e-02, -1.33615777e-01,
          3.44616100e-02, -4.77759652e-02, -4.81036566e-02,
          1.98861182e-01, 1.73195064e-01, -1.45294815e-01,
          2.45905854e-02, -1.27148226e-01, -7.75822252e-02,
          -2.13198867e-02, 5.44026159e-02, -1.30973101e-01,
          2.08022654e-01, 3.05175155e-01, -4.36386205e-02,
          -2.99921595e-02, -2.14088738e-01, -1.51080310e-01,
          9.72982049e-02, 6.74351156e-02, 6.86985478e-02,
          -1.37384618e-02, 1.03880621e-01, -5.61702475e-02,
          8.83900896e-02, 1.68883488e-01, -2.22409479e-02,
          5.16986735e-02, -3.86047065e-02, -7.58654103e-02,
          -5.45968711e-02, -1.13068521e-01, -1.70513466e-01,
          6.74554780e-02, 1.36275694e-01, -7.81627819e-02,
          8.86698961e-02, 1.49289712e-01, -8.91998559e-02,
          -8.24268311e-02, 1.48691172e-02, -6.17675185e-02,
          -4.24022265e-02, -7.37704337e-02, 3.20295170e-02,
          1.90435782e-01, 1.52963966e-01, -1.92093365e-02,
          1.08305782e-01, 3.02916896e-02, -1.03568643e-01,
          1.51918316e-02, 7.18699247e-02, 3.30845788e-02, 2.05491148e-02,
          1.20092444e-01, -8.45926702e-02, 2.89998334e-02,
          -8.67662206e-02, -1.19001649e-01, 9.39087123e-02,
          9.61152315e-02, 3.00753303e-02, 1.00683030e-02, 2.22237065e-01,
          -1.13248453e-02, -9.38182175e-02, 1.86046269e-02,
          -2.38423839e-01, 7.69326463e-02, 6.45680502e-02,
          2.06909388e-01, 2.26382688e-02, -8.25961605e-02,
          -2.02904984e-01, -1.15540490e-01, -1.43231452e-01,
          1.70174744e-02, 2.04430968e-01, 8.59341845e-02, 2.53997408e-02,
          1.60746463e-02, 5.90801537e-02, -4.86951321e-02,
          -1.23270117e-01, -1.03698373e-01, -1.98439926e-01,
          4.73994315e-02, 1.61077887e-01, 1.98582709e-01, 1.90478370e-01,
          1.13904960e-01, -1.42878562e-01, -3.05598117e-02,
          -1.44534454e-01, -1.91673227e-02, 1.45820946e-01,
          7.64649436e-02, 1.50820598e-01, 1.73912317e-01, 1.17344677e-01,
          -3.99305820e-02, -5.49941659e-02, -2.51829386e-01,
          -4.59493212e-02, 1.07579298e-01, -4.08323407e-02,
          2.22266978e-03, 1.07861824e-01, 4.45595868e-02,
          -8.11756477e-02, -1.66158721e-01, -1.10857077e-01,
          -8.34908709e-02, 1.32811323e-01, 5.28618582e-02,
          1.56637371e-01, 2.03780681e-01, 1.69032946e-01, 1.80381872e-02,
          3.79172377e-02, -1.86702237e-01, -6.33358024e-03,
          5.89153916e-02, -1.28890304e-02, 5.59874773e-02,
          9.12865177e-02, 8.47784728e-02, -1.48423076e-01,
          -1.40743434e-01, -1.73378587e-01, -1.53333023e-01,
          -1.70438051e-01, -6.61210120e-02, 2.15898484e-01,
          1.53058507e-02, 4.31011356e-02, -5.05420268e-02,
          -2.54499793e-01, 2.02258434e-02, 4.02551591e-02,
          7.03484118e-02, -1.30017355e-01, -1.80243537e-01,
          -6.91771284e-02, 1.49515092e-01, 7.57325515e-02,
          8.31776857e-02, -3.46152216e-01, -1.36025548e-01,
          -8.09840336e-02, -3.43443602e-02, 1.42398864e-01,
          1.02774473e-02, -4.67921495e-02, -2.05267891e-01,
          -1.54049620e-01, 1.18765766e-02, -8.86455774e-02,
          -4.75179777e-03, -1.24216221e-01, -2.71625519e-01,
          -9.14796218e-02, 1.22761562e-01, -6.51924685e-02,
          -6.23702146e-02, 7.90184550e-03, -1.00621767e-01,
          -3.82700227e-02, -2.00541407e-01, -2.79805213e-01,
          -3.17864120e-01, -1.22370750e-01, -1.35164186e-01,
          1.03910314e-02, 2.15665519e-01, 4.53253835e-02, 2.15514138e-01,
          2.39585638e-02, 1.16288951e-02, -4.90297526e-02,
          6.85357600e-02, 2.24912502e-02, 1.65361255e-01,
          -2.32482725e-03, -1.40395686e-01, -1.80020526e-01,
          -2.94540346e-01, -2.18149483e-01, -2.49762177e-01,
          -7.98312053e-02, -2.28830501e-01, 2.96334382e-02,
          1.53857902e-01, 1.37854457e-01, 1.66812181e-01,
          -3.35773290e-03, 9.81258005e-02, 1.81047499e-01,
          1.60489798e-01, 7.00185075e-02, 2.21458003e-01, 4.25584316e-02,
          -6.99513257e-02, 1.90102994e-01, -5.39388694e-02,
          -3.88041325e-02, -1.11366123e-01, 1.22281080e-02,
          -1.23939782e-01, 3.15047354e-02, -5.75891435e-02,
          -1.47520825e-01, 2.73935567e-03, -3.32134664e-02,
          1.20192431e-01, -7.23369047e-02, 1.04576414e-02,
          -4.09239978e-02, -8.74591991e-04, -4.27743457e-02,
          -1.78738996e-01, 6.21309429e-02, -1.02615617e-01,
          1.71470642e-01, 7.26776496e-02, 9.05129462e-02, 1.75558571e-02,
          8.87389015e-03, -3.30217928e-02, -1.65891752e-01,
          7.83285126e-02, 3.07881981e-02, 1.93147451e-01,
          -9.32350848e-03, -4.64329571e-02, -7.45982528e-02,
          1.36099393e-02, -3.17439437e-02, 1.34707168e-01,
          4.21943702e-02, -1.52082846e-01, 4.85149324e-02,
          -7.02617541e-02, -1.52593017e-01, -1.93953998e-02,
          -5.76887652e-02, 1.40800299e-02, 3.28460574e-01,
          3.00955269e-02, -8.85713100e-02, 3.71224321e-02,
          1.02245711e-01, -1.53226390e-01, 1.61661416e-01,
          -8.84011388e-02, -8.66945535e-02, 7.81721696e-02,
          3.90147641e-02, -5.35879657e-02, -7.32411072e-02,
          -1.44082204e-01, -7.52488300e-02, 2.36995686e-02,
          1.17016966e-02, -1.16717704e-01, 1.64873809e-01,
          -5.74599281e-02, 6.62861541e-02, 1.18614852e-01,
          2.99774632e-02, -1.67673193e-02, 1.32315651e-01,
          -1.56990409e-01, 6.11286461e-02, -8.94068778e-02,
          -3.37475613e-02, -1.27043119e-02, -1.56488091e-01,
          -2.66589466e-02, -3.62394340e-02, 2.09446773e-01,
          -1.95581708e-02, 5.23134731e-02, -6.12559542e-02,
          1.54506899e-02, -1.64773658e-01, 3.52595411e-02,
          1.62252448e-02, -7.83193670e-03, 1.24331623e-01,
          -9.19788424e-03, -8.00331458e-02, -9.45299417e-02,
          -6.52613640e-02, -5.58256498e-03, 3.08767036e-02,
          -1.34860322e-01, -9.05676335e-02, 1.67703941e-01,
          -2.13210844e-03, 3.16812322e-02, -7.36078573e-03,
          1.04962423e-01, -6.65677860e-02, 5.65594472e-02,
          -1.43247381e-01, -7.75125176e-02, 1.83640435e-01,
          6.59190957e-03, -9.30159539e-02, 9.79576185e-02,
          4.06052545e-02, -1.17562190e-02, -2.28604637e-02,
          -1.08973853e-01, -1.42167494e-01, -7.50809759e-02,
          -4.38297167e-02, -1.17553949e-01, 1.70135528e-01,
          -3.61451581e-02, 1.55093744e-02, -4.12667869e-03,
          -2.58912798e-02, -6.21503443e-02, -1.14769078e-04,
          -2.58246101e-02, 1.49858948e-02, -1.06961117e-03,
          1.23357579e-01, -7.50393718e-02, -7.07839504e-02,
          -1.32198706e-01, 7.12406710e-02, 2.56982800e-02,
          -6.31663650e-02, -1.21643119e-01, -3.42728174e-03,
          -1.91414393e-02, -2.85525937e-02, 2.69304644e-02,
          -7.11428002e-02, -5.01472801e-02, 6.73154276e-03,
          -1.69551417e-01, 1.30062386e-01, 2.56689757e-01,
          1.63283780e-01, -1.03949599e-01, -6.93661422e-02,
          -2.10010465e-02, -1.22697696e-01, 3.54791880e-02,
          -2.29741819e-02, -7.77848512e-02, 1.56149035e-02,
          9.10598710e-02, -1.38972610e-01, 8.58462602e-02,
          -1.90079689e-01, -3.92453998e-01, -3.60996336e-01,
          -2.37801984e-01, 1.31171308e-02, 7.16187805e-02,
          7.80642778e-02, -2.83314334e-03, -7.29113957e-03,
          1.60979889e-02, 3.12996097e-02, 9.57396105e-02, 7.44329989e-02,
          -2.55153496e-02, -7.82184710e-04, 1.32145673e-01,
          3.94833796e-02, 2.66067386e-01, 1.35204541e-02, 6.81180181e-03,
          -8.22602734e-02, -5.70494570e-02, -8.57974216e-02,
          -1.55267239e-01, 8.44773129e-02, 1.47838458e-01,
          1.14403851e-01, 9.54948887e-02, 5.34609333e-02,
          -1.54731244e-01, -1.50544763e-01, 5.55455312e-02,
          -2.37437859e-01, -7.55201057e-02, 1.12501591e-01,
          -5.81648313e-02, -1.79958135e-01, -2.45028228e-01,
          -2.48777211e-01, 2.66287234e-02, 1.43004403e-01,
          -1.34687899e-02, 1.15099736e-01, 5.18177636e-02,
          -4.13227715e-02, 1.47194624e-01, 2.11172536e-01,
          1.43463194e-01, 1.08258449e-01, 1.23664394e-01,
          -1.04612626e-01, -1.22412592e-02, -3.17813493e-02,
          -2.18392074e-01, -3.76811214e-02, 7.87437707e-02,
          1.89836957e-02, 2.05653369e-01, 2.37615913e-01,
          -3.11564319e-02, 1.94661707e-01, 3.30462009e-01,
          1.88071668e-01, 1.45828836e-02, -3.75404030e-01,
          -5.44628263e-01, 1.06816273e-03, 2.95498729e-01,
          -8.84831883e-03, 2.76377857e-01, 1.84609562e-01,
          6.16463572e-02, 2.31741443e-01, 4.82023731e-02,
          -3.02487284e-01, -3.11313197e-02, 1.22861587e-01,
          1.88456886e-02, 1.45785511e-01, 1.86286598e-01, 4.41604201e-03,
          1.57536179e-01, -5.38368225e-02, -2.75732934e-01,
          6.96042785e-03, 6.69390485e-02, 7.85993040e-03, 1.40939802e-01,
          1.39328107e-01, 2.31678225e-02, 1.28076375e-01, 1.16731741e-01,
          -1.45432413e-01, -1.49610966e-01, 1.26998246e-01,
          -9.44576859e-02, 7.10578486e-02, 2.14916784e-02,
          5.26379235e-02, 2.54622370e-01, 2.40755111e-01,
          -1.82501718e-01, -3.89513411e-02, 9.18855071e-02,
          -9.95091274e-02, 1.65011138e-01, 1.60243481e-01,
          1.11468554e-01, 1.36377528e-01, 9.21444967e-02,
          -1.04371831e-01, -1.48089021e-01, -9.35653895e-02,
          -1.19869448e-01, -8.99925455e-02, -1.02395900e-02,
          4.12146710e-02, 2.21048713e-01, 1.73794433e-01,
          -1.84027657e-01, -1.89399734e-01, 1.49549961e-01,
          -1.85275078e-01, 5.46565019e-02, 1.44364849e-01,
          -4.18372527e-02, 9.22019705e-02, 1.13442410e-02,
          -2.43229970e-01, -2.41364419e-01, -1.93408411e-02,
          -1.31436259e-01, -2.69753281e-02, 1.61503851e-01,
          1.29895493e-01, 4.13264818e-02, 1.59027860e-01,
          -1.81768402e-01, -1.21190324e-01, -1.57214329e-02,
          -1.18671753e-01, 5.89160323e-02, 1.34923235e-01,
          2.28268072e-01, 2.03374043e-01, 2.15151936e-01,
          -1.17737636e-01, -7.94750452e-02, 1.03865936e-03,
          -1.96271256e-01, 6.22394942e-02, 1.19964041e-01,
          -2.02882215e-02, -2.20155373e-01, 6.73703775e-02,
          -2.09453598e-01, -2.04439431e-01, -4.72479463e-02,
          -5.67099862e-02, 3.83148007e-02, 1.29150510e-01,
          4.60329689e-02, -3.05744205e-02, 1.85980573e-01,
          3.29720639e-02, -6.53222501e-02, 1.25703169e-03,
          -1.17422407e-02, 6.47277534e-02, -1.57389231e-02,
          1.31338015e-01, 7.79492930e-02, 9.06677991e-02,
          -2.51969576e-01, -1.49161547e-01, -4.48921695e-02,
          -1.71547700e-02, 4.15441534e-03, 4.51097190e-02,
          1.27297789e-01, 2.21328944e-01, 1.89645916e-01,
          -1.59614876e-01, -9.35200229e-02, 4.18042727e-02,
          7.04233628e-03, 2.89041400e-02, 3.09857950e-02, 1.00494556e-01,
          -3.14937066e-03, 1.61208212e-02, -2.13138789e-01,
          -2.60401189e-01, 7.82845840e-02, 8.15123413e-03,
          2.94488687e-02, -1.20899128e-02, 1.01425119e-01,
          1.14394296e-02, 8.87111425e-02, -1.30698249e-01,
          -1.37982905e-01, -1.36969641e-01, -1.64288089e-01,
          -9.37452912e-02, -4.32504602e-02, 1.03138246e-01,
          1.34504810e-01, 9.89734232e-02, -1.37401849e-01,
          -3.30504030e-02, 1.96267013e-02, 3.25501822e-02,
          1.70843467e-01, 9.92536619e-02, 9.64210182e-02, 6.55455515e-02,
          9.30991396e-02, -9.37541723e-02, -1.08249195e-01,
          2.31576145e-01, -1.13413796e-01, 4.08039130e-02,
          -8.75766296e-03, -9.24044102e-02, -1.53899401e-01,
          -3.93402949e-02, -7.89871514e-02, 5.77443503e-02,
          1.26673430e-01, 2.11019337e-01, 1.87322557e-01,
          -2.66457093e-03, -1.48733020e-01, -1.40606672e-01,
          1.27263069e-01, 7.01248124e-02, -1.06778562e-01,
          -7.56083131e-02, 2.50500254e-02, 1.86160415e-01,
          9.27157775e-02, 5.91492355e-02, 6.19092137e-02,
          -3.68144619e-03, -8.89456198e-02, -2.06181347e-01,
          2.69602202e-02, -5.91060035e-02, -3.01139429e-02,
          9.82987881e-02, 1.22799233e-01, 1.85789376e-01, 9.57869589e-02,
          6.97005820e-03, -1.48584126e-02, 5.66385835e-02,
          3.43860239e-02, 2.94143730e-03, -5.98397478e-02,
          -4.89706472e-02, -5.58074228e-02, 1.64392620e-01,
          1.23293005e-01, 1.74238870e-03, -1.05214315e-02,
          3.31974849e-02, -3.41384225e-02, -4.67584506e-02,
          2.16889828e-02, 7.07599893e-02, 8.26373696e-02, 1.59979358e-01,
          1.28659546e-01, 4.38113743e-03, -1.80778831e-01,
          -5.30160218e-02, -4.99714585e-03, 4.33170535e-02,
          2.09940486e-02, 6.89430237e-02, -6.72731102e-02,
          -9.46877990e-03, -2.17220470e-01, -2.06724405e-01,
          -2.90163998e-02, 1.54007564e-03, 8.29507038e-02,
          7.31783658e-02, -7.52166733e-02, -2.11384416e-01,
          -1.52781293e-01, 1.09087616e-01, 4.10218239e-02,
          1.09662734e-01, 1.51769696e-02, 2.76641324e-02,
          -7.18809217e-02, 2.67167054e-02, -5.58256879e-02,
          1.45293593e-01, 1.17696561e-02, 1.74963027e-01, 1.51968539e-01,
          9.01479870e-02, -1.49334110e-02, 3.50310840e-02,
          2.80085951e-02, -1.19943637e-02, -5.73404171e-02,
          -3.06678265e-01, -2.96282470e-01, -1.59721717e-01,
          2.15791399e-03, 1.00927074e-02, -1.22933045e-01,
          -2.86493808e-01, -3.74346107e-01, -2.49140888e-01,
          -2.42508184e-02, -1.49774536e-01, -3.45817441e-03,
          -5.81615139e-03, -1.35691404e-01, -9.85022783e-02,
          -1.32413551e-01, -9.67857018e-02, -6.30710497e-02,
          -4.92523648e-02, 1.23107815e-02, 4.66651060e-02,
          7.00617805e-02, -2.51312982e-02, -2.42396519e-02,
          1.16949482e-03, -4.05288637e-02, -1.25705123e-01,
          2.04038262e-01, 5.24863340e-02, 6.74979538e-02,
          -4.04263660e-02, 2.90908869e-02, 1.82778716e-01,
          1.58666775e-01, 2.05019370e-01, 1.22751564e-01,
          -6.82726735e-03, -1.83457911e-01, -1.43136874e-01,
          -2.11926356e-01, -1.60217375e-01, -1.02147371e-01,
          -1.15646616e-01, -1.86510608e-01, 1.42296791e-01,
          7.92610049e-02, 8.01175460e-02, 3.80877219e-02,
          -5.46837635e-02, -1.39865831e-01, 9.34517086e-02,
          1.20126374e-01, 1.33890554e-01, 2.09914744e-01,
          -3.95781593e-03, -1.07243486e-01, -1.45311549e-01,
          -2.17244536e-01, 2.04062667e-02, 4.95314859e-02,
          -3.61401998e-02, 7.46233463e-02, -4.99580987e-02,
          -2.25204155e-02, -1.11753404e-01, -3.96855064e-02,
          -7.26635978e-02, 3.82172912e-02, 2.52355132e-02,
          1.30969405e-01, 1.27674878e-01, 2.12651402e-01,
          -9.24717635e-02, -1.13953784e-01, -4.04792465e-02,
          -1.71172142e-01, -4.17628400e-02, 2.07394689e-01,
          1.17550991e-01, 8.96288529e-02, -3.93828340e-02,
          5.14932945e-02, 3.35584697e-03, 4.19702493e-02, 5.52389808e-02,
          9.31468830e-02, 1.92701474e-01, -2.86492538e-02,
          5.99531606e-02, 1.09354116e-01, -1.34053931e-01,
          -1.28243938e-01, -6.66711703e-02, -1.10550940e-01,
          -1.01083644e-01, -5.87956905e-02, -5.68967871e-02,
          -5.80460019e-02, -6.86254576e-02, 1.26230672e-01,
          1.02919936e-01, 4.26802523e-02, 9.52959433e-03,
          -3.25035714e-02, -9.82882679e-02, -1.92096964e-01,
          4.06228192e-02, 3.78914736e-02, 1.44841015e-01, 8.84447396e-02,
          -1.37110930e-02, 1.08044349e-01, 7.89312497e-02,
          -2.82332096e-02, -1.46430328e-01, 8.66364390e-02,
          2.02024147e-01, -2.45593432e-02, -1.07123163e-02,
          -1.17832050e-01, 1.17448889e-01, 2.10838079e-01,
          1.00057580e-01, -8.79455730e-02, 1.26464307e-01,
          -1.45593546e-02, 1.89319823e-03, 1.89071484e-02,
          -1.18916057e-01, -3.03692929e-02, -1.31435737e-01,
          -5.72931841e-02, -2.19260290e-01, 1.16118774e-01,
          2.30159480e-02, -5.72148487e-02, 1.42795607e-01,
          5.39356992e-02, -4.97381203e-02, -1.43556492e-02,
          5.53976782e-02, -1.55485108e-01, -3.82322781e-02,
          -2.01097250e-01, -8.79675448e-02, 5.78212552e-02,
          5.64784892e-02, -8.65016356e-02, -7.01883435e-02,
          -1.13086946e-01, 4.41962332e-02, 1.30664587e-01,
          -2.01885607e-02, 1.25717027e-02, 6.67412058e-02,
          1.07263654e-01, -2.20946632e-02, -2.18877643e-02,
          -5.13843857e-02, -1.52699314e-02, 1.48984954e-01,
          4.81807217e-02, -1.35283351e-01, 1.09840028e-01,
          2.51371227e-02, 1.27040625e-01, -3.09778489e-02,
          -2.59191394e-01, 9.43869874e-02, 3.82785425e-02,
          -3.48916873e-02, -3.62849236e-03, 3.19865234e-02,
          -1.92108490e-02, 6.54744804e-02, -3.30384411e-02,
          -1.79052219e-01, 6.37594704e-03, 7.39914551e-02,
          1.11996278e-01, 8.76440201e-03, 4.34505157e-02, 1.19148873e-01,
          -7.76833948e-03, -8.67433697e-02, 2.41089091e-02,
          1.15278453e-01, 5.20252176e-02, -6.10324880e-03,
          -4.38833088e-02, 8.20215046e-02, 6.80232197e-02,
          3.82105098e-03, -6.10156581e-02, -2.40299553e-02,
          1.86310511e-03, 9.74637363e-03, -2.32761607e-01,
          -9.72633064e-02, 9.30827409e-02, 1.12722799e-01,
          3.94774415e-02, -6.74096048e-02, -5.62084131e-02,
          4.30530170e-03, 3.70178930e-02, -5.69932237e-02,
          -6.90793470e-02, -6.69340184e-03, 9.32344273e-02,
          -3.51913385e-02, 8.31442177e-02, 3.62083465e-02,
          9.41060334e-02, 2.62310747e-02, -4.67988811e-02,
          9.32342466e-03, 5.75102456e-02, -2.06592567e-02,
          2.88046547e-03, 4.64556646e-03, -7.98428059e-02,
          -7.06764236e-02, 4.98492783e-03, -3.45490128e-02,
          -5.03281765e-02, -5.33728600e-02, 1.50753967e-02,
          4.85327728e-02, -2.88558919e-02, -6.86316863e-02,
          -4.18402255e-02, -1.00582382e-02, 5.63057624e-02,
          1.33826183e-02, -1.74207485e-03, 7.69799873e-02,
          -5.80333434e-02, -8.00909773e-02, 9.16555375e-02,
          9.12929401e-02, 1.09297149e-02, 1.47394612e-02,
          -9.79978368e-02, -9.15215611e-02, 1.32200131e-02,
          2.10299883e-02, -1.22600213e-01, -5.01613393e-02,
          -3.42464447e-02, -4.27591130e-02, 3.28766964e-02,
          4.92735021e-02, -1.36034384e-01, -4.53630788e-03,
          -6.81884438e-02, -1.25871494e-01, 2.49473727e-03,
          1.48799509e-01, 6.91784620e-02, 1.53849378e-01,
          -7.86607154e-03, -6.29314706e-02, -1.02613762e-01,
          -1.04268558e-01, 6.60068495e-03, 4.23256531e-02,
          1.67688906e-01, 1.76959392e-02, 1.54503211e-01,
          -1.49979040e-01, -1.03738785e-01, 1.34815015e-02,
          -9.65365022e-02, -5.51481247e-02, -1.20048381e-01,
          8.87361616e-02, 4.06549722e-02, 1.28379717e-01,
          -2.40602642e-01, 5.68839237e-02, 7.76416063e-02,
          -3.81844528e-02, 3.31986919e-02, -6.62942827e-02,
          3.76585014e-02, -3.24045010e-02, -7.41570303e-03,
          -6.66587502e-02, -1.16083659e-01, -1.33822381e-01,
          -7.99700245e-02, 1.25766680e-01, 7.97987357e-02,
          2.77572162e-02, -1.38538837e-01, 3.36579867e-02,
          2.04421625e-01, 2.07015686e-02, 2.94526741e-02, 1.15594333e-02,
          8.74174535e-02, 3.77959684e-02, 1.07301980e-01,
          -5.91194145e-02, 8.85631144e-02, -1.77283138e-01,
          -9.11918730e-02, -5.15025668e-02, -6.10934980e-02,
          7.46845156e-02, 1.78541198e-01, 7.59691074e-02,
          -4.66672704e-02, -1.20917649e-03, 8.00712332e-02,
          1.22912331e-02, -5.41422963e-02, -1.64198041e-01,
          -2.72800457e-02, 1.32645831e-01, 1.18678331e-01,
          -3.14245671e-02, 1.67080253e-01, 2.54996996e-02,
          -1.03727609e-01, 2.81675234e-02, -2.26663444e-02,
          -1.01578243e-01, 1.84233941e-05, 2.05189008e-02,
          -1.18854381e-01, -7.04798102e-02, 1.12930343e-01,
          -7.58881941e-02, 4.67321388e-02, 1.56454399e-01,
          -5.35589783e-03, -1.38341784e-02, 4.34218766e-03,
          2.58527752e-02, -4.30244207e-02, 2.90538389e-02,
          -7.02311471e-02, -1.04888929e-02, 5.18351560e-03,
          -7.77159706e-02, -1.46932304e-01, 2.10124291e-02,
          -1.10944673e-01, 1.17846683e-01, -1.33180097e-01,
          -7.54375979e-02, 6.37827627e-03, 1.14081874e-01,
          -7.24457502e-02, 2.18258612e-02, 3.05515677e-02,
          1.59506902e-01, 7.59426430e-02, 5.62697835e-02,
          -6.13341741e-02, 6.82592914e-02, 9.46822241e-02,
          8.52284138e-04, -2.95686513e-01, -6.24209307e-02,
          -3.39083150e-02, -5.09317443e-02, 2.04156220e-01,
          -1.31558716e-01, 9.79607180e-02, -2.46440396e-02,
          -1.18133307e-01, -2.84984589e-01, 3.75168845e-02,
          4.67085317e-02, 1.50390238e-01, -1.97266042e-01,
          -1.68405306e-02, -8.79216492e-02, -6.01750873e-02,
          7.82091320e-02, -2.40540370e-01, -1.29117249e-02,
          1.69190899e-01, 3.26488465e-02, -3.09838448e-02,
          -2.51065921e-02, 1.35162696e-01, 5.21658249e-02,
          -4.75173723e-03, -2.15232849e-01, -4.65690196e-02,
          -8.67619878e-04, 1.51498273e-01, -1.76737960e-02,
          -9.79450643e-02, 4.99653853e-02, -1.09445885e-01,
          -9.29397866e-02, -1.20157652e-01, -1.14752300e-01,
          -1.10344633e-01, -1.21105663e-01, -4.90332805e-02,
          -2.62500215e-02, 4.28533442e-02, 2.51253340e-02,
          1.27329990e-01, 3.26253399e-02, 1.08676620e-01, 2.72451551e-03,
          -1.29065484e-01, -6.17153123e-02, -1.08111039e-01,
          9.49464440e-02, -6.29617423e-02, -7.94194937e-02,
          -6.34678751e-02, -2.17168443e-02, -5.52760772e-02,
          3.44807431e-02, 7.95522854e-02, -5.48486076e-02,
          5.37491478e-02, 7.47685283e-02, 9.08558592e-02, 7.62656778e-02,
          2.18362346e-01, -6.63486049e-02, 1.09681860e-02,
          1.22663677e-01, -2.96883304e-02, 5.35966232e-02,
          6.88103959e-02, -7.84417316e-02, -1.78920582e-01,
          4.90150936e-02, 1.54413640e-01, -1.75225846e-02,
          6.07971549e-02, -1.12053528e-02, 1.93342879e-01,
          5.87614253e-02, 2.71733347e-02, -2.42770731e-01,
          -3.32804807e-02, -7.68338740e-02, -3.71140428e-02,
          4.90568988e-02, -4.59427349e-02, 5.72606213e-02,
          6.71474785e-02, -9.33794081e-02, -2.22076774e-01,
          6.69252547e-03, -1.42645091e-01, -7.84816891e-02,
          6.05567694e-02, 9.50760916e-02, 1.93369612e-01, 3.02226022e-02,
          1.72046259e-01, 1.93472058e-02, 4.17178050e-02, 2.45340616e-02,
          7.40505010e-02, -1.17343396e-01, -1.60284311e-01,
          4.95658182e-02, -7.38519803e-02, 9.61849745e-03,
          -8.34364146e-02, 9.78008285e-02, -1.42873541e-01,
          -6.56399280e-02, -9.07178372e-02, -1.28488064e-01,
          -1.19585320e-02, -5.81993274e-02, 9.26981121e-02,
          5.44614578e-03, -2.74059363e-02, -3.91613245e-02,
          1.64870217e-01, 7.29891285e-02, 6.05372451e-02, 1.96696743e-01,
          4.09272686e-02, -2.93090660e-02, -4.91940267e-02,
          1.24044962e-01, -3.28525901e-02, 1.33187845e-01,
          1.28076196e-01, 7.02144355e-02, 3.61376479e-02,
          -2.86653079e-02, 1.85352173e-02, 1.56584263e-01,
          3.36618945e-02, 2.21842695e-02, 2.14515060e-01, 1.46949431e-02,
          -1.70162112e-01, -3.76120545e-02, -1.09330587e-01,
          6.90513253e-02, -2.05836967e-01, -3.12171038e-02,
          -9.76757854e-02, 9.04636681e-02, 3.98213677e-02,
          -2.90641957e-03, -4.71287705e-02, -2.85186749e-02,
          -1.13929644e-01, -1.91771984e-01, 1.50167514e-02,
          -5.90014122e-02, -4.55219671e-02, -3.28474306e-02,
          2.59697642e-02, -5.90144955e-02, -1.21542476e-02,
          1.39671728e-01, 2.19378527e-02, 6.52918010e-04, 3.70242856e-02,
          8.10203850e-02, -7.10599795e-02, 8.98710545e-03,
          4.18954305e-02, 2.08715260e-01, 2.79232720e-03,
          -3.01454645e-02, -1.14762641e-01, 9.89850610e-02,
          1.65385336e-01, -8.64261240e-02, -9.74067301e-02,
          -1.19161651e-01, -1.08463891e-01, -1.57397717e-01,
          -1.47606537e-01, -1.53648220e-02, -9.06921029e-02,
          -2.02233240e-01, 1.13143899e-01, -1.32861417e-02,
          -9.55489054e-02, -1.11394823e-01, -1.83799684e-01,
          1.02686986e-01, 1.61522746e-01, 1.26665175e-01, 8.09257384e-03,
          -8.59591439e-02, -2.75125150e-02, -1.82326064e-02,
          3.77484336e-02, 6.46792501e-02, -2.25245934e-02,
          -5.73056601e-02, -6.54451400e-02, 2.06131879e-02,
          7.45615214e-02, 3.73601057e-02, 3.93028222e-02, 2.18053516e-02,
          2.30721235e-02, 1.60913244e-02, 9.88861099e-02, 1.55237541e-01,
          9.29291472e-02, -3.26360762e-02, 2.90772505e-02,
          -6.37897551e-02, -7.99792632e-02, 1.32756412e-01,
          2.61936374e-02, -5.16259745e-02, 8.24379697e-02,
          -2.44840048e-02, -4.31666747e-02, -5.78260012e-02,
          -4.03251983e-02, 4.11254689e-02, -7.58540407e-02,
          -1.20818000e-02, 1.00655630e-01, 1.31328061e-01,
          1.04580089e-01, -1.44104091e-02, -1.28515642e-02,
          2.45349742e-02, -3.17662768e-02, 1.13986887e-01,
          2.50256509e-02, -4.12678123e-02, 2.16113273e-02,
          6.68447614e-02, 2.12055240e-02, 1.40303597e-01, 1.09894618e-01,
          6.92304075e-02, -1.20943584e-01, -7.36910775e-02,
          -1.05161695e-02, 8.18521976e-02, -7.74512812e-02,
          -1.21558286e-01, -1.46848336e-01, -4.24733944e-02,
          2.23912317e-02, 2.85047316e-03, -3.98861244e-02,
          3.09357550e-02, -9.12826788e-03, 5.29435799e-02,
          8.76199976e-02, 5.45165092e-02, 2.20148433e-02, 6.09717332e-02,
          5.26035205e-02, -2.95725707e-02, -6.51142448e-02,
          1.58715509e-02, -4.78301793e-02, -1.87608793e-01,
          -7.35697374e-02, 3.03828809e-02, -9.97052863e-02,
          5.97685343e-03, -8.79699215e-02, 1.57040078e-02,
          -3.04620788e-02, -4.97520119e-02, -1.04804046e-01,
          -9.28735808e-02, -3.81302051e-02, 7.02950582e-02,
          2.68367138e-02, 1.25995234e-01, -2.74978317e-02,
          3.24282832e-02, -4.33008336e-02, -9.08259675e-02,
          1.07469633e-02, -9.90944132e-02, -1.35986701e-01,
          -6.73365295e-02, 9.35476124e-02, 3.57683524e-02,
          1.20660886e-01, -1.33887120e-02, -2.33089030e-02,
          1.83342844e-01, 1.42388448e-01, -4.00869846e-02,
          -1.21271834e-01, 1.60174206e-01, 1.65458620e-01,
          7.95775354e-02, -1.23532847e-01, -1.73222627e-02,
          -9.43694934e-02, -8.58913958e-02, -1.73699468e-01,
          -8.21078867e-02, 7.55812824e-02, -2.05148552e-02,
          9.29960757e-02, 1.07509643e-01, 3.17480601e-02, 2.20597014e-01,
          1.74748212e-01, 3.47277895e-02, 1.01854756e-01, 2.35908657e-01,
          3.75168980e-03, 6.30342439e-02, -6.98843040e-03,
          -1.62269458e-01, -2.82194503e-02, 1.58780850e-02,
          6.37027249e-02, 5.18576019e-02, -7.00760037e-02,
          1.09362803e-01, 2.13812515e-01, 1.14778150e-02, 3.90318478e-03,
          1.74451899e-02, -1.29154727e-01, -4.79076914e-02,
          6.09759651e-02, -1.41707972e-01, 7.67653883e-02,
          1.11495733e-01, 3.87426699e-04, -2.00291783e-01,
          -7.01557007e-03, -4.89017703e-02, 6.91570388e-03,
          1.03940338e-01, -2.25227952e-01, -8.00906643e-02,
          1.61520824e-01, -8.28824416e-02, -1.03837974e-01,
          3.49832699e-02, -2.35873442e-02, -1.15040474e-01,
          -4.55432106e-03, -4.26169187e-02, 5.89243956e-02,
          7.76352137e-02, -1.86026603e-01, -1.53798172e-02,
          5.18995412e-02, -2.01160740e-02, 1.06958980e-02,
          -7.34768286e-02, -1.92801461e-01, -2.26459149e-02,
          -6.56831861e-02, -4.11022753e-02, -1.15182035e-01,
          -1.75641581e-01, -5.14081456e-02, -7.79228210e-02,
          2.97897048e-02, -1.46428570e-02, -5.21503128e-02,
          -1.99476078e-01, -6.07044324e-02, -3.12459748e-02,
          7.96098113e-02, 1.50837183e-01, -1.46952316e-01,
          -5.79360127e-02, -1.03366539e-01, 1.78248493e-03,
          -1.92742161e-02, -2.25651674e-02, -8.67394209e-02,
          -6.67465478e-02, 7.74186105e-02, -1.30604506e-01,
          -1.26115397e-01, -5.18957712e-02, 2.80828141e-02,
          -1.79562449e-01, 9.40475054e-03, -1.17798753e-01,
          -3.52256261e-02, 8.67717117e-02, -7.45961093e-04,
          -1.85776964e-01, 4.09673080e-02, 3.60149182e-02,
          -1.63328219e-02, -5.44806719e-02, -1.65175766e-01,
          -7.14075044e-02, 4.99285618e-03, 8.93454477e-02,
          -8.63916650e-02, -5.79059757e-02, -8.94486532e-02,
          1.08456239e-02, -1.30433336e-01, -7.28611574e-02,
          1.05368227e-01, 1.94327414e-01, 5.42036109e-02,
          -7.32094422e-02, 5.93287125e-03, 2.59348184e-01,
          7.63456244e-03, -7.02130049e-02, -1.39960408e-01,
          5.09347841e-02, -1.53289195e-02, -5.21506043e-03,
          -8.07866082e-02, 1.36084612e-02, 2.68489212e-01,
          -9.82026383e-03, -1.15022674e-01, -1.28605455e-01,
          -2.84132250e-02, -9.81117859e-02, -3.85740697e-02,
          8.75657797e-03, -1.11494549e-01, -1.94822159e-02,
          6.36523291e-02, 4.62943465e-02, -1.52539331e-02,
          2.42818762e-02, 6.86032325e-02, 2.50423606e-02, 7.61910826e-02,
          -1.55579736e-02, -3.55026424e-02, 1.12071512e-02,
          1.39567927e-01, -5.37097752e-02, 3.36280391e-02,
          -2.03197598e-01, -1.15145400e-01, -1.57832682e-01,
          -1.43241227e-01, 2.05186397e-01, -2.65650172e-02,
          -7.70931095e-02, 1.57144487e-01, 8.90539512e-02,
          -1.23676248e-01, -1.33910596e-01, -1.12986512e-01,
          -1.72655925e-01, -1.40186727e-01, -1.00551993e-01,
          1.45104691e-01, -5.69856763e-02, -8.02588239e-02,
          -4.76136282e-02, 2.35693925e-03, 1.09246753e-01,
          2.94279128e-01, 5.84388617e-04, -1.36287257e-01,
          -6.04936182e-02, 1.24364324e-01, -8.58165026e-02,
          -1.19251385e-01, -1.60524219e-01, -4.32121707e-03,
          1.82180285e-01, 3.54025252e-02, -1.92337736e-01,
          2.87378952e-02, -3.61316204e-02, 4.19809930e-02,
          5.18989237e-03, -2.85814013e-02, -1.93572059e-01,
          4.92259897e-02, -8.98281857e-02, -1.57550886e-01,
          -2.39174943e-02, 1.95646346e-01, 3.48552428e-02,
          2.30601832e-01, -3.02290060e-02, -1.82205051e-01,
          1.36489466e-01, 1.74498290e-01, -9.29688215e-02,
          1.06962413e-01, 7.63338506e-02, -2.47283056e-02,
          4.94906418e-02, 6.26121322e-03, -5.19531742e-02,
          -7.48019442e-02, 1.27608264e-02, -2.21443444e-01,
          3.01200524e-02, -1.25870764e-01, -1.92370310e-01,
          8.18688646e-02, 7.78498054e-02, 6.71228627e-03, 1.19832031e-01,
          9.19035375e-02, -1.44590372e-02, 2.78676115e-02,
          1.43741652e-01, -1.75763994e-01, 1.25208467e-01,
          1.49110973e-01, -3.40970427e-01, -8.58892426e-02,
          6.55399542e-03, 1.17468275e-02, 7.05573186e-02, 1.58897247e-02,
          -8.56210217e-02, 2.73433775e-01, 2.32139006e-01,
          -1.01029947e-01, 9.19004753e-02, 1.32447109e-01,
          -5.62912377e-04, 4.29220982e-02, -1.22460544e-01,
          -2.39801742e-02, -6.61185235e-02, -1.93836853e-01,
          -1.19987689e-01, -1.05577379e-01, 1.37991920e-01,
          -5.29632671e-03, -4.22505371e-04, -5.09965606e-03,
          1.15617268e-01, 1.58509403e-01, 1.63517501e-02,
          -6.91918358e-02, 1.34956494e-01, 1.64358884e-01,
          5.03830786e-04, 3.32105234e-02, -4.23617326e-02,
          9.01766587e-03, 1.50009215e-01, 5.86709715e-02,
          -6.29780293e-02, -9.33252946e-02, 1.41107410e-01,
          -1.19792402e-01, -9.06925723e-02, 1.28263012e-01,
          5.95033020e-02, 6.62792325e-02, -2.65535936e-02,
          -8.08399767e-02, 7.35389963e-02, 2.14756459e-01,
          -2.04596203e-03, 2.91631892e-02, -6.24975376e-02,
          -1.19056344e-01, 4.08968553e-02, -7.00978860e-02,
          -1.08695023e-01, 6.32070452e-02, -6.17121235e-02,
          -1.65501200e-02, -8.73577036e-03, 3.43286768e-02,
          -9.49251950e-02, -1.99055579e-02, 8.53767991e-03,
          7.54755139e-02, 6.81119114e-02, 2.96263006e-02,
          -1.55975446e-01, 9.28066298e-02, -7.56414048e-03,
          -5.48241213e-02, 5.77000789e-02, -5.22506833e-02,
          -1.85044125e-01, 3.23428363e-02, -2.22232528e-02,
          -9.66569409e-02, -2.24437062e-02, 2.16130354e-02,
          -4.53751720e-02, 8.27957764e-02, 5.44388294e-02,
          6.95953220e-02, 2.05864031e-02, 2.03944035e-02,
          -3.46936472e-02, 2.76371581e-03, -7.34710544e-02,
          -4.66247424e-02, -5.21506630e-02, -1.21420965e-01,
          -4.00297046e-02, -1.39575392e-01, -8.84266123e-02,
          -1.33562356e-01, -1.27987325e-01, -3.58347557e-02,
          1.13257036e-01, 7.55629018e-02, -3.14612128e-02,
          7.21382424e-02, -3.45543884e-02, -9.91445780e-03,
          -8.32426995e-02, -1.67507660e-02, 2.21336335e-02,
          4.77657206e-02, 5.79897314e-03, -3.66392471e-02,
          -1.12893082e-01, -5.18424287e-02, -1.00513957e-02,
          9.24687311e-02, 1.78737491e-02, 9.28144976e-02, 9.81989279e-02,
          5.27393036e-02, 1.21774718e-01, 1.48799038e-02, 1.11816470e-02,
          2.20318064e-02, 7.31843337e-02, 8.24156925e-02,
          -1.10539980e-01, -9.96340364e-02, -7.16200331e-03,
          -5.94591498e-02, -1.01184926e-03, -6.23198375e-02,
          2.04691719e-02, 1.76764969e-02, -9.92413461e-02,
          -6.64207414e-02, -2.46888846e-02, -4.13444340e-02,
          1.38429750e-03, 6.34411201e-02, 7.57721588e-02, 1.33569449e-01,
          2.61873063e-02, 7.75346160e-02, 5.59523068e-02, 6.85902219e-03,
          8.81229416e-02, 9.58116166e-03, -1.49007440e-01,
          5.67410029e-02, 3.61321606e-02, 1.05764925e-01, 7.25996960e-03,
          -3.19953226e-02, -4.25285064e-02, 1.37222052e-01,
          1.74974769e-01, -1.78001076e-02, 1.16845615e-01,
          8.54095593e-02, 1.29111812e-01, 9.03027207e-02,
          -1.63203657e-01, 2.90895477e-02, -5.16215712e-02,
          -1.27914911e-02, 3.39020230e-02, -6.47745728e-02,
          -9.50778499e-02, -1.79515332e-02, 3.10788285e-02,
          1.34753391e-01, 6.23871498e-02, 3.49636413e-02, 1.30760506e-01,
          8.19732770e-02, -4.97448333e-02, -1.22578032e-01,
          7.78193474e-02, 8.78778994e-02, -2.07747631e-02,
          -1.63588778e-03, -2.87303166e-03, 9.36986655e-02,
          -1.38264492e-01, -4.60413806e-02, -1.75824925e-01,
          -4.18008268e-02, 4.44356203e-02, 1.49502411e-01,
          2.24150587e-02, -9.74084511e-02, 5.44312336e-02,
          -1.31790951e-01, 1.10106878e-01, 8.79584774e-02,
          7.49160498e-02, 1.28669776e-02, -2.39932481e-02,
          2.28933282e-02, -8.23431555e-03, 1.51074957e-02,
          1.12176538e-01, -9.37672704e-02, -1.41619533e-01,
          -4.10895124e-02, 5.79952672e-02, -7.54767731e-02,
          -2.30422527e-01, 3.38826813e-02, -8.10074657e-02,
          8.51458833e-02, 1.31078020e-01, 1.95707250e-02, 1.62314419e-02,
          1.06985211e-01, 1.14508392e-02, 4.55452688e-02, 4.51848172e-02,
          1.27397910e-01, 1.14485770e-02, -7.13811023e-03,
          3.13335210e-02, 7.45511055e-02, 1.26961917e-01, 1.39576420e-02,
          -2.23163050e-02, 1.71624660e-01, 4.01166407e-03,
          -1.31441072e-01, -2.23346632e-02, 1.42876193e-01,
          8.10061395e-02, 1.24035768e-01, -7.58040026e-02,
          -2.13943928e-01, -8.81303940e-03, -3.87301780e-02,
          1.80353135e-01, 2.04736009e-01, 5.48448926e-03,
          -6.24211617e-02, -2.64242515e-02, 1.49137124e-01,
          7.70391375e-02, 1.18392169e-01, 9.64932740e-02,
          -1.09078251e-01, 1.63778573e-01, 8.27449095e-03,
          1.27658308e-01, 9.82873961e-02, 7.37253204e-02, 5.30815497e-03,
          2.03272313e-01, 8.99739042e-02, 7.94124454e-02,
          -2.59375433e-03, 4.13458161e-02, -7.38778263e-02,
          -9.12815854e-02, 1.31231591e-01, 2.96228705e-03,
          9.06557739e-02, 2.26286985e-02, -1.04126841e-01,
          -1.20157562e-01, -4.96314652e-02, 4.31152321e-02,
          2.72311959e-02, -7.17546567e-02, -4.26961929e-02,
          -9.13638715e-03, -5.50462529e-02, 1.25232831e-01,
          -7.61849582e-02, -6.02458976e-02, -6.38303682e-02,
          4.72799279e-02, 9.71242040e-03, 7.29899779e-02, 7.36278072e-02,
          3.80429886e-02, 2.60631770e-01, 4.79388572e-02,
          -2.68809851e-02, 4.86164242e-02, 7.29373246e-02,
          1.14524886e-02, -2.04128549e-02, 6.20378926e-02,
          1.19638583e-02, 1.43233895e-01, -1.73266679e-01,
          -1.25710368e-02, -2.44231075e-02, 1.31422743e-01,
          1.07980095e-01, 6.15970045e-02, 6.04575686e-02, 6.71885312e-02,
          1.65158734e-01, -3.36856693e-02, 1.62957869e-02,
          2.85632592e-02, 1.32574692e-01, 9.34946463e-02, 5.03175631e-02,
          -1.39878476e-02, -2.02939525e-01, 7.42691709e-03,
          8.53433758e-02, -1.17483124e-01, -1.30517958e-02,
          1.00205533e-01, -2.72407420e-02, 2.55223960e-01,
          7.69250244e-02, 2.99220569e-02, 1.64147750e-01, 8.24435130e-02,
          -1.07265726e-01, -1.23283071e-02, -5.73426671e-02,
          -1.37839373e-02, 7.56570548e-02, -1.91180650e-02,
          1.00650899e-01, -9.85350013e-02, 2.13525407e-02,
          -1.17797494e-01, 3.16704400e-02, -3.44921160e-03,
          -1.04692973e-01, 5.05781956e-02, 5.20086735e-02,
          2.04594061e-01, -1.02736186e-02, 9.87192467e-02,
          -1.89893637e-02, 1.37387380e-01, -6.66400194e-02 ]
   decision_functions:
      -
         sv_count: 1
         rho: -1.2693996753407946e+00
         alpha: [ 1. ]
         index: [ 0 ]
