%YAML:1.0
my_svm: !!opencv-ml-svm
   svm_type: C_SVC
   kernel: { type:LINEAR }
   C: 1.
   term_criteria: { epsilon:2.2204460492503131e-16, iterations:2000 }
   var_all: 2916
   var_count: 2916
   class_count: 6
   class_labels: !!opencv-matrix
      rows: 1
      cols: 6
      dt: i
      data: [ -1, 1, 2, 3, 4, 5 ]
   sv_total: 15
   support_vectors:
      - [ -1.17217757e-01, -2.38893732e-01, 6.80201035e-03,
          2.21716076e-01, 7.07302690e-02, -1.54432803e-01,
          8.92097950e-02, -3.50142904e-02, 3.62715945e-02,
          -1.14472836e-01, 1.24156065e-01, -3.59185606e-01,
          1.52099892e-01, 1.85955420e-01, -1.43061772e-01,
          -3.46120857e-02, -1.27596647e-01, 1.45702258e-01,
          4.98240907e-03, -1.26225561e-01, -1.50038391e-01,
          1.11610420e-01, -2.08031833e-01, -5.85459769e-02,
          9.12840292e-02, -1.60817504e-01, -1.18766703e-01,
          -3.25798504e-02, 1.16308508e-02, -7.81074688e-02,
          -1.32215861e-02, 1.20019771e-01, -1.37658462e-01,
          -2.86017865e-01, 3.07669789e-02, -3.46788876e-02,
          5.87358139e-02, 8.12622979e-02, -2.55864739e-01,
          1.73128814e-01, -4.00444493e-02, 2.58633792e-01,
          1.17536940e-01, 7.32057542e-02, 1.94837600e-01,
          -2.25783028e-02, -3.29517014e-02, -1.49558067e-01,
          1.08926550e-01, 4.15430330e-02, -7.22161978e-02,
          3.01458053e-02, 8.11722502e-02, -1.09715313e-01,
          5.41169122e-02, -4.54407446e-02, -2.73543388e-01,
          2.16454826e-02, -8.27219784e-02, 5.56080528e-02,
          -6.57876655e-02, 1.34953827e-01, 1.90032765e-01,
          -2.40906999e-02, 3.04575652e-01, 1.15423836e-01,
          1.90493122e-01, -1.75683483e-01, -1.50245652e-01,
          3.33783701e-02, 1.38470575e-01, -9.69411656e-02,
          -9.42554325e-02, -4.89106365e-02, -2.34596610e-01,
          -1.00972787e-01, 5.35932444e-02, -4.30852175e-02,
          6.37222975e-02, 3.49701419e-02, 1.69042815e-02,
          -1.65050440e-02, -1.33530110e-01, 9.99838635e-02,
          1.56996772e-01, 1.16814598e-01, -1.77470058e-01,
          1.00710616e-01, 1.62076447e-02, 8.61944780e-02,
          -3.87916453e-02, -5.15499227e-02, -1.81065947e-02,
          3.48849669e-02, 2.12217137e-01, -2.51198292e-01,
          -1.63328558e-01, 1.32483810e-01, 2.44706452e-01,
          1.20014168e-01, -1.20335080e-01, 2.15218976e-01,
          5.55690266e-02, -1.85442880e-01, 1.26201166e-02,
          -1.80998892e-01, -5.52780032e-02, 6.42851889e-02,
          6.23378046e-02, -3.35571200e-01, 8.53672102e-02,
          -1.27292782e-01, -3.56060229e-02, -3.55589271e-01,
          4.95403297e-02, 2.62568474e-01, -3.28738391e-02,
          -1.24172233e-01, -1.77558154e-01, -2.89815087e-02,
          3.68093662e-02, -4.53163087e-02, -1.64468914e-01,
          1.79892436e-01, 8.71881917e-02, -4.22428638e-01,
          -1.11929670e-01, -1.99884713e-01, 3.47775929e-02,
          -1.57141954e-01, -1.94452688e-01, 1.20751578e-02,
          1.41870573e-01, -4.76401001e-02, -1.85161695e-01,
          3.72860879e-01, 3.62116396e-02, -8.41933936e-02,
          -3.48585993e-01, 1.72739059e-01, 1.68066099e-01,
          -6.38289750e-02, 1.77625697e-02, -2.26951286e-01,
          9.15566683e-02, 7.32606798e-02, 2.64071643e-01, 6.62614927e-02,
          -1.29649937e-01, -2.33346477e-01, -5.56996241e-02,
          1.76708832e-01, -6.14185818e-02, -2.76732117e-01,
          -7.03023747e-02, -5.27721643e-02, -3.26153375e-02,
          -1.74618210e-04, -1.34135202e-01, -2.98289895e-01,
          6.12908527e-02, -1.29373521e-01, 9.06931311e-02,
          2.67995089e-01, 2.78720818e-02, -5.24012707e-02,
          2.07045212e-01, -9.90821421e-02, -1.15274712e-01,
          1.25451446e-01, -3.64190638e-01, 4.93431184e-03,
          5.54976761e-02, 7.30686635e-02, -1.59737602e-01,
          6.64980188e-02, 1.64720505e-01, 1.49023443e-01, 1.55539408e-01,
          -3.51230614e-02, -2.26778135e-01, -1.74682140e-01,
          7.04154223e-02, 1.11740477e-01, -1.36805460e-01,
          -7.56991804e-02, 1.18337199e-01, 6.48840964e-02,
          -1.05859749e-01, 1.29188418e-01, -2.72233933e-02,
          -2.41151124e-01, -1.36090517e-01, 1.91789959e-02,
          -1.39225349e-01, -8.77884552e-02, 5.33739626e-02,
          -4.65438142e-02, -1.21963590e-01, -4.32157964e-02,
          1.56235352e-01, 1.27530187e-01, -1.54795110e-01,
          5.35204969e-02, 1.22717090e-01, -9.75089148e-03,
          -5.36060333e-02, -7.59112090e-02, -1.97338745e-01,
          -3.34698148e-02, -1.03913255e-01, 2.48565882e-01,
          -1.70280069e-01, 1.39471158e-01, -1.74842104e-01,
          2.69619167e-01, 2.17338189e-01, 9.56231728e-02,
          -2.53013913e-02, 5.10764644e-02, -5.76118715e-02,
          3.31562273e-02, -7.70577565e-02, 2.83771176e-02,
          -3.61181289e-01, 1.58720165e-01, -2.24771813e-01,
          -1.11213379e-01, 1.71544164e-01, -8.45912099e-02,
          7.23394752e-02, -5.63304760e-02, 8.77579749e-02,
          -1.36194015e-02, 3.34342957e-01, -1.17378168e-01,
          1.69576302e-01, -7.77727962e-02, 2.60674924e-01,
          -1.50821432e-01, -2.99686939e-02, -4.48330306e-02,
          -1.19760700e-01, 4.43667397e-02, 2.55859569e-02,
          1.32656202e-01, 2.00752214e-01, 9.74775925e-02,
          -1.02000438e-01, 5.56414761e-02, 5.44360206e-02,
          -6.09316789e-02, 6.76465258e-02, -6.92451373e-02,
          4.50313054e-02, -1.77601948e-02, -3.91037166e-01,
          -1.43539589e-02, 3.55310775e-02, -3.24339047e-02,
          -2.11340800e-01, -1.79677427e-01, -2.45087042e-01,
          -1.39312372e-01, -5.02907299e-02, 1.35351598e-01,
          -1.16447598e-01, 1.18511327e-01, -1.65903509e-01,
          -1.48666605e-01, -1.09666780e-01, -1.16584331e-01,
          -1.36774302e-01, -7.02046752e-02, -1.97048075e-02,
          7.89031014e-02, -6.81336150e-02, 1.19009972e-01,
          -1.18921369e-01, -2.27984935e-01, -1.50395483e-01,
          1.69788972e-01, -7.57977217e-02, 2.10354850e-01,
          -3.80090833e-01, -1.82075083e-01, -1.92137554e-01,
          3.01606990e-02, -1.85911227e-02, 6.57704920e-02,
          -1.03446487e-02, -2.11453900e-01, -2.19109640e-01,
          -1.15141362e-01, -1.17771417e-01, -4.09921736e-01,
          -1.67655557e-01, -6.36638179e-02, 8.02770182e-02,
          1.06397361e-01, -1.87337071e-01, -1.89447910e-01,
          -1.86381459e-01, -2.57153273e-01, -1.16018161e-01,
          2.94254750e-01, -1.13700964e-01, -7.35986456e-02,
          -8.81173760e-02, -9.70625058e-02, -5.82663082e-02,
          -5.91036156e-02, 8.65399390e-02, -5.93401119e-02,
          -8.52080882e-02, -2.28959754e-01, 2.91377872e-01,
          2.04234496e-02, -8.12357944e-03, 2.17266485e-01,
          2.16381833e-01, -4.61713850e-01, 1.58873260e-01,
          -1.51814222e-01, 3.75626236e-01, 1.49384066e-01,
          -1.44873142e-01, -1.01615369e-01, 9.94160697e-02,
          -4.50635888e-03, -1.73393507e-02, -1.48336530e-01,
          -1.62819222e-01, 2.26522848e-01, -2.82255918e-01,
          -2.57189423e-02, -6.18700013e-02, -1.71371251e-02,
          -3.14541966e-01, 1.04264610e-01, 4.88994643e-02,
          2.30717123e-01, -2.13018045e-01, 1.09689601e-01,
          -2.91992277e-01, -2.18752861e-01, -4.73855823e-01,
          -5.93697056e-02, -9.95124131e-02, -1.18593529e-01,
          -1.69882312e-01, 1.07081734e-01, -1.49029762e-01,
          2.05638245e-01, 3.97856086e-02, -1.57566369e-01,
          1.71598315e-01, 9.52914059e-02, 7.54116252e-02,
          -1.55671299e-01, 3.94006260e-03, -2.52954304e-01,
          5.16307391e-02, 8.28993469e-02, -5.42855673e-02,
          2.92858869e-01, -3.90136503e-02, -7.86713362e-02,
          1.70361679e-02, 6.33149967e-02, -7.04952106e-02,
          -3.85783315e-01, 2.67925382e-01, 2.31176093e-01,
          -3.57522443e-02, -3.58003788e-02, 1.90583259e-01,
          -1.70886263e-01, -2.16630995e-02, -1.13994442e-02,
          1.73085839e-01, 3.61614168e-01, -6.89961314e-02,
          -3.31165828e-02, -6.24578334e-02, 1.34681046e-01,
          1.90801352e-01, 1.08969659e-01, -3.11266258e-02,
          -4.02398221e-02, 6.20475672e-02, 1.31919444e-01,
          4.81738113e-02, 2.02930495e-02, 2.24017486e-01,
          -8.71481374e-03, -9.87336785e-02, -2.01185852e-01,
          -2.53482401e-01, 1.66897029e-01, 4.12065119e-01,
          -4.33042943e-02, -5.95935583e-02, 3.45968306e-01,
          2.21274137e-01, 1.02981091e-01, -1.35055959e-01,
          1.66908234e-01, 1.92260116e-01, -3.14514995e-01,
          -2.97356136e-02, -2.69526064e-01, -2.54002176e-02,
          1.31283984e-01, -7.83375725e-02, 2.51528025e-02,
          -2.68575847e-02, 1.23025090e-01, 1.86940655e-01,
          9.69513506e-02, 2.24010274e-01, 6.14095628e-02,
          -2.59482384e-01, 1.65826112e-01, -6.86546089e-03,
          2.32001126e-01, 1.17637962e-01, -4.17924337e-02,
          7.28837699e-02, 2.63242200e-02, -1.14760600e-01,
          7.64180496e-02, -1.99809760e-01, -1.62902437e-02,
          -1.59445629e-01, -1.80026323e-01, -5.23655787e-02,
          5.69798574e-02, 2.36967318e-02, -3.28611881e-02,
          -5.47583885e-02, -3.28051150e-01, -2.08532527e-01,
          1.06299296e-01, -2.54988194e-01, -5.22795618e-02,
          9.46927890e-02, -5.35995290e-02, -2.70410687e-01,
          -1.01150759e-01, 7.59805692e-03, -1.30593315e-01,
          -2.51615793e-01, -7.28756934e-02, 9.13132429e-02,
          9.64495018e-02, 2.98653722e-01, -9.13016424e-02,
          -3.75299342e-02, -1.47481829e-01, -2.98920482e-01,
          5.86137585e-02, -2.92617023e-01, -3.58058065e-01,
          1.67755857e-01, 3.06190904e-02, -1.74998522e-01,
          1.05864495e-01, 1.67277246e-03, -1.51935101e-01,
          1.17535248e-01, 1.73097268e-01, 1.07648447e-01, 1.76085681e-02,
          -1.09335303e-01, -6.08644858e-02, -1.24109592e-02,
          2.45739564e-01, -2.66065121e-01, -5.30391559e-02,
          3.20759714e-02, -3.96739109e-04, 6.91849440e-02,
          5.75082824e-02, 1.23053342e-01, 6.77831396e-02,
          -4.99043567e-03, 1.04105927e-01, 1.74633622e-01,
          -1.34950653e-01, -1.38067037e-01, -1.86400890e-01,
          -2.41308168e-01, -7.33014122e-02, 6.15956411e-02,
          1.92659814e-02, -9.57238898e-02, 2.08288338e-03,
          3.32423151e-01, 1.89351499e-01, -3.06770504e-01,
          2.18469097e-04, 1.64208069e-01, -1.57508314e-01,
          -3.17578726e-02, 2.20912695e-01, 1.17269680e-01,
          -1.15566455e-01, -2.94879913e-01, -1.68820500e-01,
          -1.05234675e-01, -4.75721359e-02, -1.71867311e-01,
          -1.04644187e-01, -6.06409088e-03, -1.23955749e-01,
          1.31076053e-01, -3.62375714e-02, 3.71167809e-02,
          6.47331476e-02, -1.54843420e-01, -1.53279439e-01,
          7.12176338e-02, -7.38164410e-02, -2.31697485e-01,
          8.57468173e-02, -3.07842046e-01, 2.77077388e-02,
          4.80581112e-02, 2.73623824e-01, 1.65956412e-02,
          -1.73762720e-02, 1.90310612e-01, -3.20129655e-02,
          2.04450279e-01, -3.93814206e-01, -1.35811388e-01,
          -6.55330643e-02, 2.04449505e-01, -2.57691532e-01,
          2.59465218e-01, 1.37524709e-01, 7.30516165e-02, 9.47077572e-02,
          1.38701394e-01, -5.42948954e-02, -9.44446251e-02,
          -1.41833946e-01, -1.43032491e-01, 2.72311196e-02,
          6.56364858e-02, 6.11406341e-02, 3.57027978e-01,
          -2.39228740e-01, -1.50003368e-02, -2.63000559e-02,
          -1.04020201e-02, 6.05693869e-02, -6.62379041e-02,
          8.22184905e-02, -2.96144575e-01, 1.39726892e-01,
          -3.33486535e-02, -4.23723124e-02, 6.20036274e-02,
          2.31907323e-01, -2.55875319e-01, 1.58064365e-01,
          -1.30371869e-01, -5.18957637e-02, 3.34217818e-03,
          1.42874748e-01, 1.98548958e-01, 2.63177276e-01,
          -3.17973524e-01, -4.51871864e-02, 1.88561343e-02,
          1.01140805e-01, 4.39301655e-02, 4.75660851e-03,
          -2.67514914e-01, 1.34963021e-01, 1.67072743e-01,
          1.60977338e-02, 1.26114622e-01, -5.30946162e-03,
          -7.54189566e-02, -7.51565993e-02, -1.47790000e-01,
          -3.57722133e-01, -1.82103887e-01, -5.89441461e-03,
          -1.00373015e-01, 2.14094147e-01, 2.46775359e-01,
          -2.95676235e-02, 1.28010377e-01, -2.51614690e-01,
          -5.12130074e-02, 2.14697570e-01, 1.42089978e-01,
          1.24051884e-01, 8.34951028e-02, 2.82261446e-02,
          -1.74376145e-02, -1.58017606e-01, -1.92389241e-03,
          6.91623567e-03, -6.57722428e-02, 3.42394896e-02,
          -1.25807539e-01, 9.29615740e-03, 1.17851021e-02,
          -3.87966856e-02, -9.20559466e-02, 4.72622514e-02,
          -2.69218802e-01, 2.32947454e-01, 3.77047360e-02,
          -3.23969573e-01, 1.28422659e-02, -2.66267329e-01,
          7.30712637e-02, 1.19400658e-01, -5.13601974e-02,
          -2.12900788e-01, 2.79773891e-01, -2.62002140e-01,
          5.56168370e-02, 3.68061736e-02, 7.22418204e-02, 6.53837761e-03,
          -1.52305737e-01, -1.58824086e-01, 1.42915826e-02,
          -1.21182017e-01, -2.08873749e-02, -1.24228120e-01,
          -4.68888581e-02, -1.84125230e-01, -9.23185647e-02,
          2.48444974e-01, -1.10079378e-01, 1.18805319e-01,
          -1.75519407e-01, -8.45473409e-02, -1.35535553e-01,
          1.18967198e-01, -1.93473399e-01, 1.51576083e-02,
          -1.88406065e-01, -1.76267460e-01, 2.60882646e-01,
          1.60132200e-01, -1.89697072e-01, -1.60202935e-01,
          2.30625849e-02, -3.22363600e-02, 3.78165320e-02,
          -1.35853335e-01, -7.88506866e-02, 1.23830006e-01,
          2.67818063e-01, 1.12033054e-01, 1.02909632e-01,
          -8.01642910e-02, -1.44138768e-01, -1.98036253e-01,
          -2.73642153e-01, -2.98119783e-01, 4.78084460e-02,
          1.23871729e-01, -1.46196648e-01, -5.62688485e-02,
          -7.13254139e-02, 2.44644538e-01, 1.10463668e-02,
          2.04441492e-02, -1.51068300e-01, -7.40743300e-04,
          1.04318179e-01, 6.22302815e-02, 1.11115631e-02,
          -7.74880638e-03, -5.09102689e-03, 1.23210922e-02,
          -1.24384977e-01, 8.23783204e-02, 1.24162160e-01,
          -1.19410798e-01, -1.46007314e-01, 5.58822080e-02,
          2.10599422e-01, 3.58952656e-02, 1.02926306e-01,
          -9.33303405e-03, 7.73056373e-02, -5.96494065e-04,
          -9.44683179e-02, -3.02661151e-01, 5.03790043e-02,
          -1.37523755e-01, 9.21479538e-02, -3.13334316e-02,
          1.31267151e-02, -6.74097314e-02, -3.53524566e-01,
          -1.25236139e-01, -7.80175477e-02, 1.12378886e-02,
          -6.16872348e-02, 1.25853494e-02, 1.32164642e-01,
          1.69881642e-01, -2.96708792e-02, -2.66608298e-01,
          8.18413422e-02, 5.73517159e-02, -4.45821881e-02,
          2.30188623e-01, -1.19895115e-01, 2.20457260e-02,
          -3.17956209e-02, -1.58928573e-01, 5.23378961e-02,
          1.11176163e-01, 1.89798757e-01, -2.00020030e-01,
          -1.37588128e-01, 9.90228653e-02, 3.82233933e-02,
          1.02255948e-01, 2.09132120e-01, -1.42927580e-02,
          -1.20657109e-01, 7.87622109e-03, -5.30104339e-02,
          2.86233634e-01, 6.81000277e-02, -7.09703043e-02,
          -8.18245262e-02, -1.38573572e-01, 1.49819717e-01,
          1.80452988e-01, 7.52162114e-02, -1.85231775e-01,
          -3.46816815e-02, 1.57310933e-01, -1.92232262e-02,
          -3.78578529e-02, -1.05312183e-01, -2.63337135e-01,
          -1.56298235e-01, -5.77605469e-03, 2.68959310e-02,
          -4.73620854e-02, -1.10241979e-01, -1.84342235e-01,
          -1.03053905e-01, 1.27074376e-01, 3.76913369e-01,
          -1.47013022e-02, 6.77746758e-02, -3.73186953e-02,
          -1.10494368e-01, -6.69364184e-02, -3.18082333e-01,
          -2.09664941e-01, -1.32412896e-01, 3.99886817e-01,
          -3.41041148e-01, 1.54752195e-01, 5.84037490e-02,
          3.51038650e-02, -2.58662030e-02, -1.97843015e-01,
          -3.76462013e-01, -4.92237099e-02, -7.62856752e-02,
          1.11746065e-01, -1.43340575e-02, -1.14734896e-01,
          -2.50872701e-01, 3.59839238e-02, -1.74449250e-01,
          8.99766311e-02, -1.35266900e-01, -3.72286909e-03,
          -1.78855136e-01, 4.66669537e-02, 2.35503614e-01,
          -8.67690798e-03, 9.32541788e-02, -7.25541413e-02,
          -1.61560550e-02, 3.70795652e-03, 2.45289087e-01,
          -2.60481685e-01, -4.01938893e-02, 1.12567671e-01,
          -1.10581294e-01, 3.38748321e-02, -1.66069269e-01,
          -1.65852636e-01, 3.79834585e-02, 9.22721550e-02,
          1.47951096e-01, 2.23866776e-02, 8.82227719e-02,
          -1.62659943e-01, -1.80182323e-01, -2.55019128e-01,
          8.05963937e-04, 5.93468547e-02, -1.23367295e-01,
          -2.46408414e-02, 1.68237939e-01, 1.25894427e-01,
          -1.39560401e-01, -1.13443859e-01, -2.82546014e-01,
          -1.66680068e-02, -2.68265367e-01, -1.51515782e-01,
          -3.05913147e-02, -1.09458059e-01, -2.23740805e-02,
          -2.39611743e-03, 2.30755299e-01, 9.19887125e-02,
          3.21617015e-02, 9.89316031e-02, 5.59783652e-02, 3.44156146e-01,
          -1.72521278e-01, -1.75603703e-01, 8.40531066e-02,
          6.28204197e-02, 1.43118784e-01, 4.54465859e-02,
          -1.77745298e-02, -1.31591290e-01, -1.40369963e-02,
          1.60953905e-02, -1.74012512e-01, -8.64113420e-02,
          9.86499805e-03, -1.83523986e-02, -7.49165788e-02,
          6.49297051e-03, -8.28020945e-02, 1.30716488e-01,
          -1.05465248e-01, -1.53831691e-01, 6.60673231e-02,
          -5.15363179e-02, -1.41329542e-01, -4.58776532e-03,
          2.25990802e-01, 2.64064610e-01, -6.08742088e-02,
          9.61598828e-02, -2.46684626e-01, -1.78572431e-01,
          2.10270375e-01, 9.62950438e-02, 4.40557264e-02,
          -1.11982059e-02, -1.62669837e-01, -5.93836643e-02,
          -1.66917816e-02, -1.58651127e-03, -1.10077843e-01,
          -1.75291747e-02, 8.76062587e-02, 2.17500746e-01,
          2.22583890e-01, -1.24313913e-01, 5.04214615e-02,
          2.98371483e-02, -2.31560200e-01, -1.23173051e-01,
          -1.81034148e-01, 1.72939107e-01, 8.67954120e-02,
          -1.13072231e-01, 2.23148808e-01, 5.84583282e-02,
          6.90424815e-02, -2.80277014e-01, -1.44954816e-01,
          2.14926228e-01, 2.63995695e-04, -4.50416207e-02,
          -1.99815139e-01, -3.67459416e-01, -8.32860246e-02,
          -2.17323452e-01, -1.36276037e-01, 1.43714407e-02,
          7.43742138e-02, -1.27613574e-01, 7.12396428e-02,
          1.04462467e-02, -2.07261980e-01, -1.49989799e-01,
          -2.41760388e-01, -1.30399376e-01, 2.08120003e-01,
          -3.29544336e-01, 3.92108560e-02, -6.33915067e-02,
          2.32783243e-01, -2.45761368e-02, -1.60283864e-01,
          -2.71677375e-01, 1.36083402e-02, -2.04707429e-01,
          -2.40537107e-01, -1.05701499e-01, -1.01281956e-01,
          -1.22589789e-01, -3.29440057e-01, 4.28636260e-02,
          -4.50050503e-01, -2.23707125e-01, -2.04256743e-01,
          -9.14993808e-02, -1.60251155e-01, -7.54271075e-02,
          9.41048115e-02, 2.63619088e-02, -3.59500587e-01,
          -3.74537915e-01, 9.98973474e-02, 3.56489718e-02,
          -1.25420792e-02, -5.76226600e-03, 2.20594957e-01,
          -5.00468835e-02, -3.05095464e-01, 1.28506035e-01,
          -2.38296110e-02, 1.48509040e-01, -2.35601485e-01,
          -5.67277595e-02, -4.08703536e-02, 3.68595570e-01,
          -5.57966391e-03, -2.31389806e-01, -7.80593557e-03,
          2.59075254e-01, 2.35293582e-01, -8.76810551e-02,
          5.44973761e-02, 2.33420767e-02, -6.78467751e-02,
          -3.70875522e-02, 5.54612838e-02, 2.67913014e-01,
          2.36883014e-01, 2.01740623e-01, -2.93558389e-01,
          -2.24783532e-02, -1.42812788e-01, 6.58876821e-02,
          -1.84758380e-01, -1.35220066e-01, -1.21748254e-01,
          1.81507230e-01, -6.74845800e-02, -1.08717643e-01,
          -5.07167205e-02, 1.65055513e-01, 2.36142710e-01,
          1.31003186e-01, -1.99436285e-02, 1.06086731e-01,
          -1.79806352e-02, -1.65547013e-01, 2.36947648e-02,
          8.39684755e-02, -9.33008268e-02, -4.65927459e-02,
          -1.71702266e-01, -2.62097772e-02, -6.56877160e-02,
          -5.51448129e-02, -6.09428398e-02, -1.20487638e-01,
          3.26609880e-01, -7.20323101e-02, -4.02545989e-01,
          -3.70005704e-02, -2.01920912e-01, -3.28863084e-01,
          1.93420887e-01, -1.84228823e-01, 1.98730946e-01,
          1.58781558e-01, -1.42040150e-02, -1.11028656e-01,
          -4.42359522e-02, 1.05954513e-01, -1.04058906e-01,
          1.95772797e-01, -1.29207939e-01, 1.30068570e-01,
          -9.49085802e-02, -3.93302627e-02, -5.23299947e-02,
          4.31605615e-03, 7.72488415e-02, 1.08873725e-01, 6.62379786e-02,
          9.44837928e-02, -2.01683894e-01, -3.10123533e-01,
          6.05652994e-03, -1.11465037e-01, 1.03215992e-01,
          4.01093215e-02, 5.42225130e-03, 1.74530782e-02, 5.55375330e-02,
          -1.76317394e-01, 1.27871513e-01, -8.41641352e-02,
          5.33695072e-02, 1.04123473e-01, 1.52058631e-01, 1.24795228e-01,
          2.11948454e-01, 2.07408980e-01, -1.30913869e-01,
          1.03176668e-01, -9.66899842e-02, -9.52690765e-02,
          6.53977320e-02, -3.39879543e-02, 5.09059690e-02,
          1.60639867e-01, -4.97046858e-02, -3.68344150e-02,
          -5.50101586e-02, 5.21865599e-02, 7.59152249e-02,
          1.54092684e-01, 1.61951989e-01, 4.54836674e-02,
          -2.29638547e-01, -1.60803214e-01, -2.49738261e-01,
          5.98206073e-02, -2.50104498e-02, -3.21747847e-02,
          -1.02463067e-02, 7.81729445e-02, 4.37828362e-01,
          1.22780249e-01, 1.15495756e-01, 4.67312476e-03, 2.66788095e-01,
          -1.18201952e-02, -1.07734263e-01, -8.40065852e-02,
          3.92658472e-01, -1.21080346e-01, -5.88953048e-02,
          -9.51767713e-02, 1.31040394e-01, 9.11803022e-02,
          2.08240956e-01, -1.35748554e-02, -1.45590574e-01,
          5.74047156e-02, 2.32782036e-01, 1.85536519e-01, 3.39496940e-01,
          2.68592924e-01, 2.40623981e-01, 3.10338318e-01, 3.07269134e-02,
          3.11280370e-01, 1.12214677e-01, 2.24012554e-01, 3.38016659e-01,
          6.33070469e-02, 2.83155981e-02, 1.15380324e-01, 6.68749586e-02,
          -8.08243975e-02, 2.38474891e-01, 2.35811770e-01,
          1.90009102e-01, 3.33260834e-01, 3.28995258e-01,
          -3.88030931e-02, 1.86736435e-01, -1.41317129e-01,
          -1.16976179e-01, 2.52235919e-01, 1.58306301e-01,
          -4.29457016e-02, 6.17666030e-03, 2.23220989e-01,
          -1.70423374e-01, -1.80113013e-03, 2.48795718e-01,
          -2.06293762e-01, 4.04784620e-01, -1.17362745e-03,
          1.39688700e-01, 1.47996480e-02, 1.67709380e-01, 1.16016321e-01,
          1.78938061e-01, 1.63200162e-02, 5.23611717e-03, 3.11718971e-01,
          2.07352534e-01, 2.16290783e-02, 5.05089089e-02,
          -4.48554195e-02, 9.05325562e-02, 6.08135760e-02,
          -1.78595483e-01, -6.91415519e-02, 1.53979197e-01,
          9.10351500e-02, 3.94205861e-02, -6.91041797e-02,
          -1.44459352e-01, 1.88612387e-01, 4.84381281e-02,
          -8.86726528e-02, -3.97627652e-01, 2.10396007e-01,
          -4.63322327e-02, 2.54809391e-02, -1.70161352e-01,
          1.08222559e-01, 6.94266036e-02, -2.14338541e-01,
          -2.32197300e-01, -5.15697151e-02, 2.26389706e-01,
          -1.31803647e-01, -9.92900133e-02, 1.69151053e-01,
          -9.24335867e-02, 2.28693113e-02, 4.52520609e-01,
          1.43303499e-01, 2.68248588e-01, 1.68819934e-01,
          -8.87541473e-03, 1.40973218e-02, 1.73410382e-02,
          -1.76066682e-01, 2.20976889e-01, 1.95606261e-01,
          -6.08650409e-02, 2.81532228e-01, 1.83146074e-01,
          -9.08834264e-02, 1.07183307e-01, 2.05698714e-01,
          2.27946505e-01, 4.33832966e-02, 2.10813239e-01,
          -2.27711678e-01, 2.29233447e-02, 1.41585931e-01,
          -1.02133371e-01, 2.57976297e-02, 1.83441505e-01,
          -3.45996320e-01, -7.40447491e-02, -3.37962098e-02,
          2.00799122e-01, 1.77856728e-01, 1.87977076e-01,
          -2.33940840e-01, 2.10687220e-01, 7.31938556e-02,
          2.61018127e-01, 9.25125256e-02, -1.92098081e-01,
          1.13986216e-01, 4.58770879e-02, 3.38679142e-02,
          -8.43554363e-03, 3.75897527e-01, -2.54006028e-01,
          -1.53376773e-01, 1.41363949e-01, -2.41450563e-01,
          -1.10600822e-01, -1.61968604e-01, -1.27212554e-01,
          3.20280075e-01, 3.50057304e-01, -3.84650379e-02,
          2.16341197e-01, 2.71810949e-01, -1.06172986e-01,
          1.97146371e-01, 1.17214590e-01, 1.46241516e-01,
          -2.50877053e-01, 1.49153516e-01, -2.38906458e-01,
          8.25996920e-02, 1.58923134e-01, 1.57019392e-01, 3.33582163e-01,
          2.50883907e-01, -2.21927706e-02, -6.83305413e-02,
          2.77577311e-01, -2.53747582e-01, -1.28577277e-01,
          1.71872210e-02, 4.43659315e-04, 6.47800788e-02, 2.00383753e-01,
          -1.23870589e-01, 1.57928497e-01, 1.82728425e-01,
          -3.80769074e-01, -5.92662096e-02, 2.90097862e-01,
          -8.41114521e-02, 2.52720475e-01, 1.10544607e-01,
          -3.30829769e-01, 2.24241950e-02, -2.40985617e-01,
          -7.94578046e-02, 2.41824910e-01, -6.90904409e-02,
          5.42222299e-02, 7.56591186e-02, 8.42881277e-02, 1.04604498e-01,
          7.86706135e-02, 8.22915956e-02, -2.20872406e-02,
          3.22789215e-02, -9.02032927e-02, 2.07789545e-03,
          3.26974760e-03, 1.97930466e-02, -1.56872049e-01,
          -1.49935707e-01, 1.54358864e-01, -2.62297969e-03,
          -1.06097624e-01, -3.36028129e-01, -2.87418365e-02,
          1.39805138e-01, 2.33621988e-02, -2.59313047e-01,
          -2.04767063e-01, -3.01772729e-02, 1.10970505e-01,
          2.77615100e-01, -9.27470401e-02, -2.30960920e-03,
          -2.88811699e-02, 1.44750951e-02, 6.89747781e-02,
          -8.44345540e-02, 8.48883167e-02, 8.52129906e-02,
          -3.66600566e-02, -2.25710928e-01, 5.22179604e-02,
          6.28386885e-02, 7.95633793e-02, 3.58233213e-01,
          -3.05782501e-02, -9.32874624e-03, -1.06294215e-01,
          3.83021422e-02, 1.29351810e-01, 2.55813390e-01, 1.61755145e-01,
          9.18899477e-02, 2.64850184e-02, 7.57474825e-02, 8.70666876e-02,
          -6.05057739e-02, 3.30915861e-02, -5.84224053e-02,
          1.66094527e-02, 5.91234006e-02, -1.88726053e-01,
          -2.54123658e-01, -3.67266908e-02, -9.72047001e-02,
          1.91972449e-01, -2.93453056e-02, 1.32444054e-02,
          -8.10664296e-02, 2.80961722e-01, 6.36554882e-02,
          5.11912070e-03, 9.14428607e-02, 1.74631506e-01,
          -5.89369214e-04, 4.94722649e-02, -2.34972820e-01,
          -4.02261138e-01, -1.83827668e-01, -5.30376397e-02,
          1.53538108e-01, 1.32102624e-01, 7.64298365e-02,
          -1.01672195e-01, -3.53728868e-02, -1.91131502e-01,
          -1.50210381e-01, -1.03455879e-01, 8.70326012e-02,
          -1.02219544e-01, -2.39510797e-02, -3.36360112e-02,
          7.23546296e-02, 4.75565195e-02, -1.35557920e-01,
          2.15787381e-01, -7.38478154e-02, 7.85533041e-02,
          1.06875315e-01, -2.56353110e-01, 2.71121655e-02,
          -1.46668494e-01, 8.17514509e-02, 1.64293751e-01,
          -8.34433064e-02, -3.40657681e-01, -1.24489821e-01,
          1.19524240e-01, 1.74574982e-02, -6.90571889e-02,
          1.03339158e-01, 1.37970060e-01, 1.19263828e-01, 2.05278739e-01,
          -8.69098902e-02, -2.60772556e-01, -2.37019375e-01,
          6.44982755e-02, 1.91162512e-01, -1.60008237e-01,
          -1.95887893e-01, 3.35455723e-02, -8.85360409e-03,
          2.21381381e-01, -8.43575504e-03, 2.76115001e-03,
          -3.21988195e-01, -8.66645351e-02, -7.02944398e-02,
          -1.13541186e-01, -1.94244638e-01, 1.30092293e-01,
          -3.83487642e-02, 5.97088635e-02, 3.43735069e-01,
          2.30271399e-01, -1.85390010e-01, -1.14181936e-01,
          -1.69118300e-01, 1.07542194e-01, 1.49025708e-01,
          1.91868648e-01, -5.40404627e-03, -1.37133583e-01,
          -8.66279155e-02, 1.58725113e-01, -1.12815976e-01,
          1.39548570e-01, -6.31760210e-02, -5.26037365e-02,
          -1.32801443e-01, 1.40150920e-01, -1.45736057e-02,
          2.76191719e-02, -1.61232501e-01, 5.14829941e-02,
          2.16612428e-01, 3.09243530e-01, 6.93793446e-02, 1.87246323e-01,
          2.23049343e-01, 1.22770421e-01, 5.75526804e-02,
          -3.01969331e-02, 1.52464584e-01, 3.20062220e-01,
          1.46198019e-01, 1.19008675e-01, 7.13119134e-02, 2.10779443e-01,
          6.80147409e-02, 1.55048758e-01, -2.60285791e-02,
          -1.79467604e-01, 1.12141609e-01, -2.19876751e-01,
          2.52085596e-01, 1.08563518e-02, -6.29281327e-02,
          1.42159060e-01, -8.41066707e-04, 9.01704878e-02,
          1.40116503e-02, -1.13515489e-01, -8.77279043e-03,
          1.32166728e-01, 3.57910916e-02, -1.07390992e-02,
          -6.94923922e-02, 2.21538663e-01, 1.75201997e-01,
          1.50801927e-01, 2.79522061e-01, -1.37184873e-01,
          1.06000915e-01, -4.92864065e-02, -1.61375031e-01,
          4.49165963e-02, 6.20815530e-02, 1.85244545e-01, 3.77459526e-02,
          1.06588863e-01, 5.55031486e-02, 2.19098508e-01, 1.83066219e-01,
          -2.42186920e-03, 2.20222279e-01, 1.26532212e-01,
          4.38122116e-02, -2.85579771e-01, -9.37959626e-02,
          -6.58893511e-02, 9.46907178e-02, -4.12370414e-02,
          -1.56983137e-01, 2.55054325e-01, -1.14394456e-01,
          -1.32422587e-02, 1.29547477e-01, -1.69517279e-01,
          2.86870357e-02, -2.57566664e-02, -3.72483954e-02,
          -5.76315336e-02, 1.19304713e-02, 9.60473195e-02,
          -9.54116881e-02, -1.40753004e-03, 1.06885858e-01,
          4.86999229e-02, 1.30869314e-01, -1.52192742e-01,
          -1.62896588e-01, 1.25792757e-01, -2.34186217e-01,
          1.10751301e-01, -5.25304042e-02, -1.65705290e-02,
          -6.79127173e-03, 1.93333581e-01, -1.74106568e-01,
          7.37154335e-02, 1.95313022e-01, -2.31896028e-01,
          -8.98658931e-02, -1.31656483e-01, -3.31379682e-01,
          -4.00937349e-02, -4.65682475e-03, -1.74853399e-01,
          -1.02840722e-01, 2.00823486e-01, -2.18061253e-01,
          1.75888807e-01, -8.75546262e-02, 6.94264919e-02,
          3.06790233e-01, 1.74956366e-01, -2.60480165e-01,
          -1.47239730e-01, -2.60579754e-02, 2.60825574e-01,
          2.26161182e-01, 4.49109748e-02, -1.57746956e-01,
          2.40557387e-01, 9.56756026e-02, 1.90021694e-01,
          -1.24995643e-03, 7.11070327e-03, 2.14358106e-01,
          2.79493793e-03, 1.02810048e-01, 1.78556785e-01, 2.70945489e-01,
          -1.52378663e-01, -3.80728953e-02, -2.57923067e-01,
          -6.79890364e-02, -1.68807134e-02, -7.61410296e-02,
          -3.98204148e-01, -6.19436568e-03, 1.28802434e-01,
          1.47631792e-02, -6.15770556e-03, 2.73160696e-01,
          -9.75939110e-02, 1.10466197e-01, 2.63828039e-02,
          -1.09395735e-01, 1.88464954e-01, 1.27681255e-01,
          -2.09374189e-01, -5.19937789e-03, -1.07721083e-01,
          9.39264148e-02, 9.32713971e-02, -3.53680819e-01,
          -2.46061563e-01, 5.91742322e-02, -2.17346832e-01,
          1.34338841e-01, -8.19147825e-02, 1.88306078e-01,
          2.23439097e-01, 1.21227853e-01, -3.09752580e-02,
          -7.03465343e-02, 9.49496776e-02, 1.78906005e-02,
          8.42665061e-02, 6.01970926e-02, -1.23036653e-02,
          9.25201476e-02, -2.54681617e-01, -7.77825043e-02,
          4.78976518e-02, 1.97088361e-01, -1.50922343e-01,
          1.61501989e-01, 1.48620680e-01, -1.75207276e-02,
          -6.47056401e-02, -3.47426767e-03, 5.54190204e-02,
          -1.12836370e-02, -4.83101793e-02, -7.87558481e-02,
          7.53771216e-02, -1.19236790e-01, -1.60973705e-02,
          9.35252085e-02, -3.30248848e-02, -7.19236135e-02,
          8.09751451e-02, 9.78487432e-02, -1.54116333e-01,
          -1.13681689e-01, -1.76017433e-01, 1.17048092e-01,
          3.73641551e-01, 2.92421609e-01, 5.97314388e-02, 1.56388190e-02,
          -1.04400240e-01, 1.01239175e-01, 1.69765223e-02,
          -7.19271973e-02, -1.56669989e-01, 1.24068543e-01,
          -1.68282792e-01, -7.93719739e-02, -8.46120715e-03,
          -2.48991251e-01, -4.22095358e-02, -1.22374356e-01,
          2.83786535e-01, -1.48729876e-01, -8.16158727e-02,
          -6.04433082e-02, 8.39820653e-02, 3.77450675e-01,
          7.69859925e-02, 5.51813049e-04, -1.06577240e-01,
          -8.79062638e-02, -5.86670078e-02, -2.39309259e-02,
          -4.45976891e-02, -1.82462465e-02, 3.62046435e-02,
          -2.94058770e-02, 1.04428589e-01, -2.35214382e-01,
          7.76608959e-02, 1.84905484e-01, 1.28327936e-01, 1.77325346e-02,
          1.46546066e-01, 8.45096409e-02, 2.60111660e-01,
          -8.06951746e-02, 2.54585017e-02, -8.48361626e-02,
          -2.34436374e-02, 1.62742049e-01, -7.39629343e-02,
          -3.72588336e-02, -7.80045167e-02, 9.88736376e-02,
          2.42230043e-01, 6.96302503e-02, -1.94560885e-01,
          1.57725587e-01, 4.21348363e-02, -8.55301544e-02,
          9.56292972e-02, -5.22938520e-02, 1.44212872e-01,
          -3.22427489e-02, 2.65900075e-01, -3.37700658e-02,
          -2.57192552e-01, -2.29410395e-01, -4.34048437e-02,
          -2.75567532e-01, -1.69318601e-01, 5.65307029e-02,
          7.85191134e-02, 1.68890372e-01, 4.84614000e-02, 2.14172795e-01,
          4.06266116e-02, 1.28789380e-01, -9.35198087e-03,
          7.83449709e-02, 1.33668527e-01, 4.00271825e-02, 6.26567826e-02,
          -5.30674681e-02, -1.75103471e-01, -4.66314424e-03,
          2.71855116e-01, 9.86300036e-02, -3.04558687e-02,
          -8.73465538e-02, -2.15615127e-02, -6.94631860e-02,
          6.04483970e-02, 1.13610610e-01, 3.17512965e-03, 5.85531555e-02,
          6.18052483e-02, 7.73991495e-02, -3.34362104e-03,
          -2.11197227e-01, -1.91689897e-02, 2.96455678e-02,
          1.20137878e-01, 6.72161439e-03, 1.77456021e-01, 1.26245469e-01,
          -7.37549365e-02, 2.92987693e-02, 7.88997784e-02,
          1.17761269e-01, 7.68410787e-02, -1.62897427e-02,
          -6.31060228e-02, 4.23385352e-02, 1.92744117e-02,
          1.58198867e-02, 1.37856871e-01, 6.48262054e-02,
          -2.55528510e-01, -1.53936714e-01, 2.18654707e-01,
          -5.86021878e-02, -4.76987697e-02, -1.12984523e-01,
          -5.39404079e-02, -3.08804885e-02, 1.16754577e-01,
          -4.23980467e-02, 1.73794180e-01, 7.46557713e-02,
          2.17845976e-01, -1.64213449e-01, 3.30898672e-01,
          -4.90743387e-03, 1.74285367e-01, 1.51123656e-02,
          -9.40824747e-02, -2.76329339e-01, -5.87584153e-02,
          -1.39998376e-01, -1.10089928e-01, 2.65660230e-02,
          -2.47781917e-01, 1.21271633e-01, 1.76272228e-01,
          -2.80330837e-01, -2.74964720e-02, 5.87786175e-02,
          -9.60871205e-02, 3.02952021e-01, 4.30620573e-02,
          7.26257041e-02, -2.62249708e-02, 2.12500572e-01,
          -4.63350639e-02, 2.34974369e-01, -1.28508985e-01,
          -7.05399588e-02, -2.67033130e-01, 9.22486037e-02,
          -5.47431596e-02, 2.33082801e-01, -1.96025707e-02,
          1.30978182e-01, 1.49243325e-01, -1.39763460e-01,
          -3.71181145e-02, 7.49781728e-02, 2.42960110e-01,
          -1.20047763e-01, -2.81523675e-01, 1.60423905e-01,
          2.08664924e-01, 3.25126708e-01, 3.15699965e-01, 7.91714266e-02,
          2.17225641e-01, 9.06461179e-02, 2.96712648e-02, 1.46935984e-01,
          8.09439458e-03, 3.35522115e-01, 7.74004906e-02, 3.34958471e-02,
          2.16443464e-01, 1.31285489e-01, 1.80928499e-01,
          -1.41599044e-01, 9.96143594e-02, -6.52025044e-02,
          -1.38808668e-01, -1.36525840e-01, -1.94217995e-01,
          9.75976977e-03, 6.79947510e-02, -1.96165130e-01,
          -1.18229888e-01, -1.22330397e-01, -1.04031593e-01,
          -4.58116494e-02, -3.14854294e-01, -3.31714600e-01,
          1.31728306e-01, -8.95091742e-02, 1.44638326e-02,
          -3.57332945e-01, -2.71970987e-01, -1.61214665e-01,
          -5.28016388e-02, -2.36000456e-02, -3.95924598e-02,
          1.25627955e-02, 3.41310762e-02, -3.91715690e-02,
          -3.54545005e-02, 3.16051021e-02, -3.28970961e-02,
          1.04165427e-01, 1.11207485e-01, 4.24027443e-02, 6.73813820e-02,
          -1.74966548e-02, 1.94754004e-01, 5.50163351e-02,
          -2.15214714e-02, 2.31701702e-01, 9.05772373e-02,
          -1.06018514e-03, -3.57946634e-01, -8.41709506e-03,
          5.73022626e-02, 8.18189010e-02, -3.82976264e-01,
          -4.96797562e-02, -2.37433970e-01, 7.86688551e-02,
          8.16244259e-03, -1.31896600e-01, -1.25718743e-01,
          2.07286090e-01, 3.63900401e-02, -8.61006975e-02,
          4.26318832e-02, -1.12927087e-01, 3.79700884e-02,
          -1.67827234e-02, -3.15245315e-02, 1.35027438e-01,
          -3.98918092e-02, 2.80496199e-02, 9.43933576e-02,
          4.21977527e-02, -1.55206397e-01, 2.28397846e-02,
          1.93851098e-01, -5.21885939e-02, 8.86578336e-02,
          1.58713922e-01, 4.06048000e-02, 1.28848404e-01, 4.21767831e-01,
          -7.27431709e-03, 7.08837435e-02, -3.20339590e-01,
          4.28838804e-02, -4.56877090e-02, -2.16274355e-02,
          2.52039786e-02, -2.41765544e-01, -1.22044675e-01,
          -1.08851619e-01, 5.26887886e-02, -1.82599142e-01,
          1.11768074e-01, -5.08738101e-01, 2.39351410e-02,
          -1.08450744e-02, 1.52633265e-01, -3.09685528e-01,
          1.55629918e-01, -2.74486057e-02, 1.43742487e-02,
          -2.33134314e-01, 1.14887081e-01, 1.47445396e-01,
          -9.90413502e-02, -2.68086910e-01, -2.17728958e-01,
          -1.34911641e-01, 2.27109576e-03, 1.22670695e-01,
          3.95637453e-02, 1.93043113e-01, 7.01381788e-02, 3.72165412e-01,
          -9.69160814e-03, -1.70616973e-02, 6.02961294e-02,
          -2.43219584e-01, -1.99819054e-03, -3.06630194e-01,
          -3.12377781e-01, -1.50459021e-01, -2.07543090e-01,
          3.41705531e-02, 1.38665400e-02, -1.81512274e-02,
          -1.93306774e-01, -1.52673140e-01, 9.58289653e-02,
          1.75243549e-04, -7.57663250e-02, -1.69006839e-01,
          5.13025746e-02, 1.45148039e-01, 5.72867543e-02,
          -1.12417787e-01, 2.04633161e-01, -2.29251742e-01,
          5.31472154e-02, -2.55072534e-01, -2.45916266e-02,
          9.45129246e-02, 2.09294528e-01, -1.65292412e-01,
          2.74327453e-02, 1.78591520e-01, 1.94565326e-01, 1.29762948e-01,
          1.47351325e-01, -6.80801496e-02, -3.95865850e-02,
          6.60355687e-02, -8.18134809e-04, -1.64691776e-01,
          -3.93623263e-02, -2.04347566e-01, -2.38073707e-01,
          -3.91472667e-01, -2.50774711e-01, -1.70765802e-01,
          -1.49483055e-01, -1.75346583e-01, 1.99292094e-01,
          6.88012168e-02, -2.38002371e-02, 2.69643396e-01,
          -8.11482742e-02, 1.07635431e-01, -4.32537906e-02,
          1.02250939e-02, -3.47971395e-02, -4.57879081e-02,
          -2.66210169e-01, -4.27156463e-02, -2.48108014e-01,
          -7.30483681e-02, -2.45264247e-01, -2.15177789e-01,
          -2.26000309e-01, -2.50676006e-01, -1.48891807e-01,
          -1.97885092e-02, 9.07981545e-02, -2.00668558e-01,
          2.70081401e-01, 1.25465333e-01, 6.57054856e-02,
          -7.23922029e-02, -1.83035895e-01, 2.73642182e-01,
          -1.28483355e-01, -2.72089601e-01, -6.30908981e-02,
          2.22472772e-02, -1.70488328e-01, -3.26514095e-02,
          -3.17581408e-02, 4.27345280e-03, -1.89975515e-01,
          -2.53516138e-02, -2.16389194e-01, -2.86565959e-01,
          -2.53681630e-01, -2.15067461e-01, -3.90359759e-02,
          6.46220520e-02, -9.75216329e-02, 1.01694405e-01,
          -4.98908646e-02, 1.75282404e-01, -2.00365037e-02,
          1.62859544e-01, 1.47858337e-01, -2.66793706e-02,
          1.34046465e-01, 3.18400115e-02, -2.45292395e-01,
          1.56065851e-01, 9.15820003e-02, -5.15041798e-02,
          6.99723363e-02, -3.78217362e-02, -2.39291355e-01,
          9.82250944e-02, 3.17699625e-03, -1.49803102e-01,
          5.48127182e-02, 1.59062237e-01, -1.05291352e-01,
          1.13736950e-01, -1.86068475e-01, -1.09252244e-01,
          -1.30798087e-01, -2.54645832e-02, 6.06332272e-02,
          1.26957864e-01, 2.15439469e-01, -1.07374981e-01,
          -2.32478514e-01, -8.83408487e-02, 8.47399756e-02,
          -1.17540263e-01, -1.76418141e-01, -1.49321929e-01,
          7.20273778e-02, 1.04800418e-01, -9.00862142e-02,
          1.72312886e-01, -2.55563874e-02, 6.70303553e-02,
          -4.11175758e-01, -1.92261800e-01, 1.81324646e-01,
          -9.32067409e-02, -1.19574361e-01, -1.44802267e-02,
          -7.18196183e-02, 6.81955591e-02, 3.74515712e-01,
          -2.22845986e-01, -3.01363587e-01, 1.24785401e-01,
          1.42034024e-01, 1.77708358e-01, 1.32243618e-01,
          -3.54236156e-01, -5.65339578e-03, -1.41994998e-01,
          -2.06175283e-01, 3.72626893e-02, 4.72632311e-02,
          6.75455257e-02, -5.47784455e-02, 3.12634379e-01,
          -2.42101625e-02, -3.15894097e-01, -2.65700817e-01,
          -3.47721055e-02, 2.96943247e-01, -5.16382493e-02,
          6.56506494e-02, -1.97717920e-01, 2.04956055e-01,
          8.68167505e-02, -5.18983006e-02, -1.53699219e-02,
          -2.38602370e-01, -3.84549022e-01, -1.01595126e-01,
          3.35244417e-01, -4.53478210e-02, -1.92169383e-01,
          -6.95204362e-02, 6.48481399e-02, -9.30801108e-02,
          -5.74334292e-03, 1.30160972e-01, 1.35279030e-01,
          2.32933834e-01, 2.60691009e-02, 2.45776344e-02, 3.41606624e-02,
          -1.21189527e-01, -2.05845058e-01, 5.78452833e-02,
          8.47083107e-02, 8.57532397e-02, 3.77797484e-02, 3.90397936e-01,
          -8.73832479e-02, -9.77488756e-02, -2.21662015e-01,
          2.49158684e-02, 2.29414061e-01, -1.72492489e-01,
          2.92640328e-01, 2.36041218e-01, 3.76279582e-03, 2.57824138e-02,
          -9.26635577e-04, 1.33786678e-01, 6.96277842e-02,
          -3.16945352e-02, 5.94531670e-02, -8.30713063e-02,
          1.45161422e-02, 7.68149570e-02, 1.99101016e-01,
          -6.60017431e-02, 3.15020025e-01, -1.47662103e-01,
          -2.41164174e-02, 1.25969723e-01, -2.93816000e-01,
          -1.22010618e-01, 1.96183011e-01, -8.08694363e-02,
          -3.97891961e-02, -1.64618149e-01, -1.95657700e-01,
          -1.45122528e-01, -2.34050617e-01, 6.70141503e-02,
          -1.35386894e-02, 1.98883116e-01, -1.13672934e-01,
          -1.07268184e-01, -3.82483564e-02, -9.82296839e-02,
          -8.01584497e-02, 1.35932148e-01, -4.69853617e-02,
          -3.56468499e-01, 1.04822122e-01, -1.80830330e-01,
          3.13319303e-02, 1.56646043e-01, 1.54359683e-01,
          -3.23870853e-02, -9.45641994e-02, 1.40481070e-01,
          1.66827530e-01, 2.96927840e-01, 1.26968190e-01,
          -7.18945786e-02, -1.74215123e-01, 5.49098291e-02,
          -3.54791060e-02, -6.12162054e-02, -7.25931525e-02,
          -1.00217752e-01, -2.98348963e-01, 2.57051643e-02,
          -2.35117506e-02, -2.00447161e-02, 2.48771980e-01,
          1.71833590e-01, 1.16480410e-01, 1.71354543e-02, 6.14080392e-02,
          -3.13657522e-01, 1.35052234e-01, 1.39679655e-01,
          -8.67552236e-02, 4.02238369e-01, 2.19098568e-01,
          -1.26239002e-01, -4.01366889e-01, -1.63886055e-01,
          -1.80989936e-01, 4.74225432e-02, -3.42207123e-03,
          -1.19748361e-01, -9.69444290e-02, -5.19066826e-02,
          -9.86150056e-02, 3.62474658e-02, 8.62711221e-02,
          -1.46488696e-02, 1.59024194e-01, 9.97818038e-02,
          7.52733350e-02, 2.50961930e-01, 1.34148777e-01,
          -2.15297893e-01, 1.92332149e-01, 1.27426863e-01,
          -3.74080241e-01, 1.36363998e-01, 1.58621818e-01,
          -2.71701694e-01, -1.83451071e-01, -2.67738312e-01,
          5.82980365e-02, 2.29730859e-01, 3.11319027e-02,
          -3.04493040e-01, -3.45220454e-02, 1.18676111e-01,
          6.66160509e-02, 3.01388651e-03, -9.60555226e-02,
          1.89971641e-01, -6.74330816e-02, -5.69247939e-02,
          -3.77350807e-01, -1.59704953e-01, 5.30972853e-02,
          -9.96705238e-03, 3.39055270e-01, 2.01635957e-02,
          1.42762974e-01, -5.91148026e-02, -4.16384153e-02,
          -9.85817891e-03, 1.67362571e-01, 7.74725825e-02,
          -1.17838867e-01, -1.17817245e-01, -2.12733254e-01,
          3.94102961e-01, -1.68924034e-01, 3.31199579e-02,
          -3.01419437e-01, -1.07822210e-01, 1.22737431e-03,
          -3.92418634e-03, 2.08965912e-01, 5.06827496e-02,
          4.54985425e-02, -2.40081951e-01, -1.20101899e-01,
          -1.02180198e-01, -9.05832499e-02, -1.10829607e-01,
          5.19246347e-02, -4.95015047e-02, -2.15206996e-01,
          8.29567984e-02, -4.62371446e-02, -1.27154484e-01,
          -1.73748553e-01, 2.73141060e-02, 1.07343700e-02,
          -1.39663760e-02, -1.19327992e-01, 5.13950624e-02,
          1.07691316e-02, 1.02657199e-01, -2.02049036e-02,
          -6.96020499e-02, 1.10243015e-01, 1.85905039e-01,
          2.84594540e-02, -1.77162156e-01, 1.27697006e-01,
          -4.90156896e-02, -1.16874412e-01, -2.07166687e-01,
          -7.38684461e-03, -8.63324553e-02, -6.41179085e-02,
          -3.42355333e-02, -8.86186659e-02, 1.43292397e-01,
          -1.36875780e-02, -1.28716633e-01, -7.99344853e-02,
          5.12121469e-02, -2.56460130e-01, -1.29720151e-01,
          -5.13520185e-03, -2.04025477e-01, -4.75367680e-02,
          -8.03684071e-02, 2.53993012e-02, -1.56853780e-01,
          6.23518452e-02, -1.49807677e-01, -8.15827101e-02,
          1.19486138e-01, 1.36232683e-02, 2.99265802e-01, 8.25870410e-02,
          -3.07695836e-01, -4.86087203e-02, -1.56111524e-01,
          -1.60981953e-01, 1.06009059e-01, 2.18352318e-01,
          1.43295482e-01, 4.64327745e-02, -1.90559611e-01,
          1.05527848e-01, -1.15751602e-01, -1.02659054e-01,
          -1.10906713e-01, -6.64124042e-02, -9.38113499e-03,
          5.04335668e-03, -4.47462946e-02, 1.10237159e-01,
          1.16254851e-01, -1.26009826e-02, -3.51295583e-02,
          -1.87112559e-02, -5.69293536e-02, -1.60024837e-02,
          -1.20300926e-01, 1.71530843e-01, -3.92505787e-02,
          1.52479544e-01, -9.76804993e-04, -4.06401418e-02,
          2.27613419e-01, -3.00707817e-01, -1.15601152e-01,
          1.94689512e-01, -7.73410127e-02, 8.30567554e-02,
          -1.61329374e-01, -9.35347080e-02, 1.51612759e-01,
          4.08646017e-02, 1.53583782e-02, 3.00792791e-02, 3.34209353e-01,
          -3.36625949e-02, -2.05532927e-02, 8.38462189e-02,
          -3.28982584e-02, -1.26311630e-01, -7.11188540e-02,
          6.30383790e-02, -1.85676336e-01, -3.94528896e-01,
          2.12250859e-01, -8.66348296e-02, 4.94176000e-01,
          -1.25840148e-02, -2.63412837e-02, -8.23900104e-03,
          -2.40049645e-01, -3.01178664e-01, -1.07003272e-01,
          1.65740713e-01, 2.34696284e-01, -1.16542086e-01,
          -8.43719840e-02, 4.83151115e-02, -3.61129493e-02,
          -3.38444225e-02, 4.64770347e-02, -1.30068019e-01,
          8.86013508e-02, -5.97242564e-02, -1.99469011e-02,
          -3.37838717e-02, 7.64316320e-02, 9.22347084e-02,
          -4.24296372e-02, 1.18120760e-02, -5.62512083e-03,
          7.19431788e-03, -1.38077527e-01, 1.39767960e-01,
          -3.26183811e-02, -1.11030750e-01, 4.38254401e-02,
          2.69380838e-01, -3.01260293e-01, -2.49387801e-01,
          -3.18826258e-01, -2.48500600e-01, -1.37898996e-01,
          1.54506624e-01, -1.09899953e-01, -3.74676019e-01,
          -6.69190940e-03, -6.31149933e-02, -5.39100803e-02,
          -1.00725390e-01, 3.35514024e-02, -9.46502909e-02,
          -1.06063329e-01, 3.68962908e-04, 2.22457960e-01,
          -2.17198715e-01, 7.19604939e-02, 1.21673249e-01,
          -2.34119326e-01, -1.16814718e-01, -2.11767361e-01,
          -2.32827151e-03, -1.45870149e-01, 2.81943053e-01,
          -1.49345025e-01, 1.90795407e-01, 3.79316621e-02,
          -8.84852335e-02, 9.99714881e-02, 1.55591205e-01,
          -9.72634461e-03, -9.94871259e-02, 9.84271690e-02,
          1.93356469e-01, 2.30560377e-01, -9.38673317e-02,
          -1.95972234e-01, 1.68790191e-01, 1.66245788e-01,
          1.64157227e-01, -2.25465328e-01, -1.50093939e-02,
          1.40647024e-01, -1.44863158e-01, -1.33051321e-01,
          -5.73027767e-02, 2.18128059e-02, 4.46238458e-01,
          5.95192984e-02, -1.06960930e-01, 2.13005468e-01,
          1.43766284e-01, 2.59731382e-01, -1.43073887e-01,
          -9.86318067e-02, -3.90795283e-02, -4.47682403e-02,
          -1.22410744e-01, 3.92503925e-02, -3.08274720e-02,
          5.35077378e-02, -2.01156452e-01, -1.88597038e-01,
          2.20198762e-02, -5.65967038e-02, 1.26093313e-01,
          1.34785101e-01, -1.17855981e-01, 1.80592742e-02,
          -8.20931271e-02, 7.07022622e-02, 1.31378248e-01,
          -2.83430934e-01, -1.19627334e-01, 1.83439821e-01,
          -4.17207228e-03, 5.18902950e-02, 1.79556370e-01,
          -3.49421166e-02, -8.29512849e-02, -9.81515553e-03,
          -1.07102670e-01, -2.75541861e-02, 4.24292907e-02,
          1.81919038e-02, 2.11593490e-02, -1.85037330e-01,
          1.05984919e-02, 2.78351977e-02, -1.01147830e-01,
          1.30449906e-01, -5.81005216e-02, -2.03653593e-02,
          1.70962978e-03, -6.94916695e-02, -1.17747389e-01,
          3.48269232e-02, -5.85006326e-02, 1.35621041e-01,
          1.39166459e-01, -1.50018692e-01, -1.91359669e-01,
          -2.44458780e-01, -1.39063254e-01, -1.88134387e-02,
          1.69250190e-01, -4.83804047e-02, -1.16608597e-01,
          -9.68421549e-02, -1.63689211e-01, -1.08814545e-01,
          1.05699487e-01, -9.30908024e-02, -2.25705616e-02,
          -9.02972221e-02, -8.56061876e-02, 1.91542342e-01,
          1.02511063e-01, -9.98422056e-02, 1.79516096e-02,
          1.66428849e-01, -1.03597358e-01, -1.64301679e-01,
          1.29720261e-02, 1.13072850e-01, 1.48608938e-01,
          -9.95649844e-02, 1.12046398e-01, 7.26924539e-02,
          4.73677628e-02, 3.07010692e-02, -6.15545437e-02,
          2.27784976e-01, -2.59139091e-02, 1.21845573e-01,
          2.86134779e-01, -8.92361850e-02, -7.18507869e-03,
          -1.33293480e-01, 9.44578126e-02, -1.53947286e-02,
          -2.46500343e-01, 8.37952085e-03, 9.00525525e-02,
          -9.63864625e-02, 1.24907605e-01, -2.32008502e-01,
          -8.26976672e-02, -4.22704250e-01, -8.81709903e-02,
          -7.43882954e-02, -4.78528254e-02, -1.74527973e-01,
          1.24117371e-03, -1.33922651e-01, -1.32004112e-01,
          -1.13484032e-01, 1.67717375e-02, -1.17517874e-01,
          -1.07007712e-01, -1.46291211e-01, 4.06414531e-02,
          4.09208052e-02, -9.33664814e-02, -7.10580721e-02,
          4.63298261e-02, 1.46368101e-01, 1.81862190e-02, 4.68838587e-02,
          9.82735492e-03, 9.67390388e-02, 9.13073272e-02, 1.99288011e-01,
          -1.10782143e-02, -5.81362732e-02, -9.91583019e-02,
          -1.87427655e-01, 9.25794914e-02, 9.72004607e-02,
          1.98162302e-01, 2.57389396e-01, -1.14081196e-01,
          1.86642557e-01, 1.33040687e-02, -1.26997083e-01,
          3.17099951e-02, -5.93799949e-02, -1.76943243e-01,
          1.18698023e-01, 9.57892761e-02, -1.63149163e-01,
          -8.84001032e-02, -8.22022185e-02, -1.29852235e-01,
          -1.90777913e-01, 2.43614353e-02, -5.22423424e-02,
          2.49016106e-01, 8.75656679e-02, 4.34152409e-02, 6.02116548e-02,
          1.28583580e-01, 1.97940797e-01, -1.91015024e-02,
          2.22508371e-01, -1.38826996e-01, 2.80246109e-01,
          -1.00518696e-01, -1.23517647e-01, -1.69215307e-01,
          -1.38432667e-01, -8.75450075e-02, -4.12354439e-01,
          -2.73099691e-01, 8.12949240e-03, 5.02861012e-03,
          -4.14256155e-02, -7.76972249e-02, 3.79324779e-02,
          -1.94913909e-01, -2.56654173e-01, 4.97540310e-02,
          -9.26714092e-02, 8.12157318e-02, -1.18188120e-01,
          1.17898628e-01, -2.24592760e-01, -2.44753718e-01,
          -3.29956651e-01, 1.01895273e-01, 1.79179409e-03,
          2.53463909e-02, -2.37093583e-01, -3.57175581e-02,
          2.01841034e-02, 9.55368131e-02, -2.61665434e-02,
          -2.28647083e-01, 6.17116354e-02, -9.33169201e-02,
          -2.85908710e-02, -1.43559679e-01, -1.30239367e-01,
          1.90979373e-02, 3.34615596e-02, 1.66248381e-01, 8.90677050e-02,
          -1.14014991e-01, 2.52459168e-01, 2.14868903e-01,
          -1.74935222e-01, -9.18602105e-03, -8.34310576e-02,
          2.20003799e-01, 7.90950879e-02, -5.33708185e-02,
          4.28641140e-02, -9.30363759e-02, -9.11916345e-02,
          -2.58911610e-01, -5.11119254e-02, -1.39880985e-01,
          -1.39462635e-01, -9.28497687e-02, -1.93200812e-01,
          9.28994343e-02, 1.34445608e-01, -1.76714167e-01,
          -2.22524360e-01, -2.16858294e-02, -1.11360520e-01,
          -1.39528587e-02, 2.23227859e-01, 1.78107724e-01,
          -2.57307738e-02, -2.02593222e-01, 1.01396322e-01,
          1.42946644e-02, -4.13040519e-02, 7.16694072e-02,
          -1.29729047e-01, -1.02977559e-01, -4.46628220e-02,
          -1.43260909e-02, -1.37317255e-01, -2.00737894e-01,
          1.62338689e-01, -7.53949806e-02, 1.02737360e-02,
          -9.85025764e-02, -2.23054782e-01, 1.40104666e-01,
          4.55296162e-04, 7.21546337e-02, -2.02537358e-01,
          1.58820957e-01, 1.04567371e-01, -1.98540837e-01,
          2.53444794e-03, -1.48529053e-01, 1.43389434e-01,
          -7.30611710e-03, -1.57774299e-01, 2.71575190e-02,
          1.96559764e-02, -5.62835522e-02, 1.30654484e-01,
          -1.93824381e-01, 3.65654081e-02, -4.87275533e-02,
          -2.61076272e-01, -1.83730170e-01, 4.78269486e-03,
          -3.80483940e-02, 3.53830010e-02, -3.44524145e-01,
          1.61546677e-01, 6.15534857e-02, -1.75081659e-02,
          1.26186073e-01, 1.66660577e-01, -1.27394348e-01,
          -2.79919952e-02, 3.03493347e-02, -2.96906590e-01,
          2.91378975e-01, -5.22672124e-02, -2.50756949e-01,
          -6.93252385e-02, -6.02845429e-03, -2.84213964e-02,
          -2.66833305e-01, -2.86597073e-01, -8.38696733e-02,
          1.37548983e-01, 1.12643681e-01, -1.10430464e-01,
          -9.95597914e-02, -2.78959990e-01, 1.54835075e-01,
          -1.77194104e-02, 1.92557737e-01, -2.89116055e-01,
          9.06911120e-02, 1.03305519e-01, 2.20676407e-01, 1.24692380e-01,
          -2.24242732e-01, 2.81397820e-01, -2.54928023e-01,
          4.83918905e-01, -1.62308410e-01, -2.64891952e-01,
          2.01742217e-01, -5.62527589e-03, -7.41531923e-02,
          -1.64081696e-02, 5.40694781e-02, -2.53125727e-02,
          -1.62464492e-02, -1.30846992e-01, -2.68632680e-01,
          6.64060339e-02, -2.33176902e-01, -2.02995930e-02,
          -1.26385093e-01, 1.83919091e-02, -3.11706483e-01,
          -2.84829885e-01, -1.12594023e-01, -2.07873046e-01,
          1.16962478e-01, 1.54320329e-01, 1.13729194e-01,
          -3.63066912e-01, 2.19496265e-01, -5.58100492e-02,
          3.80796909e-01, -1.19483106e-01, -2.74318010e-01,
          2.41661854e-02, -1.33152530e-02, 1.44387055e-02,
          -1.85656279e-01, 2.37840980e-01, 1.03726601e-02,
          1.34022400e-01, -9.21752006e-02, -5.75471595e-02,
          1.36692375e-01, -2.37321645e-01, 7.94591904e-02,
          -1.14014782e-01, 7.02260733e-02, 4.69001150e-03,
          -1.49136573e-01, -3.79180834e-02, -2.32016534e-01,
          3.47370505e-02, -1.00003155e-02, 3.85561734e-02,
          -1.25939369e-01, -1.59372106e-01, -3.79221261e-01,
          1.09856799e-01, -1.00180186e-01, -2.95202792e-01,
          -2.72875223e-02, -3.88881266e-02, -1.02663256e-01,
          -2.76781052e-01, 1.70018345e-01, 2.41245955e-01,
          -4.90154624e-02, 1.74107961e-02, -3.47161263e-01,
          8.79351720e-02, -9.48279575e-02, -2.20940471e-01,
          -2.22166747e-01, 1.36589214e-01, -3.71521473e-01,
          8.03146064e-02, -2.20981926e-01, -2.43837252e-01,
          -1.42415330e-01, 4.86352108e-02, -1.40545204e-01,
          5.35157397e-02, -1.48087263e-01, -3.98350833e-03,
          -1.23210840e-01, -2.38232121e-01, -2.89520770e-01,
          -8.12331513e-02, 1.61533162e-01, -1.63805529e-01,
          1.03517868e-01, 1.14411237e-02, -3.60683724e-02,
          -5.98909184e-02, 2.72059571e-02, -4.73199785e-02,
          -2.40624070e-01, 2.12854613e-02, -3.50810170e-01,
          2.24049352e-02, -1.98354304e-01, -4.39155817e-01,
          -6.67320490e-02, -2.38671586e-01, -2.80437946e-01,
          -8.72000158e-02, 1.47578210e-01, 2.23029077e-01,
          8.59500617e-02, 1.65765822e-01, -3.09319105e-02,
          -6.75839512e-03, -1.93150312e-01, 1.95574947e-03,
          1.90716200e-02, -1.28584862e-01, -1.59774259e-01,
          -2.71195695e-02, -1.00350596e-01, -4.74420078e-02,
          6.40665367e-02, 1.52456909e-01, -8.40633735e-02,
          -2.72220671e-01, -2.62339711e-01, 4.85722274e-02,
          1.04897253e-01, 5.12497053e-02, -1.23860516e-01,
          -6.01799712e-02, -9.11101177e-02, 9.21876170e-03,
          -1.98838618e-02, -2.16507107e-01, -3.76364708e-01,
          -2.05856472e-01, -2.37251684e-01, 2.54022591e-02,
          1.28371611e-01, -1.44123659e-02, -8.43282510e-03,
          -7.90494904e-02, 3.02075803e-01, 3.67385417e-01,
          -3.98120463e-01, 1.00722592e-02, 7.06321895e-02,
          2.18694061e-01, 1.37261860e-02, 5.64678833e-02,
          -1.71673134e-01, -1.05338149e-01, -2.80360058e-02,
          3.25026177e-02, 1.42671973e-01, -1.36861622e-01,
          -1.23854183e-01, -2.43568972e-01, 1.30598381e-01,
          1.55214086e-01, -1.79018199e-01, -2.16847941e-01,
          -5.08202240e-02, -2.23202839e-01, -3.26917320e-02,
          8.01066458e-02, -1.26180142e-01, -3.40613425e-02,
          -1.17326707e-01, 1.59222588e-01, 1.85854271e-01,
          -1.90323472e-01, -1.16558604e-01, -4.13225405e-02,
          1.88093692e-01, 3.68373394e-02, -1.16406311e-03,
          -2.85530537e-02, -2.09582731e-01, 7.44773820e-02,
          2.57834494e-02, 1.37933448e-01, -1.29272878e-01,
          -9.82713774e-02, -6.03405610e-02, -5.20517454e-02,
          -5.95465414e-02, -1.30286053e-01, -7.12822080e-02,
          -1.79130450e-01, -3.57989043e-01, -1.20722026e-01,
          1.89875126e-01, 8.33536834e-02, -1.69303641e-01,
          -1.70845032e-01, -1.41801536e-01, 1.61144584e-01,
          -2.08066627e-01, -3.73401135e-01, -1.99948326e-01,
          -4.61390801e-02, 1.44384131e-01, -2.96618819e-01,
          -9.07591060e-02, -1.25386551e-01, 1.88966431e-02,
          -2.13882178e-01, 1.86823189e-01, 4.83939983e-02,
          -5.72244637e-02, -1.46670729e-01, -2.34268997e-02,
          1.31986111e-01, -2.34838072e-02, -1.13984663e-02,
          -1.40420109e-01, 3.17517892e-02, 1.53194398e-01,
          8.92058834e-02, 2.00507954e-01, -9.49767083e-02 ]
      - [ -1.09458163e-01, -1.73898917e-02, -3.13104391e-02,
          4.03029509e-02, -3.84891294e-02, -6.30192012e-02,
          -6.15796894e-02, -5.68463989e-02, -5.12836464e-02,
          -6.75647929e-02, -2.62879170e-02, -1.45611033e-01,
          -7.01365173e-02, 1.90615639e-01, 5.48533387e-02,
          -1.11825010e-02, -8.60568061e-02, 2.59837955e-02,
          -7.82097727e-02, -4.64216247e-02, -8.18566233e-02,
          -4.39244956e-02, -8.88448879e-02, -2.54538115e-02,
          -7.00671449e-02, -1.02862872e-01, -1.20038070e-01,
          -9.24872980e-02, 2.94499919e-02, -6.66990355e-02,
          -1.31348297e-02, 1.23654597e-01, 1.70086976e-02,
          -1.11299409e-02, -3.64734307e-02, -6.09421954e-02,
          3.36144902e-02, -7.66224265e-02, -8.88269916e-02,
          -6.57113688e-03, -7.36078247e-02, 6.54009953e-02,
          -5.70630189e-03, -1.66374724e-02, 9.30177644e-02,
          3.51225585e-02, -1.06948018e-01, 2.33605225e-02,
          8.66267830e-02, 1.37777388e-01, 4.25368808e-02, 5.21926954e-02,
          -1.43128273e-03, -4.70711961e-02, 1.04407184e-01,
          1.01552084e-02, -7.69044608e-02, -4.17649262e-02,
          -1.60997257e-01, 3.39549407e-02, 1.93408411e-02,
          5.50129004e-02, 7.75755644e-02, -5.67348152e-02,
          -7.82316625e-02, -1.13503017e-01, 1.54001772e-01,
          -1.53757632e-02, -1.26657467e-02, 8.57660605e-04,
          -2.47098189e-02, -1.68882430e-01, 1.53548243e-02,
          -7.56919906e-02, 8.22743308e-03, 1.70937553e-02,
          3.27970684e-02, 1.08483452e-02, 3.57809737e-02,
          -3.25412559e-03, -5.68838045e-02, -4.89852093e-02,
          -4.97764051e-02, -1.44563084e-02, -5.40128089e-02,
          -3.73813533e-03, -3.35439742e-02, 1.21966815e-02,
          -2.21310016e-02, 2.30537839e-02, 7.05839172e-02,
          -2.62491237e-02, 3.21349688e-02, 2.93939933e-02,
          -5.28698415e-03, -5.87440804e-02, -5.74064907e-04,
          1.48100061e-02, 1.73769891e-02, 5.39895445e-02, 8.32428709e-02,
          6.66666776e-02, -1.03119448e-01, -6.38139471e-02,
          8.25773226e-04, -4.56016809e-02, 1.39850210e-02,
          1.96039584e-02, -1.62870839e-01, 1.94389485e-02,
          1.80211309e-02, -3.58735994e-02, -3.29797482e-03,
          -2.65070349e-02, 1.93631668e-02, 4.23324183e-02,
          -1.22041283e-02, -1.20611057e-01, -1.53773231e-02,
          2.44978699e-03, -9.14098024e-02, -2.79074386e-02,
          5.43605210e-03, -3.83009054e-02, 2.94031110e-02,
          5.71157364e-03, -7.55867213e-02, 3.28800716e-02,
          1.00619765e-02, -6.67034760e-02, -6.32183030e-02,
          2.85090469e-02, -9.01492685e-03, 5.05697653e-02,
          -1.78007763e-02, -1.01242522e-02, 9.97450319e-04,
          -3.52508388e-02, 2.62391698e-02, -4.05852273e-02,
          2.12968085e-02, -1.34331360e-02, -2.13644672e-02,
          1.53923262e-04, -9.83264372e-02, -1.98742822e-02,
          4.28714231e-02, -4.98459935e-02, -2.08902322e-02,
          -4.23502512e-02, -7.48095885e-02, -1.03496108e-02,
          -8.46326724e-02, -1.10986561e-01, -8.79968926e-02,
          1.48236323e-02, 6.27658591e-02, 9.13639441e-02, 6.15625232e-02,
          4.61280579e-03, -3.65683762e-03, -1.63572922e-01,
          8.48681256e-02, -6.16984500e-04, -4.58621792e-02,
          6.15510605e-02, 2.06741467e-02, -7.20791891e-02,
          -5.00665121e-02, -6.64316490e-02, 1.32899469e-04,
          -6.14395291e-02, -3.06056961e-02, -2.40727849e-02,
          -2.05226075e-02, -3.64021882e-02, -3.70140956e-03,
          -1.47094913e-02, -1.11894406e-01, -7.44389817e-02,
          -8.60744864e-02, -1.03008613e-01, -6.94108233e-02,
          -1.51217990e-02, 1.88484788e-02, -7.60789076e-03,
          4.26707193e-02, 3.09970547e-02, -6.52625486e-02,
          -2.27355026e-02, -1.07166030e-01, -2.21219271e-01,
          -7.48254545e-03, 6.00682534e-02, -1.00886054e-01,
          -3.50171402e-02, 2.46819574e-02, 1.17240641e-02,
          -7.99348578e-02, -5.68621270e-02, -7.59062171e-02,
          -8.00861940e-02, 1.25485687e-02, 2.67372448e-02,
          -6.23932518e-02, -3.90640534e-02, 2.25706697e-02,
          5.88811748e-02, -1.02943420e-01, -6.53733220e-03,
          -1.04644760e-01, 1.07633337e-01, -3.26110683e-02,
          -9.03353170e-02, -2.23928709e-02, 6.79089800e-02,
          -4.21018675e-02, -3.72668728e-02, -3.14946026e-02,
          -5.66422865e-02, -4.71654274e-02, -8.54041353e-02,
          -3.17903720e-02, -4.04472724e-02, -4.81463298e-02,
          -6.00773692e-02, -2.22470630e-02, 1.09837569e-01,
          -3.03237364e-02, -7.99595863e-02, -5.64871952e-02,
          3.38812731e-02, -1.45838317e-02, -1.10472433e-01,
          -8.04590248e-03, -1.41020799e-02, 9.57249701e-02,
          -9.03964937e-02, 2.40069367e-02, -6.32802546e-02,
          -7.52235800e-02, -6.42089173e-02, -4.87564728e-02,
          8.48873705e-03, -1.98239051e-02, 3.71086597e-02,
          -2.01121643e-02, -5.22883469e-03, -8.68309289e-02,
          -6.13757297e-02, -9.13873911e-02, -7.77885271e-03,
          2.21319757e-02, 6.97724596e-02, 6.92118034e-02,
          -9.08762123e-03, 5.43966144e-02, -3.01469471e-02,
          3.11635192e-02, -2.84216180e-02, -1.00093022e-01,
          -6.16114996e-02, 2.60041491e-03, -6.77567199e-02,
          -1.50107712e-01, -7.11153224e-02, -8.05636048e-02,
          -3.27807255e-02, -6.47921860e-02, -6.63225427e-02,
          4.36736941e-02, 2.69978009e-02, -2.51307692e-02,
          -9.51578561e-03, 1.32892042e-01, -3.99873629e-02,
          -4.97544035e-02, -1.43630989e-02, 4.86014336e-02,
          -1.23622585e-02, 4.77831066e-02, -2.99962796e-02,
          -1.21775620e-01, -1.32334195e-02, -7.68121630e-02,
          -8.86988491e-02, -9.36736166e-02, -6.31096587e-02,
          -8.93869698e-02, -3.23582552e-02, -2.60613691e-02,
          -9.34756845e-02, -5.75852282e-02, -4.91463430e-02,
          -3.79171036e-02, 9.56712198e-03, 4.43283990e-02,
          -7.39966035e-02, 1.09907985e-02, 9.67244729e-02,
          -7.55790845e-02, -1.72240585e-02, -7.68803898e-03,
          -8.61161798e-02, 4.04605456e-03, -5.64563014e-02,
          -4.26632613e-02, -1.91147104e-02, -1.42488433e-02,
          -4.63047512e-02, 3.39449719e-02, -4.81324755e-02,
          -4.25551608e-02, 9.01519880e-03, 1.84674766e-02,
          -2.10327432e-02, -2.36868802e-02, -3.72146294e-02,
          -6.29679561e-02, -4.68341559e-02, -7.79866055e-02,
          -9.36992466e-02, -3.07213478e-02, -1.51192546e-01,
          1.38183180e-02, 2.53432039e-02, -5.43256029e-02,
          -1.20011024e-01, -5.26362024e-02, -3.25047635e-02,
          -3.82448696e-02, -5.86303584e-02, -1.93488840e-02,
          -3.56630571e-02, 7.42499232e-02, 4.47175689e-02,
          2.60793734e-02, 6.16187379e-02, 1.10805659e-02,
          -6.75640777e-02, -2.87681352e-02, -1.07851541e-02,
          2.90779360e-02, 6.80463612e-02, -5.08163050e-02,
          -6.04040734e-02, 1.13795903e-02, 2.12397277e-02,
          -9.68957262e-04, -9.55149159e-02, -1.03461608e-01,
          7.04731420e-02, 8.20064219e-04, -2.35751793e-02,
          -1.34882480e-01, 3.73415090e-02, 8.87125954e-02,
          -9.72062349e-03, -8.27645063e-02, -7.45213255e-02,
          3.56264040e-02, 7.04426914e-02, -3.30452882e-02,
          2.97960658e-02, -5.37055209e-02, -2.75964529e-04,
          1.41533613e-02, -1.90930665e-02, -1.16106402e-02,
          -2.48028059e-02, -3.39813754e-02, -4.87723276e-02,
          9.75467712e-02, 1.25591913e-02, -6.33612573e-02,
          4.79061790e-02, -5.16149495e-03, 2.29143095e-03,
          -2.36907676e-02, -4.51694541e-02, 4.12370684e-03,
          -2.28470527e-02, -2.01932490e-02, -1.88288223e-02,
          -7.02437162e-02, -1.48521125e-01, -1.11668050e-01,
          7.74490228e-03, -7.12140501e-02, -1.31956026e-01,
          -1.97006110e-02, -5.83822057e-02, 1.05638377e-01,
          2.49972437e-02, -1.74450688e-02, 6.76933378e-02,
          2.26756930e-02, -5.18207476e-02, 3.02523151e-02,
          9.51940753e-03, -6.48182556e-02, -7.91791305e-02,
          -1.17845694e-02, -3.13957632e-02, 5.99628687e-02,
          -5.21849506e-02, -2.85535716e-02, 4.25984450e-02,
          -1.46282211e-01, -4.92234640e-02, 2.24267654e-02,
          -9.21589434e-02, 7.51528423e-03, 2.83529107e-02,
          -3.23049165e-02, -4.31254283e-02, -2.29297280e-02,
          4.90077995e-02, -9.12296250e-02, -5.20081492e-04,
          -3.80709395e-02, -6.22178800e-02, 1.69583671e-02,
          -4.40427512e-02, -1.19088836e-01, -6.40805066e-02,
          -8.45094472e-02, 3.39272469e-02, 4.69544157e-02,
          -1.22946844e-01, -6.23650365e-02, -3.66304070e-02,
          -6.36899173e-02, -7.26674199e-02, 4.37614396e-02,
          -8.52657184e-02, -4.48791422e-02, -1.46799604e-03,
          -4.97599393e-02, 5.67082167e-02, 6.99348673e-02,
          -7.39452988e-02, 2.38023903e-02, 3.36763896e-02,
          -1.18140373e-02, -1.60061959e-02, -6.61440417e-02,
          1.60225406e-02, -2.36707199e-02, -5.62589103e-03,
          -4.63259891e-02, -9.35774818e-02, -1.75437182e-02,
          -5.03173359e-02, 8.28053709e-03, 2.52331067e-02,
          -8.75207037e-02, 1.09641226e-02, -5.56977540e-02,
          -3.14066745e-02, 6.33009747e-02, 9.74022672e-02,
          2.92270966e-02, 2.70221289e-02, 7.89579377e-03, 4.25135829e-02,
          6.29652217e-02, -2.24309918e-02, -2.22487026e-03,
          3.36748138e-02, -6.40947595e-02, -3.46679054e-02,
          8.03592578e-02, -2.31597908e-02, 2.01944243e-02,
          -5.32897450e-02, -4.83710207e-02, -6.93319961e-02,
          1.93421952e-02, -6.42023757e-02, -3.39059234e-02,
          -2.17569973e-02, 3.54552679e-02, 8.59915540e-02,
          -4.28285711e-02, -9.24068987e-02, -5.06176874e-02,
          -5.21902647e-03, 5.38877025e-02, -2.72325091e-02,
          2.24774871e-02, 2.84758303e-03, 4.78970185e-02, 2.13466827e-02,
          3.18447575e-02, 1.25572532e-01, -3.97026576e-02,
          2.97344998e-02, 4.02320065e-02, -7.85258412e-02,
          -2.28242036e-02, 8.09648912e-03, 1.98721755e-02,
          -4.60182223e-03, 2.10459474e-02, -3.97956446e-02,
          -9.19640437e-02, -4.92169112e-02, -3.95379635e-03,
          3.47250840e-03, -4.95770806e-03, 1.00968387e-02,
          -5.17850071e-02, 5.09110205e-02, -1.18499517e-01,
          -4.79197614e-02, -8.04612637e-02, -5.01670428e-02,
          -5.43361530e-02, -2.09424645e-02, -3.69722806e-02,
          -5.71729206e-02, 3.88585813e-02, 3.39434762e-03,
          -1.66487265e-02, 3.20079364e-02, -1.46021834e-02,
          1.06196366e-02, 3.55353281e-02, 3.60191427e-02,
          -6.54642135e-02, -4.87263016e-02, -3.65875550e-02,
          2.81299427e-02, 4.98461127e-02, 4.88758720e-02, 1.11227399e-02,
          1.71149299e-02, -7.00568184e-02, -8.38636011e-02,
          -5.10825142e-02, 1.09311333e-02, 9.61538628e-02,
          -5.32161631e-02, -6.10342622e-02, -2.27281870e-03,
          1.51893301e-02, -5.28456606e-02, -1.12374946e-01,
          -4.38120030e-02, 4.67670523e-02, 3.40771712e-02,
          1.87819041e-02, 7.59764090e-02, 2.41740365e-02, 4.52627465e-02,
          -4.38630804e-02, -8.38722289e-02, -1.47535741e-01,
          -4.84620966e-02, -4.76862676e-03, 4.55650575e-02,
          -2.72648633e-02, 2.75126193e-02, 6.14397861e-02,
          -6.38537556e-02, -1.30258888e-01, -1.88618638e-02,
          4.71659675e-02, -5.23373075e-02, -2.88856756e-02,
          -6.52901307e-02, 4.77826875e-03, 1.18001200e-01,
          -2.45209299e-02, -4.55855653e-02, 6.53166547e-02,
          5.44419773e-02, -2.51927767e-02, -5.44526801e-03,
          3.31148580e-02, 4.12339829e-02, 1.33819394e-02,
          -2.58824211e-02, 3.68615538e-02, -9.95237846e-03,
          -5.26820160e-02, -2.67210579e-03, -8.31941888e-02,
          -7.20236003e-02, -8.69136155e-02, 2.92254537e-02,
          -4.17384692e-02, 2.87067667e-02, 6.00776449e-02,
          1.32784367e-01, -9.55911726e-03, -4.35522199e-02,
          -8.67321491e-02, -3.42632420e-02, 5.61417937e-02,
          2.80212089e-02, 5.89512847e-02, -7.67838955e-02,
          -3.97561863e-02, -2.95278504e-02, -1.43989697e-01,
          -2.76461076e-02, -7.09390193e-02, 9.77206826e-02,
          -6.93314988e-03, -7.40153193e-02, -2.06096135e-02,
          -1.06368009e-02, 2.34111156e-02, -3.77302058e-02,
          1.54242513e-03, -2.86591016e-02, 3.98484506e-02,
          7.89253879e-03, 9.04417187e-02, 9.48319305e-03, 5.94947189e-02,
          -7.91624710e-02, -1.24384403e-01, -1.50271386e-01,
          -9.03210938e-02, -3.21573876e-02, 1.98247600e-02,
          2.16637366e-02, -4.10130918e-02, -5.80500215e-02,
          6.39806911e-02, -7.02552265e-03, 8.22256356e-02,
          4.14618067e-02, 6.35488257e-02, -1.39852827e-02,
          -1.19082415e-02, -1.97015014e-02, 8.59715044e-02,
          7.38036335e-02, -5.16817793e-02, -2.15220712e-02,
          -1.56040445e-01, -4.38871980e-02, -8.75824839e-02,
          8.81901942e-03, -8.25210381e-03, -3.32254618e-02,
          -6.38753995e-02, -4.25158776e-02, 6.67627379e-02,
          5.04591390e-02, -2.89917216e-02, -1.45243615e-01,
          -9.62940305e-02, 7.74741545e-02, 1.27170933e-02,
          -5.72127011e-03, -8.69876966e-02, -1.35715799e-02,
          2.10691541e-02, 4.72071804e-02, -5.96554801e-02,
          -1.12828128e-01, 6.02154359e-02, -8.98362696e-02,
          -2.33186278e-02, -4.15538512e-02, 5.64018525e-02,
          -3.31799984e-02, 5.25091700e-02, -9.56645757e-02,
          2.09999401e-02, 7.87550882e-02, 7.27786571e-02, 3.35804261e-02,
          3.60840969e-02, -6.55589774e-02, -3.55993919e-02,
          9.03165042e-02, 5.95492823e-03, 7.90443346e-02, 7.34917223e-02,
          1.07179265e-02, 7.08712637e-02, -8.44012499e-02,
          -8.95711929e-02, -4.84935530e-02, 1.65028013e-02,
          -2.04584002e-02, 7.15138530e-03, 6.10303320e-02,
          -6.84109405e-02, -3.57552208e-02, 5.70541471e-02,
          -1.04821503e-01, -3.34166288e-02, -9.08866618e-03,
          2.07051169e-03, 6.77429661e-02, -1.69980172e-02,
          7.15940967e-02, 3.50928344e-02, -6.03464991e-02,
          -3.95873897e-02, -2.54174266e-02, 8.85153860e-02,
          -3.36321779e-02, -5.18576130e-02, 2.21638801e-03,
          -4.19023372e-02, -5.42021729e-02, 1.07836731e-01,
          -1.06785052e-01, -3.37860323e-02, 5.25151100e-03,
          -7.70531967e-02, -8.03873390e-02, -2.07276409e-03,
          4.98621948e-02, 5.74707426e-03, 1.31208837e-01,
          -5.62259071e-02, -7.78304487e-02, -2.35293787e-02,
          -5.46072014e-02, 6.56031910e-03, 6.14337623e-03,
          9.38646719e-02, -5.85126244e-02, -4.33312766e-02,
          -4.20501418e-02, 2.96353027e-02, -1.05192903e-02,
          -3.84266600e-02, -2.86098681e-02, 1.28201284e-02,
          2.93268617e-02, -6.40960261e-02, 7.15801269e-02,
          -9.39608812e-02, -5.63019626e-02, -3.53270285e-02,
          -8.06257725e-02, -3.36376727e-02, 7.34574199e-02,
          1.18211798e-01, -3.22789177e-02, -2.76973192e-03,
          -1.23241343e-01, -3.68344858e-02, 4.34491448e-02,
          -4.72658873e-02, -2.92759687e-02, 5.36716077e-03,
          -2.77360771e-02, -4.56673428e-02, -3.28434333e-02,
          1.27021428e-02, 5.66175878e-02, 5.93658630e-03,
          -7.25430846e-02, -4.92102802e-02, -7.23019093e-02,
          -3.23335305e-02, -3.74407321e-02, -3.79310511e-02,
          -8.85431189e-03, 9.26568806e-02, 6.82429075e-02,
          1.05399219e-02, -4.12691049e-02, 6.39715493e-02,
          -3.82236834e-03, -2.26573482e-01, 7.01480061e-02,
          -7.13072941e-02, -1.52471717e-02, 2.36459002e-02,
          -5.20962738e-02, 1.81000773e-02, -7.30782747e-02,
          -1.11210965e-01, -1.23238355e-01, 4.16608900e-02,
          6.80575473e-03, 2.76991706e-02, 1.23247623e-01, 4.59347479e-02,
          4.95775137e-03, -8.40735734e-02, -4.37038839e-02,
          4.93078269e-02, 1.16744032e-02, 1.63932927e-02, 5.30896150e-02,
          4.44123782e-02, 1.46485073e-02, 6.08313130e-03, 5.47580644e-02,
          -4.15425301e-02, 1.95475575e-02, 1.13654807e-01,
          -3.37083414e-02, -3.31453905e-02, -6.44809380e-02,
          -7.69961849e-02, 6.01622686e-02, -1.20869435e-01,
          -1.82910096e-02, -8.09913203e-02, 3.69388089e-02,
          2.84889173e-02, 1.06009431e-01, 7.83925280e-02,
          -3.42788212e-02, -8.11373666e-02, 2.16045766e-03,
          -6.53491169e-02, -1.05151236e-01, 1.42284436e-02,
          2.59554088e-02, 2.58378815e-02, -3.39985220e-03,
          -9.06196311e-02, -3.98007929e-02, 6.81045428e-02,
          -9.89543553e-03, 8.07975307e-02, 1.25942796e-01,
          1.42087340e-02, 4.39080931e-02, -4.96217981e-02,
          -6.54950961e-02, 4.10911292e-02, 4.28642742e-02,
          -1.53266825e-02, 1.64986178e-02, 6.80241063e-02,
          1.80378873e-02, 4.54790629e-02, -3.08945272e-02,
          8.20072182e-03, 7.28139887e-03, 1.18975360e-02,
          -1.18330628e-01, -4.88184169e-02, 7.58080706e-02,
          8.29472169e-02, -2.25648494e-03, -6.53812662e-02,
          -1.59878959e-03, 1.22921215e-02, -3.41223925e-02,
          -2.02977061e-02, 1.73646566e-02, 7.67777022e-03,
          5.09819761e-02, -1.60495892e-01, -2.96891984e-02,
          -2.33692527e-02, -1.13204569e-01, 6.74446821e-02,
          6.28311485e-02, 1.42471287e-02, 1.53201716e-02,
          -5.24747521e-02, -1.01921717e-02, 1.62404999e-02,
          5.86502180e-02, 7.02927995e-04, 2.74973270e-02, 9.74145085e-02,
          2.66805980e-02, 3.87815535e-02, -1.02946199e-01,
          -3.98720056e-02, 3.06172948e-02, 1.58045553e-02,
          -4.37091738e-02, 2.33089249e-03, 5.37921749e-02,
          3.78619693e-02, -1.29566481e-03, -1.53233586e-02,
          -4.73020673e-02, -4.28196676e-02, -1.35232210e-01,
          -1.81764439e-02, -4.29736599e-02, 2.89533101e-02,
          -3.77765037e-02, -6.89082965e-02, 1.33405440e-02,
          -4.55313316e-03, 2.33803466e-02, -5.64443804e-02,
          -3.64564918e-02, -3.38738039e-02, 8.98464397e-02,
          4.25600745e-02, -2.62685702e-03, -7.21773412e-03,
          -2.89390516e-02, -1.00504942e-01, -3.36246043e-02,
          1.69139374e-02, -3.11834384e-02, 7.66325742e-02,
          4.92289104e-02, -1.49705764e-02, 5.44688329e-02,
          -5.22130542e-02, -1.91439707e-02, 7.24643990e-02,
          5.83741907e-03, -8.01284015e-02, 5.07992283e-02,
          1.77130066e-02, -7.47641176e-02, 1.21975221e-01,
          8.45352411e-02, -1.52191013e-01, -1.00934371e-01,
          -1.03912689e-01, -9.22062099e-02, -5.55185005e-02,
          2.85910666e-02, -6.72861487e-02, 1.31215304e-01,
          -7.85217285e-02, -6.60728291e-02, -1.59334522e-02,
          7.26690367e-02, -1.74177922e-02, 2.91802213e-02,
          9.79037285e-02, 9.42371264e-02, -5.25869317e-02,
          -5.23461103e-02, -6.98195323e-02, -2.43355352e-02,
          -5.15595824e-02, -5.79383224e-02, 8.45059287e-03,
          6.44551888e-02, -1.34244096e-02, -1.01388998e-01,
          -8.47010538e-02, -8.85038152e-02, -5.81762269e-02,
          -9.01495293e-02, -9.88451988e-02, -3.72263491e-02,
          7.34041259e-02, 7.10348636e-02, -5.19533269e-03,
          -1.55365737e-02, 4.42091608e-03, -1.58495102e-02,
          4.09906879e-02, -8.28882903e-02, -4.85043228e-02,
          7.57118538e-02, -2.99306419e-02, -8.13687742e-02,
          5.19829765e-02, 4.48635407e-02, -8.94597266e-03,
          -1.53562114e-01, -1.10968597e-01, -3.12272180e-02,
          -7.73637742e-02, -3.89597788e-02, -3.81737761e-02,
          3.17570707e-03, 3.35921571e-02, -6.57675788e-02,
          -5.78188300e-02, -2.25287117e-02, 7.60670602e-02,
          -3.98995169e-02, -3.00454721e-02, -7.14371726e-02,
          -3.62729616e-02, 3.16729280e-03, -1.03890039e-01,
          -6.87795803e-02, 7.18594640e-02, -1.74912587e-02,
          -8.02992731e-02, -3.51602100e-02, 1.77926663e-02,
          -4.02800143e-02, -3.38080004e-02, 7.41064996e-02,
          2.51497468e-03, -3.45334895e-02, 5.38861603e-02,
          -1.94196012e-02, -5.74599877e-02, 3.49406451e-02,
          -4.97552045e-02, -4.55100983e-02, 6.49758428e-02,
          -4.56591360e-02, -5.48401661e-03, 5.60925491e-02,
          -4.39398102e-02, -2.83888411e-02, -6.95332289e-02,
          -1.20112291e-02, 4.70291115e-02, -2.41871979e-02,
          -2.47143693e-02, -3.71252559e-02, -2.70030033e-02,
          -1.13712534e-01, 4.93297689e-02, -1.45250455e-01,
          1.94258951e-02, 4.24572714e-02, -6.66547790e-02,
          -7.01254606e-02, 9.44612175e-02, 3.22239026e-02,
          -1.48822069e-02, -3.02958824e-02, -4.20858189e-02,
          -1.48990750e-03, 7.05445781e-02, 4.27272283e-02,
          8.37827194e-03, -1.34427836e-02, -1.05585501e-01,
          -7.18609393e-02, 1.50374603e-02, -3.29240710e-02,
          1.48095964e-02, -1.11478670e-02, -1.87615424e-01,
          -3.96311991e-02, -8.26781522e-03, -6.47109747e-02,
          -1.64080828e-01, 1.97896641e-02, 2.10607909e-02,
          6.45680875e-02, -9.00408439e-03, -1.64056604e-03,
          3.54446983e-03, 5.10619543e-02, -6.60607815e-02,
          -1.10956766e-01, 1.23010360e-01, 1.05838537e-01,
          3.20691243e-02, 3.02008428e-02, 4.38539051e-02, 5.28319851e-02,
          6.85406383e-04, -4.09019142e-02, -9.71197244e-03,
          1.90413941e-03, 1.44317076e-02, 6.31046388e-03,
          -4.63940715e-03, -9.21219066e-02, -7.54404999e-03,
          4.54726145e-02, 1.88724138e-02, -2.73917634e-02,
          4.89727557e-02, -6.28403388e-03, 9.16760713e-02,
          1.17033705e-01, 7.17883781e-02, 7.80717060e-02,
          -5.13141081e-02, -6.54638261e-02, -1.48787886e-01,
          1.31159201e-01, 8.80378187e-02, 2.09915154e-02, 9.97776315e-02,
          8.77220705e-02, 4.94406745e-02, -1.34996340e-01,
          -8.03230926e-02, -4.66964729e-02, 1.36888981e-01,
          1.11021705e-01, 8.29318538e-02, 1.36121750e-01, 1.10254034e-01,
          4.89945617e-03, 5.01675792e-02, 5.95815629e-02,
          -1.76061288e-01, 2.11507026e-02, 4.34260182e-02,
          3.55985388e-02, 9.24209692e-03, 7.94686228e-02, 1.09836623e-01,
          1.11465193e-01, -1.10674597e-01, -1.66325063e-01,
          -9.80724171e-02, -5.32936305e-03, 5.62229156e-02,
          7.18150586e-02, 8.02575871e-02, 5.20111509e-02,
          -2.22336985e-02, -3.48356701e-02, -1.04724765e-01,
          1.09219231e-01, 1.01574846e-01, 1.36247039e-01, 1.05888955e-01,
          3.46265323e-02, -2.76888218e-02, 3.16148885e-02,
          -4.98378687e-02, 5.67091480e-02, 8.85187313e-02,
          5.69830090e-02, 9.45310071e-02, 2.03809477e-02,
          -9.22092870e-02, -1.51361404e-02, -1.55149903e-02,
          -7.47802258e-02, -2.78670222e-01, -4.86907200e-04,
          1.92859508e-02, 3.54211479e-02, 1.14881344e-01, 8.38352069e-02,
          -3.55464108e-02, -1.03197172e-01, -8.98676366e-03,
          -1.28270825e-02, 1.17275730e-01, -6.39448315e-02,
          1.66456010e-02, 1.50802312e-02, 1.04663081e-01,
          -3.41740549e-02, 1.55970797e-01, 2.28647306e-03,
          9.83504727e-02, 7.47704133e-02, 5.11897802e-02, 6.23681098e-02,
          -7.52581879e-02, -7.08767399e-02, 7.94967189e-02,
          8.08056518e-02, 5.64841069e-02, 9.06597823e-02, 1.27802163e-01,
          1.30217642e-01, -6.05367776e-03, 8.66126642e-03,
          -2.06974521e-02, 3.30493134e-03, 1.48438275e-01,
          5.62479012e-02, 3.66009921e-02, 4.33262996e-03,
          -1.44084409e-01, 8.67186636e-02, 1.32921152e-03,
          4.29578274e-02, 2.78834011e-02, 8.29025134e-02, 6.32680282e-02,
          -1.93750020e-02, 8.37185699e-03, 2.57495530e-02,
          6.33701161e-02, 1.10375416e-02, -1.34286508e-01,
          -2.90332008e-02, -2.48284638e-02, 1.02924757e-01,
          1.15543328e-01, 3.89421917e-02, 4.23528887e-02,
          -1.31228762e-02, -6.87762201e-02, -1.60655871e-01,
          -4.79035899e-02, 5.25705516e-02, 2.61107497e-02,
          5.65774031e-02, 1.27782288e-03, 2.00878661e-02, 1.20966122e-01,
          -2.43554972e-02, -1.28960952e-01, 4.63475063e-02,
          -1.07530935e-03, 1.07177801e-01, 5.59275374e-02,
          -3.34019586e-02, -1.68202184e-02, 2.29142699e-02,
          -1.03265673e-01, -2.26997629e-01, -4.10002992e-02,
          5.52183390e-03, 2.74938121e-02, 1.58878744e-01,
          -2.23374311e-02, -4.45417576e-02, 2.78040413e-02,
          -1.45056993e-01, -1.38934031e-01, 1.20423629e-03,
          5.46721555e-02, 5.23699075e-02, 3.49767022e-02,
          -3.48843224e-02, 4.03208621e-02, 6.37521297e-02,
          -1.22009031e-01, -1.67777121e-01, 8.68707546e-04,
          4.06051949e-02, 1.22948689e-02, 2.79474221e-02,
          -4.41766903e-02, 2.45038532e-02, -2.55411491e-02,
          -1.36995330e-01, -5.91062792e-02, 4.41367254e-02,
          -4.24176082e-02, -3.57391834e-02, 5.71573749e-02,
          -5.35403527e-02, 8.37745331e-03, -2.81987283e-02,
          -1.28354833e-01, -4.07820567e-02, 1.11246286e-02,
          2.88578458e-02, 1.51271578e-02, 6.21130839e-02,
          -8.49517584e-02, -1.31071150e-01, -1.42493978e-01,
          -2.33717397e-01, -3.52328010e-02, 3.85552868e-02,
          1.06375087e-02, -3.77200693e-02, 2.73801275e-02,
          1.54106485e-04, -3.47324535e-02, 1.04136877e-02,
          4.56976965e-02, 1.30208628e-02, 2.34141890e-02,
          -8.96726176e-02, -6.79141358e-02, 5.19101433e-02,
          5.07068355e-03, -8.99936352e-03, 5.99369109e-02,
          9.31821764e-02, 1.70779955e-02, -7.42953345e-02,
          -7.37496763e-02, -3.74107398e-02, 2.96543427e-02,
          -7.84669742e-02, -1.38861671e-01, -1.80983976e-01,
          1.43919478e-03, 1.71421263e-02, 4.88541983e-02,
          -1.33161530e-01, -1.85127482e-02, -2.29484271e-02,
          -7.28324521e-04, -4.38705832e-02, -3.94849367e-02,
          1.21773623e-01, -6.87946333e-03, 1.33280950e-02,
          1.04028180e-01, -7.83291925e-03, 2.23684497e-02,
          4.22973484e-02, 7.48935249e-03, 1.46803008e-02, 5.29590808e-03,
          5.91042042e-02, -2.51479112e-02, -9.75204108e-04,
          4.05746400e-02, 1.05539886e-02, -3.17938603e-03,
          -5.09393550e-02, 8.10976606e-03, 6.81949034e-02,
          6.01887405e-02, -5.71554974e-02, 2.32413579e-02,
          -9.91218984e-02, -1.46499472e-02, 6.04302213e-02,
          -1.78521816e-02, -1.44724501e-02, 1.68599393e-02,
          -5.98489493e-03, 3.75348814e-02, -1.24039620e-01,
          4.35271068e-03, -9.83689819e-03, 6.99378178e-02,
          -7.99233690e-02, 7.05995783e-02, 5.56535237e-02,
          2.12118533e-02, -8.81172940e-02, 4.60831486e-02,
          3.14525552e-02, 2.69636381e-02, 5.00419587e-02, 1.08184572e-02,
          -2.54498757e-02, 4.10946459e-02, -4.74728458e-02,
          -1.82613935e-02, 5.91504537e-02, -1.69453509e-02,
          -4.67885584e-02, 4.13125157e-02, -3.38596590e-02,
          6.82312995e-02, 2.66737808e-02, -1.90024972e-01,
          -8.08906928e-02, 9.61285904e-02, 4.62361351e-02,
          -4.90764156e-03, -2.93176640e-02, 1.42785475e-01,
          2.88488790e-02, 3.28321941e-02, 1.73936151e-02,
          -2.89751380e-03, 6.62212968e-02, 9.55466239e-04,
          -1.00696921e-01, -3.87200341e-02, 7.40467310e-02,
          5.33718877e-02, 1.13538355e-01, -1.76437609e-02,
          -1.36863738e-01, 6.38163164e-02, 3.64132263e-02,
          1.78613868e-02, -2.57370081e-02, -2.78831664e-02,
          -1.23888776e-02, 7.59159476e-02, -5.95154315e-02,
          -1.64013319e-02, 8.66160989e-02, 1.52782470e-01,
          -6.57312423e-02, -6.74337372e-02, -7.94494823e-02,
          5.94418321e-04, 1.17263548e-01, 6.47174940e-02,
          -1.19983945e-02, 3.71554196e-02, 1.03691034e-01,
          5.76629154e-02, -8.54766369e-03, 6.40686378e-02,
          -1.28611222e-01, 6.20951504e-02, 5.96989803e-02,
          -4.38700139e-04, 1.03063062e-01, 1.70021489e-01,
          3.90354730e-02, 4.72353678e-03, -9.01021212e-02,
          -4.20597978e-02, -1.18705370e-02, 1.36073008e-01,
          -1.86358690e-02, -2.98395772e-02, 7.68973902e-02,
          -3.77069786e-02, 5.68387471e-02, 1.88588519e-02,
          4.10929509e-02, 3.55478413e-02, 3.47696766e-02, 8.46660510e-03,
          3.30810808e-02, -3.29992734e-02, -1.16297498e-01,
          -4.29236703e-02, -4.41384688e-02, 2.14999691e-02,
          3.51020843e-02, 5.65758087e-02, -5.13537712e-02,
          -6.16299845e-02, -5.47293387e-02, -1.14093989e-01,
          -3.85347381e-02, 3.33316810e-02, 1.04185224e-01,
          1.82648562e-02, 8.75872374e-02, -4.01317067e-02,
          -1.55592963e-01, -9.54813808e-02, -1.29012242e-01,
          -2.77303066e-02, -6.48735017e-02, 2.31775991e-03,
          -6.25564754e-02, 1.18600734e-01, -9.78151038e-02,
          5.59152961e-02, 3.33456695e-02, -2.18305036e-01,
          2.45824531e-02, -3.47165726e-02, -3.10301278e-02,
          -7.10308505e-03, 4.53406461e-02, -9.03904215e-02,
          -8.46186653e-02, -1.56485534e-03, -8.48815516e-02,
          6.61237687e-02, -1.15471847e-01, 3.95552963e-02,
          -3.94239537e-02, 4.03498560e-02, -3.39701883e-02,
          -1.10403441e-01, -1.83360800e-02, -8.91294181e-02,
          4.39519109e-03, 4.41079261e-03, -7.86186568e-03,
          -9.37696099e-02, 5.72856329e-02, -4.78091203e-02,
          -8.09180290e-02, -8.01151544e-02, -4.09475081e-02,
          4.93876599e-02, -1.23697720e-01, 2.15184651e-02,
          -4.38491106e-02, -7.73708373e-02, -1.70074403e-01,
          5.19914366e-02, -3.28103229e-02, -3.16455737e-02,
          3.09230257e-02, -2.23082781e-01, 8.82424340e-02,
          -3.48776951e-02, 8.55567865e-03, 2.37911455e-02,
          6.14803098e-02, 6.17244234e-03, -2.26323940e-02,
          7.01659778e-03, -2.09438503e-02, 5.41726388e-02,
          -8.46351981e-02, -9.61802229e-02, -4.65999097e-02,
          3.41816023e-02, -4.61814925e-02, -9.13180858e-02,
          3.64933796e-02, -1.59367070e-01, 1.39055267e-01,
          2.39855219e-02, -2.49698963e-02, -2.55445708e-02,
          1.02078058e-02, 8.73583704e-02, -6.37131110e-02,
          -3.85842323e-02, -1.12205118e-01, 9.96905416e-02,
          -3.06115113e-02, -6.36914149e-02, -4.70052138e-02,
          -2.46359967e-02, 5.24833538e-02, 6.19994104e-02,
          5.20447381e-02, -6.11290373e-02, 5.10878786e-02,
          -7.94718340e-02, -1.28645331e-01, -1.17875330e-01,
          -5.94830513e-02, 4.25565653e-02, 1.68184981e-01,
          4.67225164e-02, -1.04379892e-01, 4.71284576e-02,
          -7.37150237e-02, -1.14984196e-02, -7.24651814e-02,
          -9.57614779e-02, 1.03084326e-01, 1.09770425e-01,
          3.17920442e-03, -1.62158951e-01, -2.92448793e-02,
          -7.51785412e-02, -1.94118202e-01, -1.50353819e-01,
          6.96176142e-02, 1.67675894e-02, 3.90018858e-02, 4.22656909e-02,
          -6.13370501e-02, -1.07064672e-01, -1.57365829e-01,
          -6.37030825e-02, -1.20594122e-01, -3.69358771e-02,
          5.98997921e-02, 1.22990727e-01, 1.08719334e-01,
          -2.43382081e-02, 1.65415760e-02, -4.89003100e-02,
          1.61324646e-02, -3.22299376e-02, -6.06328696e-02,
          8.54456127e-02, 8.67098793e-02, 3.95456329e-02, 1.18885953e-02,
          -9.41785350e-02, -2.90791877e-02, 1.00061648e-01,
          -2.55447552e-02, -1.30011411e-02, 1.03381053e-01,
          6.71976432e-02, 6.82681352e-02, -1.40807033e-02,
          -7.28434473e-02, -1.37192741e-01, -3.56883816e-02,
          -1.54761732e-01, -6.63001165e-02, 1.28740817e-01,
          4.28074896e-02, -5.05573861e-02, 6.57618642e-02,
          -9.14868899e-03, -6.47199340e-03, 5.52956611e-02,
          -1.54705077e-01, -1.59515262e-01, 7.90101215e-02,
          1.00384682e-01, -1.30309528e-02, -1.05733290e-01,
          -8.13628361e-02, -5.12259081e-03, 3.02310009e-02,
          -1.05562612e-01, -1.70849875e-01, 1.61862209e-01,
          9.55269337e-02, 8.22390765e-02, -9.52991918e-02,
          -6.53229803e-02, 6.95917010e-02, -5.60181029e-02,
          -1.18609555e-01, -1.12214953e-01, 1.38405412e-01,
          3.47404256e-02, -8.34335238e-02, -4.30330373e-02,
          7.27025559e-03, 5.41454814e-02, 6.30346611e-02,
          -1.73698604e-01, -1.63050085e-01, 2.34272480e-01,
          1.58495948e-01, 6.96907043e-02, 1.68589689e-02,
          -3.67259458e-02, 1.05213016e-01, 2.73069181e-02,
          -2.19847336e-01, -1.62616707e-02, -1.27855271e-01,
          -1.06385149e-01, 1.02689900e-02, 1.76313259e-02,
          -8.91523156e-03, -5.69889368e-03, 3.67693678e-02,
          9.39276963e-02, 3.63300033e-02, 1.95837077e-02,
          -1.46936039e-02, 9.33374763e-02, 6.25016689e-02,
          6.56799553e-03, 1.16634117e-02, 1.02322109e-01, 2.58478485e-02,
          -5.55879623e-02, -5.09092584e-02, -1.00885302e-01,
          -3.85597162e-02, -5.22554219e-02, -9.53670442e-02,
          -2.75885090e-02, 1.44085214e-02, 7.71146044e-02,
          -5.37142484e-03, -9.92067158e-02, 3.91182676e-02,
          6.32593334e-02, -4.06867079e-02, -5.78039996e-02,
          2.90581007e-02, 5.31651638e-02, -3.41778435e-02,
          2.44942494e-02, 5.08045852e-02, -1.09432237e-02,
          -4.83596232e-03, 2.04260901e-01, -1.44705339e-03,
          -2.30676383e-02, 1.80650875e-02, -4.24871221e-02,
          -3.52841318e-02, -1.09729534e-02, -7.90192410e-02,
          -7.60663450e-02, -1.15921274e-02, -3.39738019e-02,
          8.94055143e-02, 2.27214526e-02, -1.13727957e-01,
          7.50998547e-03, -2.52580806e-03, 2.53373981e-02,
          -5.29321991e-02, 1.19962350e-01, 1.93468388e-02,
          -2.39606537e-02, 1.26911085e-02, -1.13446265e-02,
          3.66939604e-02, 7.12616416e-03, 4.68201898e-02,
          -6.11101538e-02, -8.19569081e-02, -1.20675184e-01,
          2.18224097e-02, -1.36963464e-02, 2.53749806e-02,
          -4.31740470e-03, 6.15837574e-02, 8.09828267e-02,
          5.79937436e-02, 4.11381200e-02, -1.18473083e-01,
          -2.55736448e-02, 8.99032950e-02, -2.37336778e-03,
          6.94917701e-03, 9.88547131e-02, 1.10416725e-01,
          -2.81121451e-02, -2.67154649e-02, -1.11888222e-01,
          -1.23097755e-01, 9.50844884e-02, 3.83827537e-02,
          9.87619907e-03, 7.43783787e-02, 6.27994537e-02, 1.53711736e-01,
          4.30198535e-02, -1.01572739e-04, -9.67362151e-03,
          3.04805189e-02, 4.68737297e-02, 2.99821515e-02,
          -1.84349588e-03, 1.23997681e-01, 6.92562461e-02,
          4.30952087e-02, -4.18338291e-02, -1.04717471e-01,
          -2.65779141e-02, 7.74467215e-02, -1.61346700e-02,
          1.70888100e-02, -6.43564574e-03, -3.67103890e-02,
          7.85612240e-02, 8.70177969e-02, -1.31924495e-01,
          5.49360029e-02, 5.24546066e-03, -1.62508283e-02,
          5.11733778e-02, -1.36479065e-01, 1.14381658e-02,
          5.83257638e-02, 4.49645892e-02, -6.75518960e-02,
          1.10982642e-01, 1.52808605e-02, 3.28536034e-02,
          -6.23824261e-03, -2.91556325e-02, 3.21149863e-02,
          1.37797982e-01, 9.10902843e-02, -7.70014077e-02,
          -3.86246033e-02, 4.34739403e-02, 6.63725734e-02,
          9.12550464e-02, -9.14721191e-02, 1.62021425e-02,
          1.29813299e-01, 1.16559722e-01, -1.40976712e-01,
          -1.16001768e-02, -9.27372649e-03, -8.33791941e-02,
          1.40240034e-02, -1.97660938e-01, -6.02865964e-03,
          9.42664221e-03, -6.86826929e-03, -1.79289326e-01,
          7.32723922e-02, -3.30541357e-02, -5.31471260e-02,
          -8.63465369e-02, -5.60447872e-02, 5.27722053e-02,
          -1.58304513e-01, -1.29982689e-02, -9.61894840e-02,
          -8.77715349e-02, -2.71245302e-03, -1.01814546e-01,
          2.31645759e-02, -1.66648120e-01, -5.72905410e-03,
          8.20028335e-02, 3.47849131e-02, -7.29958788e-02,
          -1.04279734e-01, -3.93887497e-02, 2.85984855e-02,
          -1.05350479e-01, -9.94767696e-02, 9.06654596e-02,
          3.85749713e-02, 1.17471651e-03, -5.28878048e-02,
          -9.11870450e-02, 5.95245790e-03, 2.22482346e-02,
          -4.40521576e-02, -1.33374780e-01, 2.75089052e-02,
          -2.27937952e-01, 7.52016976e-02, -4.95205969e-02,
          -9.29713100e-02, 1.00134285e-02, -1.05288774e-02,
          -4.51966003e-03, -5.82356676e-02, -1.00544013e-01,
          -1.65892869e-01, 5.70328385e-02, -3.62531804e-02,
          -1.45076625e-02, 5.44638857e-02, 1.04811285e-02,
          -9.03215557e-02, -9.99255627e-02, 9.85817462e-02,
          -3.47171240e-02, 4.26489860e-02, 7.68155605e-02,
          -9.43447649e-02, -7.64460713e-02, 2.02714819e-02,
          -6.87116608e-02, -1.04696658e-02, 1.09238721e-01,
          4.75486964e-02, 3.08645740e-02, 1.19500227e-01, 1.86231676e-02,
          -4.00899304e-03, 1.13116605e-02, 7.44409859e-03,
          1.40099116e-02, -9.57020894e-02, -1.46994680e-01,
          1.66790895e-02, 4.30056676e-02, -3.10874432e-02,
          -2.05788426e-02, 5.05860038e-02, -2.76548471e-02,
          -8.74539688e-02, -7.41843730e-02, -1.97494581e-01,
          -2.41035875e-02, -2.33528763e-02, 1.77894160e-02,
          -1.12633659e-02, -1.06499251e-02, -8.28918889e-02,
          -5.19019067e-02, -4.43912931e-02, -5.58583811e-02,
          3.82708907e-02, 4.15015854e-02, 2.40747221e-02, 2.48576142e-02,
          5.11773825e-02, 8.46674666e-02, 3.54814529e-02, 5.72457770e-03,
          -5.91246150e-02, 8.90048072e-02, 6.86459988e-02,
          1.14913389e-01, 1.01097226e-01, -4.31385301e-02,
          2.08964888e-02, -1.10526048e-01, -4.69499603e-02,
          -5.58278710e-02, -4.56748046e-02, -1.10935628e-01,
          2.12953631e-02, -9.31442231e-02, -8.46211910e-02,
          1.18906721e-01, -1.75474779e-04, -5.00541180e-02,
          6.19699433e-02, -6.24556467e-03, -6.05981890e-03,
          1.19034097e-01, -9.22940746e-02, 6.70001730e-02,
          4.20762599e-02, 3.11204568e-02, 5.82063198e-02, 1.23301998e-01,
          -1.08931409e-02, 1.62199587e-02, 9.26071703e-02,
          6.77041337e-02, 6.90727308e-02, 8.35886970e-02,
          -2.31474768e-02, -4.03597429e-02, 6.37621284e-02,
          -2.37286128e-02, -3.55075579e-03, 4.22519334e-02,
          2.87750717e-02, -1.18208416e-01, 4.13518026e-02,
          -6.46208739e-03, -1.03739224e-01, -2.31775194e-02,
          2.17487686e-04, 2.72353850e-02, 6.82380274e-02,
          -1.43138692e-01, -1.29217103e-01, 8.27637613e-02,
          3.37659232e-02, -1.21276483e-01, -6.11497015e-02,
          -4.73599462e-03, 7.36029819e-02, 7.86748976e-02,
          -1.76102638e-01, -5.30139320e-02, -7.00311037e-03,
          -4.46442068e-02, -6.54085800e-02, 2.18752325e-02,
          -6.71020746e-02, -2.95129083e-02, 9.70840547e-03,
          -3.86453979e-02, -9.16119665e-02, 3.82301733e-02,
          9.87069681e-03, -3.89932506e-02, 3.06698848e-02,
          2.50949673e-02, 2.27036960e-02, -6.79663615e-03,
          -7.15001673e-02, 2.32843147e-03, 2.08912045e-03,
          -1.32092744e-01, -1.09134480e-01, -5.98606914e-02,
          -2.05076694e-01, -1.68009792e-02, -6.12764107e-03,
          -1.87459830e-02, -1.15022622e-01, -3.49632800e-02,
          1.93274263e-02, -4.26787138e-02, -3.35547775e-02,
          -6.58608302e-02, -1.95789728e-02, 5.88602014e-02,
          -4.41022962e-02, -1.61578581e-02, 3.07254512e-02,
          -9.33290124e-02, -3.16215046e-02, 5.96233197e-02,
          -5.86035252e-02, -3.35015208e-02, 3.01641095e-02,
          1.16636408e-02, -4.60878089e-02, -3.39342169e-02,
          -3.05555407e-02, -2.42596045e-02, 3.70725058e-03,
          3.88549902e-02, 4.55854833e-02, 5.82852699e-02, 9.76398736e-02,
          -2.37500276e-02, -9.31145158e-03, -3.46016581e-03,
          -4.80826274e-02, 1.12491205e-01, 5.12800887e-02,
          -2.38661226e-02, 2.68600564e-02, -3.28033268e-02,
          6.42653853e-02, 1.75794377e-03, -5.91701977e-02,
          -4.21787947e-02, -6.03659414e-02, -1.04578190e-01,
          6.53062155e-03, -5.06167300e-02, -3.00588235e-02,
          2.06367243e-02, -3.87793779e-02, 1.82951353e-02,
          -2.74727214e-02, 1.47292823e-01, 2.27982290e-02,
          -8.79095308e-03, -2.48028170e-02, 5.64598329e-02,
          5.19541875e-02, 1.60425436e-02, 4.55840789e-02,
          -4.26200330e-02, -9.39668640e-02, -1.30264670e-01,
          -5.57227954e-02, -4.61966097e-02, -2.82737184e-02,
          8.28969758e-03, 2.73086857e-02, -1.45680532e-02,
          6.74565285e-02, -4.99715097e-02, -4.52633090e-02,
          -4.12824601e-02, 1.67385060e-02, 1.15124872e-02,
          -2.99885422e-02, 3.41759026e-02, 7.35183433e-02,
          1.41526103e-01, -5.44498861e-02, -4.93287742e-02,
          -6.14170395e-02, -8.71272981e-02, 2.35917717e-02,
          2.31641680e-02, 2.16495302e-02, -5.54424897e-03,
          1.10604493e-02, 6.33427873e-02, 6.14749640e-02,
          -9.59936180e-04, 1.66375134e-02, -4.49377075e-02,
          8.93149991e-03, 2.42270138e-02, -8.00437573e-03,
          1.27332676e-02, 3.10995914e-02, -8.92073289e-03,
          -7.76720047e-02, -4.59420644e-02, 6.47389656e-03,
          3.33854072e-02, 2.72175912e-02, 1.51007799e-02, 1.13946289e-01,
          1.14929281e-01, -2.82755550e-02, -1.17664605e-01,
          -3.30307633e-02, -2.34014168e-03, 4.84436229e-02,
          9.64016691e-02, -9.34064835e-02, 5.91843836e-02,
          6.35088682e-02, -1.01222964e-02, -1.20362170e-01,
          3.60126868e-02, -1.22366369e-01, 2.28155404e-02,
          1.10930420e-01, 6.50167167e-02, 1.03803463e-01, 1.05235755e-01,
          -4.26541306e-02, -1.04847915e-01, 3.25757042e-02,
          4.88402694e-02, 1.65951457e-02, 1.24371640e-01, 2.64790207e-02,
          7.63366893e-02, 8.67115036e-02, -2.45849956e-02,
          -5.68283312e-02, -2.14709877e-03, -1.04589403e-01,
          -2.85744481e-02, 3.15584429e-02, -1.26303256e-01,
          -1.03608053e-02, 2.34960597e-02, 3.96566428e-02,
          -5.51454239e-02, -6.85526058e-02, -5.55986464e-02,
          -4.83381748e-02, -3.75784375e-02, -4.47277725e-02,
          5.89841008e-02, -2.52864161e-03, 2.46448182e-02,
          -1.13079762e-02, -1.04275376e-01, -6.67465851e-02,
          -4.07711193e-02, -4.68922667e-02, -4.17619050e-02,
          1.54643683e-02, 7.46704563e-02, 1.14977034e-02,
