%YAML:1.0
my_svm: !!opencv-ml-svm
   svm_type: C_SVC
   kernel: { type:LINEAR }
   C: 1.
   term_criteria: { epsilon:2.2204460492503131e-16, iterations:2000 }
   var_all: 1188
   var_count: 1188
   class_count: 2
   class_labels: !!opencv-matrix
      rows: 1
      cols: 2
      dt: i
      data: [ -1, 1 ]
   sv_total: 1
   support_vectors:
      - [ -1.99602786e-02, -7.79829770e-02, -4.54495430e-01,
          -3.14216256e-01, -3.13929021e-01, -1.46896794e-01,
          4.02212888e-01, 1.89836964e-01, 2.14399084e-01,
          -2.06450358e-01, 1.44124642e-01, -1.89271539e-01,
          -1.24774680e-01, -9.42359492e-02, -8.07006955e-02,
          -3.35466862e-01, -2.74842918e-01, -2.83783793e-01,
          2.33210966e-01, -1.78473979e-01, -4.09914702e-01,
          -1.99552938e-01, -2.15670064e-01, 5.52439392e-02,
          2.12640166e-01, -1.92582369e-01, -1.07742734e-02,
          -6.86343908e-02, 4.77100343e-01, 2.42559806e-01,
          -1.11622259e-01, -1.46529570e-01, -2.52374619e-01,
          -7.05496669e-01, -3.37141544e-01, -3.12617093e-01,
          -3.07360411e-01, -9.06966850e-02, -2.99244136e-01,
          -1.82690576e-01, -9.59752426e-02, 2.68915623e-01,
          1.20629184e-01, 3.70254129e-01, 1.28698096e-01,
          -7.68871844e-01, -4.12174016e-01, 5.16734943e-02,
          2.08119184e-01, -1.30371034e-01, 4.91743445e-01,
          2.27928296e-01, 6.59568965e-01, 2.08831951e-02,
          -7.70381317e-02, 5.06896973e-01, -1.42737255e-01,
          4.53879833e-01, 1.38610184e-01, 3.13378632e-01, 8.81444588e-02,
          3.56425524e-01, 3.27921778e-01, 1.89510465e-01, 2.36327127e-01,
          -1.36545539e-01, 2.31912453e-03, -7.46516287e-02,
          7.79465511e-02, 7.17917010e-02, -2.37832721e-02,
          1.19570382e-01, -4.15540725e-01, 6.74691573e-02,
          -8.66575167e-03, 5.71020059e-02, -2.92926937e-01,
          2.33318925e-01, 5.79114258e-01, 4.56261009e-01,
          -4.87938672e-01, 2.11074531e-01, 2.53986835e-01,
          3.09365511e-01, 2.02519938e-01, 4.42366779e-01, 2.20099941e-01,
          5.50584614e-01, 5.17482400e-01, -2.55655916e-03,
          1.78572074e-01, 1.79980040e-01, 2.25979447e-01,
          -2.53299683e-01, -6.70681745e-02, -5.34188986e-01,
          1.65127143e-02, -1.32620558e-01, 2.65482992e-01,
          1.56989649e-01, -5.36375880e-01, -1.57992989e-01,
          3.88204962e-01, -2.99734145e-01, 1.59413189e-01,
          -1.81599826e-01, 2.26751953e-01, 2.07363069e-01,
          -2.28572175e-01, 4.59456220e-02, 5.02905920e-02,
          2.63082027e-01, 6.20348155e-01, 2.91527510e-01, 2.32346624e-01,
          3.76721382e-01, 1.54206797e-01, -9.58717689e-02,
          1.23984694e-01, 2.35889688e-01, 2.74601847e-01,
          -2.95702517e-01, 1.37438495e-02, -1.21725760e-02,
          1.10138960e-01, 1.98056221e-01, -2.55493373e-01,
          -3.28655869e-01, -2.20318094e-01, 4.86969173e-01,
          7.00638145e-02, 1.99386716e-01, -1.46074563e-01,
          1.22683510e-01, -4.05852228e-01, 2.89966673e-01,
          2.61691540e-01, -4.32925731e-01, 6.66309148e-02,
          -5.72141469e-01, 2.05825925e-01, -1.34345144e-01,
          -3.06840334e-02, -1.14432186e-01, -3.32136184e-01,
          -1.28593788e-01, -5.55761978e-02, 1.81095421e-01,
          7.98600167e-02, 2.39011347e-01, 1.70507476e-01, 1.28576189e-01,
          6.35575410e-03, -1.23641714e-01, -1.97406001e-02,
          -3.24114680e-01, -2.37812251e-02, -2.57330626e-01,
          -3.99796158e-01, -4.53862935e-01, -1.19723871e-01,
          -9.66324359e-02, 2.51597483e-02, 2.63086885e-01,
          -4.40700024e-01, -2.91996986e-01, 1.67281464e-01,
          6.45893157e-01, 9.65105593e-02, 1.60123304e-01,
          -3.02490324e-01, 3.43618035e-01, 4.81430680e-01,
          1.89599708e-01, -2.57938951e-01, 7.64168575e-02,
          -1.88027784e-01, 8.07422847e-02, -6.52576685e-02,
          -1.18255690e-01, -1.07110433e-01, 2.34631915e-03,
          -1.62503630e-01, -4.58493866e-02, -4.88081872e-01,
          -2.75928736e-01, 1.39914930e-01, 3.40285867e-01,
          -4.83233213e-01, -5.78929633e-02, 1.19299084e-01,
          -1.82284117e-01, -1.59458574e-02, -3.51630092e-01,
          -3.69247019e-01, -6.32590652e-02, -1.69613078e-01,
          -1.34111390e-01, 1.23187743e-01, -2.40885511e-01,
          -1.78330168e-01, -1.86404109e-01, 1.86353117e-01,
          1.31837040e-01, 5.23689032e-01, 2.51799077e-01,
          -8.01531613e-01, 3.39678079e-01, 3.20701338e-02,
          -1.10095575e-01, 6.54980361e-01, -2.14552246e-02,
          9.34463516e-02, -1.15634330e-01, -1.76378801e-01,
          -1.56673133e-01, -2.73151934e-01, 3.09518576e-01,
          1.66654989e-01, 7.76273981e-02, -1.31619066e-01,
          6.39908761e-03, -6.90413117e-02, 2.31088817e-01,
          -3.70324641e-01, 1.59536690e-01, 1.32025316e-01,
          7.91911483e-02, 7.31098279e-02, 3.88169914e-01, 1.99332982e-01,
          1.34319544e-01, 4.03213054e-01, -3.60062152e-01,
          2.04088211e-01, 2.96358407e-01, -3.98340151e-02,
          -4.70789932e-02, 3.71645093e-01, 4.28235322e-01,
          -3.91512997e-02, -4.75154012e-01, -5.45251630e-02,
          1.39327258e-01, 1.70032531e-02, -2.93363959e-01,
          3.97200108e-01, 2.25151032e-01, 4.38996077e-01,
          -2.35359624e-01, 9.85060167e-03, 1.76528290e-01,
          1.10113434e-01, -2.06324011e-01, -4.27168533e-02,
          5.00209769e-03, -2.09571511e-01, 2.59047866e-01,
          1.56013697e-01, 4.85512555e-01, -3.72951031e-01,
          2.02968180e-01, -7.05747306e-01, -1.13374509e-01,
          -2.06517562e-01, 6.91144645e-01, -9.11045149e-02,
          3.71335983e-01, 4.44144696e-01, 3.43927324e-01, 4.31333072e-02,
          1.66929603e-01, -3.26689295e-02, 4.47042286e-01,
          1.28676379e-02, 2.84791023e-01, -2.24791810e-01,
          -2.64794201e-01, -1.48840681e-01, 2.63437599e-01,
          -2.54381329e-01, -1.63405258e-02, 5.66851124e-02,
          -7.81282037e-02, 3.13065022e-01, 1.46426529e-01,
          -2.43612453e-01, -1.02855891e-01, 3.96932364e-01,
          -1.90065905e-01, 3.06416065e-01, 3.80879074e-01,
          4.31218863e-01, 2.10766792e-01, 1.47947878e-01, 4.82577272e-02,
          1.09442547e-01, 3.09312791e-01, 1.12525538e-01,
          -6.43277541e-02, 7.09373280e-02, 3.41701329e-01,
          3.17515850e-01, 1.22717574e-01, 1.71742573e-01,
          -1.82579100e-01, 2.54487097e-01, -3.34277004e-01,
          -2.86695361e-01, 4.04900223e-01, -2.07240969e-01,
          1.13322645e-01, -3.60239930e-02, -1.74204081e-01,
          5.12228832e-02, 3.77186030e-01, -2.05676913e-01,
          -3.42298836e-01, 1.16992101e-01, 2.67343968e-01,
          5.65055668e-01, -9.04342234e-02, 2.59797037e-01,
          -6.82379752e-02, 2.28152156e-01, 4.83682007e-02,
          5.18220007e-01, 1.23948701e-01, -1.39302416e-02,
          1.32210523e-01, 5.36486566e-01, 7.73095936e-02, 5.93380295e-02,
          -8.00575763e-02, 6.03203028e-02, 4.12464499e-01,
          -2.24147543e-01, -4.15251739e-02, 2.56687909e-01,
          5.57883561e-01, -2.03958467e-01, -2.03258067e-01,
          -1.37589589e-01, -1.38509467e-01, 1.82071537e-01,
          3.14539492e-01, 1.77894950e-01, 1.35184661e-01,
          -8.12134054e-03, -8.58710185e-02, -2.28085697e-01,
          -2.06115767e-01, 1.24203051e-02, -8.72483104e-02,
          7.04464838e-02, 1.13842860e-01, 1.19059503e-01, 5.08102253e-02,
          -3.52217346e-01, 2.20510364e-01, -1.09293386e-01,
          -5.97472377e-02, -5.87795414e-02, -4.16343987e-01,
          1.72663331e-01, -3.52541566e-01, -1.26750067e-01,
          -6.74560964e-02, -2.00332120e-01, 6.39415383e-02,
          3.08197230e-01, 1.45675659e-01, -1.49220631e-01,
          1.91571824e-02, -5.38885146e-02, -3.01448524e-01,
          -3.86910737e-02, -8.48625600e-02, 1.72611952e-01,
          6.54810295e-02, -2.48551607e-01, 8.65597874e-02,
          -2.99685478e-01, -5.14829278e-01, -3.91197890e-01,
          1.46344870e-01, -1.21207111e-01, -1.08073175e-01,
          -1.53346688e-01, -7.39083961e-02, -4.66033578e-01,
          3.06901574e-01, -1.89053304e-02, 2.02219356e-02,
          5.21559417e-02, -3.42448682e-01, 9.05512497e-02,
          -4.14910614e-02, -1.26528874e-01, 4.74714160e-01,
          9.23696235e-02, 5.16771019e-01, 3.26723754e-02, 1.82716638e-01,
          3.97751451e-01, -2.79226810e-01, 4.71897200e-02,
          1.53033644e-01, 1.14685044e-01, -7.48312652e-01,
          1.11338377e-01, 2.86008328e-01, -5.72464406e-01,
          1.17747933e-01, -1.18199788e-01, 8.33324790e-02,
          1.42653316e-01, 8.17493975e-01, 1.46993190e-01,
          -5.08680701e-01, -6.21144414e-01, 1.36462480e-01,
          1.83189794e-01, -3.04886163e-03, -2.28695825e-01,
          -7.19366372e-02, 2.88372904e-01, -9.53580439e-03,
          4.50265268e-03, -2.56718919e-02, 1.72451079e-01,
          -1.90537110e-01, -1.99596033e-01, 5.69663532e-02,
          -1.46098631e-02, 3.47715229e-01, -1.08733393e-01,
          1.90296441e-01, 3.28770667e-01, 2.26407140e-01, 7.27254152e-02,
          4.91962954e-02, -1.03586763e-01, -5.46295464e-01,
          -2.69077662e-02, 1.90272167e-01, -1.76221386e-01,
          -3.72187227e-01, -1.77695081e-01, -3.00611109e-01,
          2.21987426e-01, 5.03754206e-02, 3.75146478e-01, 4.70978498e-01,
          2.93936264e-02, -2.67748326e-01, -2.32643411e-01,
          4.62088995e-02, 4.29385565e-02, 2.26096720e-01,
          -1.74846977e-01, 5.39908946e-01, -3.54760677e-01,
          1.55092001e-01, 1.23305596e-01, -5.28971136e-01,
          1.40591964e-01, 1.97167531e-01, 1.10084489e-01,
          -1.22573031e-02, -2.23827511e-01, 1.51058316e-01,
          3.58058512e-01, -3.65681201e-01, 6.49801791e-02,
          2.68244836e-02, 1.88958541e-01, 8.66720602e-02,
          -1.85737088e-01, -2.49042481e-01, 1.62816688e-03,
          -4.73060250e-01, -4.63632464e-01, -2.86827803e-01,
          2.47795060e-01, -9.19066519e-02, 6.12048525e-03,
          -1.22619290e-02, 3.33594412e-01, 1.13551751e-01,
          7.05501512e-02, -1.60014760e-02, 1.01823024e-02,
          -7.18237385e-02, 3.09872448e-01, -8.22591782e-02,
          2.26225659e-01, -1.82570770e-01, -3.69344890e-01,
          -2.88142234e-01, 1.11083239e-01, -2.25706831e-01,
          3.37781101e-01, 3.91570091e-01, -3.06257129e-01,
          -2.11717620e-01, -2.95671940e-01, 6.95980340e-03,
          5.18987067e-02, -1.34076893e-01, 5.46682000e-01,
          4.18478131e-01, -4.20109443e-02, 4.06303585e-01,
          3.23763102e-01, -6.31774068e-02, 6.21695101e-01,
          2.86286205e-01, 3.66849378e-02, 5.64059675e-01, 3.41727674e-01,
          1.65890083e-01, 8.09874311e-02, 3.67146581e-01, 2.91241724e-02,
          -9.56031159e-02, -3.06194667e-02, -2.03224912e-01,
          1.19911350e-01, 1.04582742e-01, 1.44182131e-01, 3.77252288e-02,
          1.72980830e-01, 3.01524669e-01, -1.02003194e-01,
          -3.16626787e-01, 2.80803859e-01, 3.29553425e-01,
          3.62378240e-01, 3.53173763e-01, -3.94125015e-01,
          7.47181624e-02, -4.99299824e-01, -1.54834330e-01,
          -2.66708806e-02, 2.38500744e-01, -6.68052062e-02,
          2.62769043e-01, -2.11482018e-01, 1.23731203e-01,
          3.29988986e-01, -9.16788056e-02, -2.15474486e-01,
          -1.31052911e-01, -2.25994438e-01, -3.80233526e-01,
          -4.34755087e-01, -3.94823760e-01, 8.76705423e-02,
          4.38164771e-01, 3.00635342e-02, 6.12551309e-02, 1.15227118e-01,
          -7.52384067e-02, -1.09598644e-01, 1.52664661e-01,
          1.10519327e-01, 1.60188422e-01, 3.71622384e-01, 3.97119850e-01,
          6.39436543e-02, 1.78696245e-01, 2.68811792e-01, 3.01765874e-02,
          2.60313809e-01, 3.44852239e-01, -7.51411617e-01,
          -4.74514991e-01, -1.74072474e-01, 5.52819930e-02,
          1.75979316e-01, 1.85039472e-02, 6.21833391e-02,
          -6.63802177e-02, -6.40565634e-01, 5.23027638e-03,
          1.07336655e-01, -7.90525153e-02, 3.36867809e-01,
          -5.98991551e-02, -1.41324669e-01, 1.67467102e-01,
          4.36511755e-01, -9.59544070e-03, -5.40373206e-01,
          -3.76781672e-01, 9.54566896e-02, 4.25309032e-01,
          -1.22339010e-01, 7.05675557e-02, 9.17231143e-02,
          -1.29015431e-01, -2.18151391e-01, 4.67799753e-01,
          1.10798277e-01, -1.06004059e-01, -6.62554920e-01,
          -1.07228123e-01, -1.90954998e-01, 1.37901679e-01,
          4.08367038e-01, -8.92684236e-02, 3.80668193e-02,
          -2.08213627e-01, -5.17518163e-01, -5.29398173e-02,
          -2.51493573e-01, 9.19858813e-02, -7.68950954e-03,
          1.21938609e-01, -4.19913232e-01, 1.31459653e-01,
          7.87151009e-02, -5.70520461e-01, -3.20095807e-01,
          -2.88562804e-01, -7.39917308e-02, -2.45979801e-02,
          1.12831339e-01, -1.15509331e-01, 2.33288622e-03,
          -3.62983234e-02, -2.96611428e-01, -1.26519784e-01,
          -1.75905213e-01, -7.61673152e-02, -2.28702307e-01,
          -4.20432955e-01, -3.09392065e-02, -1.37530029e-01,
          -8.43220428e-02, -3.38942826e-01, -5.95611632e-01,
          -4.75684613e-01, -1.43633366e-01, 8.12160447e-02,
          -3.71864617e-01, -3.07338178e-01, -6.01848215e-03,
          3.14417899e-01, -1.72713641e-02, -1.01109542e-01,
          -2.40850434e-01, 1.23426780e-01, 8.28492269e-02,
          3.55713665e-01, -6.11277670e-02, -2.08089232e-01,
          8.38591456e-02, -5.09166121e-01, -7.95894325e-01,
          -2.14907169e-01, -2.69460380e-01, -1.17171265e-01,
          4.51952010e-01, -3.35161418e-01, -1.46102726e-01,
          1.51438683e-01, -4.20729816e-02, 1.69367902e-02,
          -4.27057624e-01, -5.40483594e-01, -1.78162783e-01,
          -3.94173749e-02, 1.86504424e-01, -1.42895088e-01,
          -7.51403207e-03, -1.92989886e-01, -4.72071499e-01,
          -1.82601959e-01, -3.78418595e-01, 5.59927616e-03,
          5.35358846e-01, 9.83571485e-02, -1.37787610e-01,
          3.10413521e-02, -1.45317078e-01, -3.37827089e-03,
          8.64389986e-02, 1.52261063e-01, -4.61805351e-02,
          3.35758537e-01, -1.42546445e-01, 2.48026639e-01,
          2.57239223e-01, 2.24604178e-02, 5.01083806e-02,
          -3.16508263e-02, 2.70127594e-01, 1.52539406e-02,
          1.24579936e-01, 3.88139248e-01, -1.02613889e-01,
          1.57484964e-01, 2.31765196e-01, 9.61346924e-02, 2.73198396e-01,
          -1.03567109e-01, -4.24412638e-01, 1.31125048e-01,
          -2.36645043e-01, 4.12167728e-01, 1.49136215e-01,
          -1.63058713e-01, 2.83992052e-01, -6.00290857e-02,
          1.70187011e-01, -5.19314528e-01, 1.49414688e-01,
          -1.34301931e-01, 2.85633683e-01, 9.65614170e-02,
          4.35705893e-02, 4.74089980e-02, -1.76017120e-01,
          -2.95796804e-03, 3.15112263e-01, 2.53918886e-01,
          -6.67877793e-02, -7.06884980e-01, 1.47728436e-02,
          -2.24925041e-01, -7.33299479e-02, -8.10788497e-02,
          3.33953537e-02, -1.94109797e-01, -8.02283213e-02,
          1.32288113e-01, 1.18345536e-01, 4.19505537e-01, 1.28861770e-01,
          3.33838165e-01, 7.52332658e-02, -5.71578741e-03,
          -6.65372759e-02, -5.50137162e-02, 1.67684317e-01,
          -3.41359347e-01, -3.95471722e-01, -1.51013747e-01,
          -1.55249387e-01, 2.50138074e-01, 4.44538802e-01,
          1.57907233e-01, 2.21265957e-01, -1.75646588e-01,
          -5.05004048e-01, 1.82231441e-01, 3.11686784e-01,
          6.55421428e-03, -6.92921318e-03, -6.62486792e-01,
          -2.70930290e-01, -4.34951857e-02, -2.82538682e-01,
          -1.25531942e-01, 5.26437275e-02, -1.35898843e-01,
          -3.84097993e-01, 1.25165522e-01, -2.44143650e-01,
          -2.81316191e-01, -5.41488156e-02, -1.78782254e-01,
          -4.54009473e-01, -2.16254815e-01, -2.27858692e-01,
          -9.78445411e-02, 1.05805174e-01, 2.48904079e-01,
          -1.61293581e-01, 6.88124299e-02, 2.19218396e-02,
          -3.35702270e-01, 2.53523011e-02, -1.56692892e-01,
          1.84939340e-01, 5.04894137e-01, 4.66665208e-01, 2.02404618e-01,
          4.30024005e-02, -1.09130040e-01, 1.76188365e-01,
          1.26684740e-01, -5.04672788e-02, 1.76702112e-01,
          -6.03807330e-01, -1.51147157e-01, 5.76644003e-01,
          1.86914772e-01, -2.44779974e-01, -7.21248537e-02,
          -1.76923469e-01, -3.47276628e-01, 1.64159581e-01,
          -1.79565027e-01, -5.92591345e-01, 4.60179955e-01,
          -3.66184674e-02, -3.02532554e-01, 8.40287089e-01,
          4.30899382e-01, 2.80821890e-01, 7.81396389e-01,
          -8.09693933e-02, 1.69375017e-01, 2.37350121e-01,
          -2.73031175e-01, -1.40325323e-01, 5.07164419e-01,
          3.70072961e-01, 3.37885171e-02, 3.84284317e-01, 2.99054254e-02,
          -1.32819116e-01, 4.16634865e-02, -1.63571134e-01,
          -1.61007583e-01, 2.64934301e-01, -4.18351918e-01,
          -1.31106645e-01, -1.89692471e-02, -8.56570601e-01,
          -2.78782159e-01, 2.38517169e-02, -1.73104201e-02,
          -2.91760743e-01, 2.15339251e-02, -5.62201105e-02,
          1.24346398e-01, -4.26109105e-01, -6.58196211e-01,
          9.41833556e-02, -5.27638257e-01, 4.77369614e-02,
          -6.09024614e-02, 1.40984118e-01, 1.06075451e-01,
          4.66162823e-02, 2.70631790e-01, 1.04971401e-01,
          -1.29658267e-01, 5.40099740e-01, 1.91528723e-01,
          -4.02471274e-01, 2.66773373e-01, 1.89647213e-01,
          -1.84767440e-01, 2.74212688e-01, 1.06234886e-01,
          -2.79546957e-02, 1.71685174e-01, -3.64064902e-01,
          -2.49059293e-02, -2.58769840e-01, 1.39591455e-01,
          2.99326211e-01, -1.50136366e-01, -1.64950043e-01,
          -3.41373146e-01, -3.45796049e-01, 1.68411747e-01,
          -1.93448141e-01, 1.92360073e-01, -1.56997338e-01,
          -4.00920361e-01, -4.78535295e-01, -5.53872228e-01,
          -4.13480163e-01, -4.37009454e-01, 6.97312951e-02,
          -3.68990213e-01, 3.77966464e-01, 1.07664891e-01,
          1.03983805e-01, -7.26890415e-02, -3.16224784e-01,
          3.30877341e-02, -3.46082933e-02, -3.72321218e-01,
          -1.45575374e-01, 1.69318751e-01, -3.27608198e-01,
          -1.52369753e-01, 5.65120816e-01, 1.18392535e-01,
          -5.71775511e-02, 4.55475539e-01, 3.37896794e-01,
          -2.16433436e-01, -1.11098913e-02, 2.32531697e-01,
          2.74331838e-01, 4.41334173e-02, 4.26374912e-01,
          -6.14494622e-01, -3.31533432e-01, -3.89031887e-01,
          -1.08438611e+00, 1.65133566e-01, 2.94718206e-01,
          1.25688568e-01, -7.96260685e-02, 9.25705582e-02,
          -1.30838588e-01, 5.31967506e-02, 4.81990539e-02,
          -8.16221088e-02, 2.93692332e-02, -2.74387710e-02,
          2.14281797e-01, 2.90282428e-01, -5.76490015e-02,
          -2.52698600e-01, 2.64489025e-01, 3.53311896e-01,
          -1.08125538e-01, -5.08983016e-01, 5.03229499e-01,
          1.69388488e-01, -2.18689576e-01, -2.21288949e-01,
          2.32909530e-01, 5.72823770e-02, 3.72728221e-02, 1.67679444e-01,
          -8.59246328e-02, 2.98176855e-01, 2.20402762e-01,
          1.78035229e-01, 5.57574928e-01, -5.33165216e-01,
          -2.89440006e-01, -7.57770315e-02, -3.77693266e-01,
          -1.33376047e-01, -1.93960875e-01, -2.07907766e-01,
          1.69796810e-01, 2.83787340e-01, -3.29446793e-01,
          1.67059168e-01, 1.29455343e-01, -1.20814219e-01,
          1.36509594e-02, 4.26886797e-01, 3.15224111e-01,
          -1.94437772e-01, 3.66721720e-01, -2.26455271e-01,
          -5.10948241e-01, 5.67366444e-02, -2.44622290e-01,
          1.90324790e-04, 2.05041513e-01, -2.64356703e-01,
          -3.47103387e-01, 5.75264394e-02, -1.76764593e-01,
          -3.58248614e-02, 2.03871921e-01, -4.23440874e-01,
          -2.85838723e-01, -2.76452661e-01, 1.23868667e-01,
          2.36093014e-01, -1.37675479e-01, -3.83892119e-01,
          -8.33293144e-03, -2.99203217e-01, -2.19521046e-01,
          -1.15344644e-01, 1.41391814e-01, -3.71905029e-01,
          -4.25207734e-01, 7.35432386e-01, -7.82744810e-02,
          4.04304452e-02, 1.06799804e-01, -2.43941531e-01,
          -4.05626968e-02, 4.34757829e-01, 1.74844395e-02,
          5.29074594e-02, 1.32893473e-01, -3.88081312e-01,
          -1.60467252e-01, -1.80280194e-01, -2.64278680e-01,
          -1.30642161e-01, 4.45519149e-01, 3.25359590e-02,
          -1.73895061e-01, 2.98574299e-01, -1.21666268e-01,
          3.42215270e-01, 4.82247204e-01, 2.63464808e-01,
          -1.30190209e-01, -2.38670617e-01, -2.91720241e-01,
          2.04626217e-01, 4.78841007e-01, -1.13694221e-01,
          -6.01226926e-01, -2.91018724e-01, 1.62659720e-01,
          -2.73465335e-01, -3.14255416e-01, -1.38372658e-02,
          -8.92928708e-03, -9.88917649e-02, -3.25698107e-02,
          -4.14331377e-01, -7.96074513e-03, -2.17224490e-02,
          -1.57997668e-01, -1.93127185e-01, -1.68357790e-01,
          8.59123319e-02, 2.01236933e-01, -1.39376402e-01,
          -2.68825591e-01, -5.99361286e-02, 3.01914692e-01,
          4.83613349e-02, 4.93102938e-01, 4.90936697e-01,
          -1.75121740e-01, 5.55734813e-01, 3.01532559e-02,
          -5.90648828e-03, 4.18671697e-01, 8.83297920e-01,
          -1.32520407e-01, -5.27910829e-01, -1.83754787e-01,
          2.69047737e-01, 3.80740941e-01, -2.20705077e-01,
          -1.56236306e-01, -4.77697141e-02, 3.43540162e-01,
          2.60429919e-01, -5.06376505e-01, -4.05296087e-01,
          -1.39127791e-01, -2.43290868e-02, -3.97216201e-01,
          -2.02156350e-01, -3.69637832e-02, 2.87314624e-01,
          -4.82295185e-01, 1.95549890e-01, 5.71417570e-01,
          -1.55478612e-01, 4.60825801e-01, 8.08213577e-02,
          -1.96232185e-01, 2.24373132e-01, -1.41086400e-01,
          -3.59400600e-01, 2.79468805e-01, 1.24063067e-01,
          2.13895887e-01, 6.81951344e-01, -1.46360710e-01,
          -7.21615776e-02, 2.55483221e-02, 6.41859323e-02,
          -2.82471627e-01, -6.42839968e-01, -3.49432379e-01,
          4.01813269e-01, 3.32570583e-01, -3.03761214e-01,
          -3.21743488e-01, 4.03408557e-02, -1.74114063e-01,
          -1.73208743e-01, -2.37422585e-01, -4.87759322e-01,
          3.50964814e-01, -7.72040486e-02, 2.45946441e-02,
          -2.28022113e-01, -1.19885474e-01, -2.18861401e-01,
          -1.92248337e-02, -1.49827883e-01, 1.03881396e-01,
          8.25222116e-03, 2.26726800e-01, 1.32633269e-01, 4.05589081e-02,
          -4.90969062e-01, -4.25415710e-02, 3.17246407e-01,
          -2.09716514e-01, 3.73967856e-01, -4.12171632e-01,
          1.65430471e-01, -4.99150977e-02, 1.58668324e-01,
          -4.21215296e-02, 5.53931035e-02, 4.02835049e-02,
          2.26814717e-01, 2.46594884e-02, 3.15977991e-01, 1.18689291e-01,
          8.44649449e-02, 9.71793830e-02, -4.36371118e-01,
          3.81027400e-01, 1.32372096e-01, -2.21442670e-01,
          -2.25852132e-01, -7.96202943e-02, 2.14145601e-01,
          -1.90716222e-01, -9.54028964e-02, -1.01480342e-01,
          -4.96411830e-01, 2.46114552e-01, -4.14708406e-01,
          -2.40356222e-01, -1.74958229e-01, 7.38858059e-02,
          -2.59946525e-01, 3.16711724e-01, -5.35823032e-02,
          -5.73092699e-02, -4.43818331e-01, 3.46001573e-02,
          1.08587891e-01, 1.87216341e-01, 8.57629254e-02, 2.43517756e-02,
          1.16936021e-01, 1.66579559e-01, 8.96031335e-02, 4.48915176e-03,
          -5.88573456e-01, -3.96297514e-01, -2.14844406e-01,
          -2.17950512e-02, -1.95687115e-01, -1.25641646e-02,
          7.35420920e-03, -6.81202710e-02, 2.97694534e-01,
          2.16806665e-01, -3.17280829e-01, -3.61806393e-01,
          -5.96050769e-02, -2.46372983e-01, 8.85630250e-02,
          1.79575324e-01, -2.05340609e-02, -5.23858070e-01,
          -6.95875334e-03, -3.72986406e-01, -3.35676640e-01,
          8.04685950e-02, -5.32155521e-02, 1.53649971e-01,
          2.96538264e-01, -7.34464005e-02, -4.35763896e-01,
          3.07508290e-01, -1.12417243e-01, -5.27451634e-01,
          2.35695601e-01, -5.22980578e-02, 1.53080806e-01,
          2.91389167e-01, 3.14830601e-01 ]
   decision_functions:
      -
         sv_count: 1
         rho: -3.0441107760432318e+00
         alpha: [ 1. ]
         index: [ 0 ]
